4927 10
good -0.042117212 -0.6314759 -0.20373748 -0.009066278 0.24203937 -0.08201873 -0.06745593 -0.274393 -0.26135412 -0.17122723
great 0.42278987 -0.7425349 -0.2283711 -0.40284863 0.17805539 0.09433952 0.3275963 -0.24854866 -0.37862664 -0.2599094
movie 0.18837006 -0.37431356 0.613862 0.32404545 0.45228213 0.2153145 -0.19435343 -0.5419523 0.1893128 -0.05150626
phone 0.1931683 -0.7326579 0.023416672 0.82465076 0.0461196 0.25280082 0.41283315 -0.09965409 -0.72228616 -0.53337336
film 0.09338343 -0.3741483 0.6107287 -0.38504672 0.5003414 0.6091191 0.06644386 -0.47244227 0.12431095 0.28070855
one 0.03150921 -0.3854168 0.50279397 -0.21682726 0.008571632 0.7770429 0.2441411 -0.19852775 -0.060624953 -0.116956174
food -0.5925473 -1.1601304 -0.80316013 -0.49087477 -0.1211215 0.17597492 -0.23723063 -0.9183024 0.4077412 -0.47098282
like -0.55535585 -0.6597044 0.284991 0.4192671 0.48872232 -0.15111917 -0.25141004 -0.12518278 -0.15402088 0.077242434
place -0.56248564 -0.6717914 -0.28300387 -0.6550724 -0.25617477 0.71447736 0.078984834 -0.65312546 -0.07668139 -0.57207245
time -0.3258987 -0.55578345 0.18439032 0.054368965 -0.31363466 0.6151991 0.36643025 -0.39233342 0.24459296 -0.3010234
service 0.23597193 -1.555796 -0.87719655 -0.043171953 -0.37561852 0.07627319 -0.15248789 -0.9528653 0.030289486 0.05239256
bad 0.20973465 -0.6353972 0.053732462 0.9041706 0.521244 0.4978066 -0.100679144 -0.63584924 0.6853231 -0.16943417
really 0.16293244 -0.3804906 -0.023888657 0.22441846 0.3116465 0.30203998 -0.21244022 -0.45810157 -0.056741703 -0.3513725
well -0.02453249 -0.5308527 0.63492423 0.08261431 0.45981285 -0.09335476 0.28816226 -0.06782213 -0.77613384 -0.36816025
would -0.24341708 -0.5417759 0.7016088 -0.4740805 0.005527162 0.290593 -0.35275275 -0.42845592 -0.17650051 -0.7236189
best 0.22280833 -1.2999054 0.18168585 -0.34566867 -0.38839138 0.7885042 -0.1801528 0.30784082 -1.6438687e-05 -0.04515208
even 0.05264498 -0.8313343 -0.42086282 0.56692064 0.28863063 0.37158573 0.63890654 -0.32508838 0.49207255 0.2821426
ever 0.29714555 -1.4258881 0.5853619 -0.116585575 -0.56419724 0.9479949 -0.33350012 0.0012403685 0.5818796 0.015637329
also 0.13260387 -0.87244564 0.07177678 -0.009790003 0.70553905 -0.34131235 0.5799163 0.21139035 0.25265568 -0.35705015
back -0.73955953 -1.1521899 0.50280964 -0.097087555 -0.9305085 0.5237765 0.500336 -0.9258284 0.6184664 -0.8929491
quality 0.072581515 -1.5635399 -0.933125 0.59008723 -0.085719556 0.6637142 -0.46561015 -0.49384847 -1.2963758 -0.005767657
go -0.2537052 -0.84476227 0.3899945 -0.18511389 -0.7936016 0.6017962 -0.20545955 -1.0420889 0.068367206 -1.1117091
love -0.4679033 -0.7515172 0.40733 -0.4623675 0.3705304 0.19938906 -0.41620624 0.12805904 -0.7222938 -0.37190846
made -0.06608339 -0.9829614 0.27064568 -0.10445752 0.10603542 -0.424743 -0.066939905 -0.5363672 -0.3038263 0.28462246
work 0.7214636 -0.6208354 0.6907141 0.5062612 0.545294 0.5257942 -0.16115446 -0.10599599 -0.8876423 -0.6064755
product 0.07433974 -0.8118664 0.17982507 0.32454446 -0.4342439 0.3818313 0.20858109 -0.6645979 -1.0681047 -0.71028185
get -0.8656031 -0.6135829 -0.42156282 0.574725 0.0030430716 0.89097565 0.21678117 -0.51055056 0.44293922 -0.43731385
could -1.4257904 -0.4617361 0.523184 0.32423466 0.13509198 0.7996449 0.07791247 -0.52817374 -0.38151708 -0.073933624
nice 0.6850942 -1.5941173 -0.568224 0.1263208 0.4331724 -0.5282667 0.070151225 0.09577379 -0.23843582 -0.601838
better -0.9441751 -1.2109671 -0.09652254 0.019185366 0.20921448 0.51083475 -0.7440998 -0.3392048 -1.0421987 0.3856477
excellent 0.828643 -1.2386674 -0.5941143 0.2953614 0.49243423 -0.18145896 0.06420838 -0.5870103 -1.0963235 -0.2352148
works 0.20101391 -1.0037444 0.5417826 -0.76365995 0.16090545 0.39226937 0.41013867 -0.6849386 -1.9631038 -1.230852
never -0.50741875 -0.7427641 0.60344434 0.5565963 -0.24960144 0.4323364 -0.76673585 -0.73024315 0.16943261 -1.0625123
much -1.2376423 -0.87446207 0.2674096 -0.12220835 0.1797892 0.17796427 -0.48884758 -0.6000893 -0.875302 0.12234584
sound -0.21046948 -1.4925089 -0.83232826 1.4469235 0.64244795 0.76224566 0.14062351 -0.5675756 -1.5962213 0.5314058
recommend 0.73171824 -0.7394429 0.20838287 -0.39198086 0.15991463 1.018046 -0.47203568 -0.63274014 -0.43732166 -1.6203439
use -0.11807651 -0.8781362 -0.47522756 1.1783386 0.7338041 0.40788436 1.1579905 0.095768526 -0.64521515 -0.3790832
headset -0.14890511 -0.9191138 -0.56310594 0.39471838 0.13243487 1.6299634 0.3874468 -0.34372672 -1.5570792 -0.4871855
first -0.39893755 -0.8410351 -0.1770038 0.06105695 -0.385673 0.89919263 0.42868596 0.004773127 -0.16635858 -0.34060502
think -0.37137055 -1.0872501 0.28365356 -0.43771014 -0.26275337 0.117401645 -0.4450224 -0.38327384 -0.3787441 0.026801743
battery 0.66639906 -1.2664874 0.466278 0.51470053 -0.058140423 -0.025135648 1.3818216 -0.48883778 -1.2731909 -0.6237258
way -0.63140637 -0.38625732 -0.43849823 -0.2958317 1.3627589 1.0317018 -0.38344294 -0.18088603 -0.10682896 -0.39632022
pretty -0.70418406 -1.3762959 0.0024299284 -0.36622226 -0.07796596 -0.10311206 -0.041223325 0.0739628 -0.5303071 0.14487137
see 0.09742245 -1.0953419 1.1322095 0.69765127 0.04147248 0.12869778 -0.15347737 -0.36713314 1.0951539 -0.50539184
acting 0.3209487 -0.736117 0.00045421836 1.1390762 1.4964819 0.36715674 -0.024559211 -1.153719 0.5686308 0.40432838
make -0.77397144 -0.44087625 0.50706494 1.1247575 0.8987755 0.36328438 -0.56610286 -0.5641483 -0.33636338 -0.46415067
worst 0.11578721 -1.7526232 0.38347736 0.2804726 -0.49470952 1.5157205 -0.759906 0.2540764 0.38194072 0.14057155
still -0.39647505 -0.7967675 0.8066354 0.15996478 -0.14280747 -0.14575808 0.60775113 -0.25406772 -0.44350386 -0.2820224
got -0.38992706 -0.7387303 -0.0042798724 0.54399085 0.27855676 0.30739814 0.96474844 0.10911079 0.24867065 -1.5276394
everything -0.094373725 -0.72220093 -0.52940446 -0.8328233 0.79706985 -0.04160577 -0.122076824 -0.55669284 -0.41503102 -0.6711419
say -0.6402597 -0.70240283 0.10044747 0.060756657 -0.10242785 0.80842435 0.40946996 -0.81009036 0.78067964 0.2275986
enough -0.44339335 -0.79197335 0.60092705 0.9690384 0.5614849 0.15478684 -0.02922193 0.36211365 -0.061061647 -1.2910146
little 0.46172553 -0.96085435 -0.36235425 0.2924085 0.2445138 0.15065117 -0.90304226 -0.80871046 0.07267844 -0.22846706
every -0.11395115 0.0048072245 0.6781239 -0.02062654 0.54512906 0.63379085 0.6842233 -1.6210362 0.009653715 -0.7935439
disappointed -0.7878986 -0.98845387 -0.16131362 -0.52330476 -0.002561472 -0.3825899 0.64976037 -1.2319603 -0.48089936 0.0990765
two 0.6942264 -1.2335336 -0.070596516 -0.18094678 -0.13175368 0.97530884 1.4037166 -0.047467597 0.05620326 0.029009646
characters 0.38100132 -0.2803426 1.1586293 -0.05704722 1.3672419 0.6581843 0.2071614 -1.0784289 0.062371273 0.2569559
ear -1.0218947 -1.1073784 -0.12202405 1.0319616 1.3013593 0.9324207 1.0573092 0.29669827 -1.8621781 -0.14255358
amazing -0.4196809 -1.5440376 -0.39731076 -1.2920598 0.52239186 1.1300116 1.0027153 0.5296435 0.27859738 0.037965216
right -0.26913333 -0.6698123 -0.17891657 0.18531178 0.4043489 0.76160836 -0.3804687 0.2934592 -0.41531762 -1.4940228
thing -0.7330446 -1.2436645 -0.128027 1.0308902 -0.20582317 0.12696415 -0.494938 -0.10948833 -0.19114444 -0.5160979
going -1.4027612 -0.8022898 0.25462574 -0.14073735 -0.22358012 0.66797453 0.73028904 -0.6560666 -0.010735785 0.1513432
price 0.73245347 -2.0387414 -0.3515118 0.116768956 -0.9694424 0.32521963 -0.3179183 -0.6906432 -1.039615 -1.049413
people 0.086706035 -1.6466788 1.0470482 0.010339085 -0.29042345 -0.33059236 -0.035693113 -0.05487781 -0.44312873 0.23503722
minutes -1.7341225 -0.64453995 0.17652771 0.64338064 -0.014441482 0.5139937 1.4156153 -1.6167116 0.2173185 -0.9327972
real -0.7817386 -1.2222763 0.6834418 0.92921454 0.63154596 -0.2256887 -0.36372775 -0.016340446 -0.21081719 0.46231425
waste -1.3007303 -0.73256457 1.1558387 0.9627352 0.006287506 2.3596652 -0.007923941 -1.4317447 0.55512667 -0.20623721
definitely 0.017553749 -1.0595787 -0.12217098 -0.60417783 -0.24903776 1.0225513 -0.7742791 -0.50719136 0.4317635 -1.6323334
terrible -0.14116955 -1.2417926 -0.45478785 1.0714294 0.17433606 0.902246 -0.31410968 -1.1841847 0.15378594 0.93607867
case 0.30062133 -0.89319384 0.06608518 -0.05509261 0.82266665 0.34842607 0.74009055 0.5639502 -0.8842693 -1.0369629
look 0.35757205 -0.2003217 -0.53298587 -0.2165171 1.2015876 1.0506495 -0.2647686 -0.8762959 -0.16820036 -0.7170111
money -1.0923952 -0.5325963 0.42810047 1.2863816 -0.03016684 2.4808016 0.26805452 -1.3438715 0.55083877 -1.1252366
came -0.71332717 -1.5505482 -0.45232505 0.17805627 -0.4646659 0.15720476 1.4020932 -0.15899274 0.41112438 -0.49086943
experience -0.5275848 -0.9972486 -0.08463733 -0.8536419 -0.28556323 0.6088753 0.30679053 -1.1726373 -0.45760626 0.41871512
know -0.15036237 -0.7175449 1.2902336 0.45524752 -0.0784053 -0.09622823 -0.31771538 -0.99829215 0.3783585 -0.70415586
new 0.19651696 -0.7877245 -0.24197967 0.5167562 -0.20099473 0.21469916 0.12432347 -0.9072289 -0.97651494 -0.569157
movies 0.17354408 -0.8906125 0.9340442 0.0765032 -0.11492436 1.8679324 -0.55943 -1.1011583 -0.61371404 0.45048258
friendly 0.34444353 -2.6557345 -1.9507067 -0.361795 0.3039909 -0.4851946 1.1445386 -2.0353217 0.5995691 -0.19324113
many -0.2099451 -1.003617 1.3366016 -0.37458706 -0.1691542 0.07582302 0.36602977 -0.8283732 -0.17242725 0.38124195
plot -0.4374727 -0.8625157 0.1069147 0.76329815 1.2321174 0.6839974 -0.836489 -2.0175326 0.5070169 0.75601846
story 0.6470483 -0.61193734 0.53302675 0.6643673 1.4582375 0.6903293 0.011462396 -1.5547223 0.77956176 0.49645683
poor 0.14898932 -1.8721465 -1.3639334 1.0195138 0.70812815 0.71925443 -0.73204136 -0.29507625 -0.51567584 0.4767483
piece -0.0952458 -1.3118484 0.04595746 1.0137604 0.5072065 1.4746336 0.14012803 0.88544655 -0.09664725 0.21077134
used -0.67322665 -1.1301013 -0.3693571 0.4506662 0.4733309 0.6402086 0.29281116 0.30611414 -0.79067576 0.51053834
far -0.025195984 -1.3146005 0.20996748 -0.8099024 -0.59468603 1.8320369 -0.10861368 -0.3001217 -1.0031649 -0.18340641
life 0.19321497 -1.0662777 1.3834921 1.0480043 -0.27046373 0.062715605 0.35782048 -0.7357525 -0.8787758 -0.1875988
worth -0.09813012 -0.87599707 -0.121506274 -0.5512532 -0.4704417 1.1674906 -0.6296243 -0.96665424 -0.20649539 -0.4792503
nothing 0.20612562 -0.3331844 -0.36772734 0.45654264 0.91986173 1.466366 0.06398057 -2.2789207 -0.009270794 0.13464439
years 0.28068262 -1.4222703 0.42497498 0.023761973 -0.3389303 1.2017959 0.9990553 -1.1767331 -0.71471745 1.3349451
seen 0.38771507 -1.2237419 1.6906958 0.15352756 -0.40710616 1.7373874 -0.5955333 -1.1025122 0.56376547 -0.027859598
long -0.27423963 -0.26555926 0.03985159 0.65049577 0.56280005 0.4976698 1.3367205 -0.7020924 -0.32258046 -1.0318911
want -1.3626736 -0.45222142 -0.16476168 0.14917842 0.3779575 0.60339135 -0.37444398 -0.90245575 -0.12102122 -0.6014504
restaurant 0.16496903 -1.7311286 -0.8430645 -0.798541 -0.47842455 0.38527197 -0.82616127 -1.2777027 0.1675513 -0.8908874
lot -0.4643637 -0.98267317 0.2567824 -0.14538108 0.23729502 -0.63930535 -0.19244848 -1.4810622 -1.1826359 -0.13532554
us -0.34455562 -0.5384876 -0.08858015 -0.45431015 0.24083015 -0.09753799 1.1267865 -1.2978947 0.2573461 -0.9397177
wonderful 0.3994179 -1.1584795 0.5203627 -0.9455629 0.8672499 -0.24409936 0.28596896 -1.1778631 0.55764467 0.53542405
quite -0.08167835 -0.72220564 -0.45877552 0.9464219 0.8625291 -0.18564063 -0.5766192 -0.99853504 -0.90402824 -0.68790746
always 0.119607665 -1.4274355 -1.3352671 0.2786305 0.9383892 -0.6200041 0.16687916 -0.9818559 0.45391682 -0.7147325
happy -0.24120344 -1.8202869 -0.8981685 -0.5380869 -1.170871 1.127291 0.6487296 -1.6129721 -0.87842023 -0.18835789
films 0.31962645 -0.9956903 1.9082865 0.14419344 0.32282358 1.2207555 0.6507541 -0.76230794 0.26412246 0.6921647
character -0.24742511 -0.4588397 1.2544731 -0.69019216 2.159429 -0.17040767 -0.2536861 -1.2686816 0.01845558 -0.6742794
screen 1.0976486 -1.626835 0.2559966 0.50833315 -0.33691016 1.3064486 0.94948107 -0.059881475 0.383748 0.34562084
highly 1.9042373 -1.7479936 0.77174693 -0.93389267 0.40854916 1.2091949 -0.78090465 -0.14622048 -0.6522486 -0.9352859
found -0.4960252 -0.7922522 -0.12530927 -0.11846028 0.10244658 1.130569 0.63885844 0.43849266 -0.57019544 -0.29697493
delicious -1.6201953 -1.5940706 -0.7721773 -0.9120914 0.35391656 -0.058332685 0.54971117 -0.3176671 0.506663 -0.8710377
give -0.96915025 -0.7006944 0.6081672 -1.5227028 1.0794886 0.96738267 0.18289125 -0.6270076 0.18039446 0.0883302
anyone 0.8730882 -1.0218457 1.4889747 0.22528926 -0.040105015 1.922839 -0.7070796 -0.7437811 0.5877168 -1.958243
camera 1.5067621 -1.6907736 0.14347066 0.5556382 1.429058 -0.12932844 0.2401608 0.18720894 -0.93474686 -0.07971256
script 0.5458898 -0.8593763 0.268531 1.5039847 1.7506598 1.0003371 0.22194795 -0.71183455 0.69687724 0.59405535
vegas -0.741603 -1.3922968 -0.32844543 -1.2656108 -0.82719016 0.94863397 0.07160993 -1.1357971 -0.20533346 -0.8230093
times -1.0990088 -1.3489621 -0.28598702 0.054759532 -0.09964559 0.5139856 1.1060289 -0.022119727 0.6537121 -0.03190592
another -1.2149744 -0.5646513 0.69637 0.5595235 0.29789233 0.26707926 0.20376223 -0.18445496 -0.27499852 -1.194104
watching -0.5366591 -0.68594706 0.7919702 0.6956279 0.34059855 0.0138268545 0.63730097 -0.8287232 0.8340756 -0.05691393
easy 0.06048677 -0.7235681 -0.5324854 0.73362577 0.9516469 0.6604668 1.3262787 -0.23890872 -0.85955834 -0.25154132
loved 0.19665167 -1.2195648 -0.05721652 -0.7809882 0.6445489 0.31054088 1.0762763 -0.7185652 1.6011559 -0.30827475
around -0.9332826 -1.4659314 -0.08354165 1.2102242 0.05173146 -0.49222144 0.71822596 -0.88105106 0.46968943 0.20455718
absolutely -0.05569333 -0.63873875 -0.82761115 -0.62233216 0.8088345 0.44325122 0.44063163 -1.0321969 0.37838334 0.025952622
went -0.5585951 -0.89175016 -0.25684088 -0.05631028 -0.33309215 0.76549786 1.9239079 -1.5971657 -0.28674334 0.119982734
fine 0.60742193 -1.1178894 -0.14365277 -0.6869024 1.1153473 -0.18224362 0.6762514 -0.4946961 -1.7541968 -0.8727485
take 0.08956181 -0.6862818 0.40262198 0.10028396 0.2585059 0.0412499 0.6399047 -0.46976322 0.87582076 -0.4233544
probably -0.714357 -1.0975467 1.1076559 0.092635326 -0.393894 0.5186925 -0.41786298 -0.46023214 -0.13165237 0.26779747
car -0.003168607 -0.69748324 -0.062356334 1.3338064 0.35175037 0.1899808 0.62332153 -1.3581569 -1.3895261 -1.7596478
funny 0.837362 -1.418951 0.9285937 -1.0441417 0.8347702 0.042542577 -0.87090206 -1.6386474 0.4166612 0.3249516
however -0.8540168 -0.9749118 -0.11589306 0.174496 0.58072084 0.30943742 0.81293136 -0.17418441 -0.32724446 0.797157
awful 0.2279144 -1.1552479 -0.38662285 1.6956041 1.4424464 0.13393082 -0.5579579 -0.61326945 0.8066195 -0.4077514
bought 0.12102997 -1.5856028 -0.27728948 1.520866 -0.67550606 0.24230583 0.9905467 -1.4464728 -0.3325747 -0.032968204
buy -0.33203927 -0.35034862 0.66993 0.53118104 0.1540697 0.8776525 -0.11136004 -0.70813817 -0.9848843 -1.455664
worked -0.4021938 -1.0377427 0.22600967 0.46034482 -0.25246075 0.9318206 0.32821727 -0.1486188 -1.5790985 -1.4371694
slow 1.0154691 -1.8062505 0.10934299 0.85560036 -0.52410734 -0.633177 0.8078353 -1.5710988 0.14247511 -0.30630827
horrible -0.44446257 -1.2172327 -1.1749998 1.8381071 0.5730902 1.6372218 0.27178892 -1.0131242 0.838814 -0.23803683
stars -1.3410382 -1.8645903 0.660975 -1.7715931 -0.06953134 0.8969103 0.23818749 -0.6618389 0.5098332 0.49598718
thought 0.15939765 -1.2191253 -0.48285323 -0.5017668 -0.015005767 0.94275194 -0.11836849 -1.2663736 0.9273481 0.4502811
since -0.1108907 -1.0490963 -1.022746 0.59331685 0.14228758 0.44616497 1.4135182 -0.28972614 0.4056157 -0.8189028
comfortable -0.18697253 -0.99117535 -0.42482668 0.40332595 0.7735153 0.7440894 0.3515158 -0.071326196 -1.6861157 -0.13057227
big 0.41997728 -1.3159115 0.39811534 1.2834076 -0.22900957 0.7490708 0.95392203 -0.06509952 0.97491896 -0.3861353
awesome -0.861743 -1.2570667 -0.001386576 -0.48575604 -0.12989207 -0.11164624 0.39579278 -0.31911403 -0.5860623 0.23623912
item 0.26297054 -0.8784706 -0.070871785 -0.056048036 -0.45047954 0.61150414 0.26458126 -1.2256161 -0.99863505 -1.6861138
staff -0.26351976 -3.8755121 -2.3132455 -0.49196056 0.6373878 -0.7595856 0.3744869 -0.9814239 0.29394162 0.44464335
totally 0.2351552 -0.94708675 -0.07420587 0.303259 1.835557 -0.521456 -0.38403013 -0.7693794 0.923531 -1.3152264
eat -1.1221094 -1.4901865 0.9652885 -0.88913757 -0.9716692 0.54642195 0.17074126 -0.69540006 0.44426715 -1.2704402
music 0.5263949 -0.9733883 0.28157818 0.40729195 2.272716 -0.1916899 -0.5645032 -0.66432387 -0.77363527 0.07998902
must 0.00063899416 -0.9145609 0.088326626 0.009968424 0.25810805 1.4599192 -0.78812426 -0.35046983 1.2398224 -1.3927096
impressed -0.062199853 -0.9066887 0.55834246 -0.67191637 -0.31468415 0.24525598 0.9637072 -0.47499812 -0.78871554 -0.5968991
watch -1.1447451 -0.9949448 0.07310478 0.2683478 0.70003515 0.9835531 1.0297803 -0.7094931 0.94765764 0.9194479
things -0.61187553 -0.46516097 0.4411015 0.66987944 0.55570656 0.68147534 -0.3498258 -1.6136951 -0.84699464 0.20500782
show -0.36614797 -0.9869243 0.91729087 0.6127704 0.33858916 -0.04441141 0.07943374 -1.6940991 1.098245 0.3156872
cool 0.31171456 -1.1636992 0.11746094 -0.18174426 1.3159794 0.11703192 0.09917061 0.45807657 0.37633872 0.073247984
find -0.6263083 -1.5700583 1.1239829 0.8411466 -1.1398141 0.9015259 -0.22049615 -0.7719747 -0.35170683 0.26536638
end -0.52747065 -0.31377685 -0.45691758 0.62769175 0.79437035 0.56352293 -0.21076559 -0.6657748 -0.07682269 -0.45445758
scenes -0.2943639 -1.3934431 0.23589897 -0.02660426 1.3898576 1.4160846 -1.2854497 -0.94726217 0.15004022 1.3320345
actors -0.0019889448 -0.9305294 1.5816191 0.09151559 1.0836754 0.20511383 -0.3771729 -0.5903698 1.0951461 -0.22115949
makes 0.0614787 -0.18448167 -0.58149445 0.16698933 1.2736279 0.5992854 0.6597964 -1.7910635 -0.72873557 -0.24699612
charger -0.3657589 -0.5856915 0.6896264 0.94496006 -0.044875063 1.1359988 1.1221207 -1.1929722 -1.4473538 -1.1336957
overall -0.16343689 -0.6341958 0.27119786 -0.54891837 0.08504896 0.53222007 0.22066286 -1.0590503 -1.3155439 -0.19530661
talk -0.09996689 -1.5182519 0.5698061 1.5455526 0.06374636 -0.25867578 -0.0025240683 -0.30396646 -0.043806408 0.25527892
old -0.27811 -1.3625038 0.4315708 0.75484717 0.5772411 -0.10253671 0.7000818 0.032890834 -0.24403264 0.928301
fantastic -0.81758195 -0.46884775 -0.7179452 -0.39992976 1.2494328 0.27235615 -0.1230976 -0.9077095 0.3429333 -0.7075443
night 0.72344667 -0.76445925 -0.2908501 -1.198713 0.058647413 1.3699571 0.5968717 -2.0196445 0.11457896 -1.9986329
come 0.05629617 -0.61701316 0.8444536 -0.89066803 -0.495827 1.5986497 0.9059216 -1.3122189 0.12677851 -0.5727303
day 0.13684732 -0.69524753 0.13996091 -0.09698256 -0.2561208 -0.12333859 0.55522746 -1.2950917 0.18928234 -1.140978
last -0.20043944 -0.8292345 -0.06347454 -0.5522515 -0.50627506 1.4548155 1.2910247 -1.0364472 -0.51155525 -0.3779793
though 0.534024 -1.1334815 -0.00056088745 0.34573036 0.43928933 0.40585536 0.0072943745 -0.42346153 0.7231678 0.6115054
small 0.14108706 -0.7090154 -1.2371458 -0.47811764 0.83540756 1.1956054 0.75140923 -0.627776 -0.30030566 -0.049685076
job -0.12555216 -1.3511841 -0.23678084 0.40715653 0.48002532 -0.56978804 1.0300044 -0.58881813 -0.12284699 0.59958273
black -0.0050722817 -1.5508276 1.079939 0.9122502 0.42947242 0.014809131 0.43224162 0.26615557 0.0037447242 0.81878006
part 0.9323571 -0.79681456 1.1015087 0.026184231 0.5354994 -0.0637073 0.35835043 -0.26366663 -0.7185891 -0.44251227
family 1.0860125 -0.34193838 0.19803295 0.046971615 0.5290276 0.7677924 0.26568073 -1.3126721 0.20063002 -1.4374958
cheap -0.4382038 -0.8760698 -0.6831256 0.50897163 1.3756338 0.7611082 -1.0213526 -0.37306207 -1.007847 -0.10249119
cast 0.5202589 -0.7056557 0.9885661 0.38759458 1.4405588 -0.026559984 0.39288875 -0.5331373 0.73301846 -0.043054067
bluetooth -0.34827194 -1.1006863 -0.2623663 1.3471891 0.27142894 1.7020313 0.38466677 -0.8012362 -2.317354 -0.76860636
chicken -1.0189279 -3.2474487 -0.8766209 -0.95121604 0.51428425 0.05975445 -0.4253957 1.1549375 0.074416235 -1.5552471
beautiful 1.3951751 -1.1402518 -0.46197104 -0.3858105 1.6836348 1.0003225 -0.37084126 -0.16373557 -0.69626635 -0.15240899
feel -0.64220166 -0.9256874 -0.7173332 -0.23560977 0.9053372 -0.6739411 0.08221568 -1.498587 -0.23082976 -0.47079417
stupid -0.045558147 -0.5766318 0.07465839 0.7334528 0.85698044 0.15379749 -0.059830844 -1.6791102 0.53663427 0.33747503
ordered -1.0600096 -2.3681262 -0.82837373 0.03534754 -0.13410462 -0.78180134 1.2134017 0.030306423 -0.09384429 -1.5516834
kind -0.5856632 -1.2134537 -0.47866237 0.83513767 0.1492329 0.7611429 0.5126364 -0.047406934 0.7463247 0.37784073
said -0.8418944 -1.4054589 0.7901057 0.2578999 0.025316311 -0.14997092 -0.9663359 -0.13151431 0.20111184 -1.0525916
perfect 0.12819901 -1.2882845 0.011897574 -0.6328127 2.0255523 -0.44920546 0.35616717 -0.022891492 1.0690628 -1.307823
line -0.35204315 -0.061208975 0.38814947 1.3775624 1.5326288 1.3098676 0.28417516 -0.9131918 0.01920078 -0.6740375
reception 0.5492155 -1.1793002 -0.7977962 1.1582475 0.753484 0.7527695 0.7433114 -0.6817815 -0.9193895 0.2968131
fresh -0.40875086 -2.331017 0.21083225 -0.32692808 1.1200597 0.15735272 -0.8848995 0.81183666 1.3681444 -0.056251656
sure -0.9242046 -1.0681131 0.46056095 0.11141747 -0.24929626 0.35119453 -0.17190394 0.016537013 -0.7026699 -1.6960728
try -1.5193824 -0.5636862 -0.056021973 -0.46881846 0.86397755 0.59250426 -0.06635236 -0.7881137 -1.0446692 -0.14884178
next -1.9981097 -1.6191006 0.35829675 -0.71780664 -0.8385236 0.7177571 0.66194326 -0.45640108 0.3324813 -1.7194399
done -0.98113495 -0.9534119 0.18992738 0.51707 0.7297572 -0.4870407 0.8816345 -0.53038657 -0.25420213 0.23144202
avoid -2.063905 -1.8863542 0.47340447 -1.1956023 -0.6113043 1.9283019 -0.75441366 -1.4559202 -2.00191 -3.1712196
special 0.21576276 -0.6776536 0.123513274 0.54536796 1.7720567 -0.52645576 -0.585359 -1.8113308 -0.043180063 -0.63548553
especially 0.6602589 -0.53529066 -0.2673124 -0.33499223 0.16863605 0.7070578 0.35626566 -0.64159465 -0.3027504 -0.1951431
actually -0.031184625 -0.8142527 0.90529555 -0.09312495 0.85386586 -0.08757617 0.3727673 -0.010835573 -0.6056729 0.33075145
low 0.5382153 -2.0497358 -0.16266952 1.2989569 -0.26724064 -0.2874259 -0.94035757 -1.021908 -0.6207715 -0.06757464
problem -0.0019777492 -0.96175575 -1.0843657 0.56952363 0.42736566 0.50418013 0.52223563 -1.430217 -1.2199268 0.22481468
performance 1.0089387 -0.8626308 0.33770505 -0.34381384 1.815558 -0.6210191 0.23365766 -1.492252 -0.7297343 -0.55231774
problems -0.27118015 -0.35729787 -0.3044016 1.1337973 0.21876101 0.7327384 0.51062363 -1.5786471 -0.5006578 -1.4666073
menu 0.78239053 -1.843086 -1.0990983 -1.3098209 0.42253354 -0.20724031 -0.2603089 -1.4288149 -0.21795847 -0.97512704
tried -0.8037524 -1.6649355 -0.2946502 -0.29215738 -0.27100554 0.48852918 1.168395 0.5360642 -1.1043992 -0.77423346
salad -1.8723035 -2.1448216 -0.7579857 -0.7759581 0.1535515 0.22835669 0.5010496 0.0116700195 0.51563287 -2.6739116
sucks 1.1612489 -1.1293766 0.066441745 1.7614956 1.1068898 0.47553176 -0.6226335 -1.8310745 -0.45858863 -0.64992213
hard -0.7768886 -1.0781897 1.2258734 0.14706753 0.23135827 0.5583643 -0.15567659 0.49083233 -1.0794098 -0.45676082
least 0.04172902 -0.6321662 0.24785212 -0.094073005 0.16566646 1.4463642 -0.2586788 -0.68627036 0.6914487 0.11125116
customer 0.46324298 -2.520234 -0.8131598 0.9602579 -0.76488435 0.25085747 -0.36563277 -0.61118263 0.068736054 0.011100487
coming -0.7004593 -1.2614241 0.17942336 0.4913029 0.040230393 -0.4474605 -0.96745193 -1.5251305 0.65677905 -1.3445832
everyone 0.10991967 -0.63339067 0.9103183 0.5556617 1.2488163 0.25666597 -0.38378304 0.2722811 0.031702336 -0.91285
year -0.3479505 -1.2065911 0.88780457 0.6439043 0.35312814 0.45163602 1.1393832 0.06786848 -0.49711865 0.70449734
bit -1.0337747 -0.74590343 -0.50280005 -0.61504847 0.8457651 0.55561554 -0.28488883 -1.259364 0.60752714 0.15899016
order -0.92837363 -0.83551925 -0.26109457 -1.028888 0.3453689 -0.20436935 0.8709305 -1.3286796 -0.45647234 -1.218153
interesting -0.50903416 -0.49109527 0.097486906 -0.05644741 0.90261424 0.033133063 -0.40689936 -0.99923575 0.038305584 0.043433666
felt -1.191294 -1.0980326 -0.24318935 0.6612432 0.27604842 -0.17379977 -0.095265135 -0.90980035 0.52337176 0.1062302
working 0.6678186 -0.90502673 0.036606424 0.5393676 -0.42716345 0.7253436 1.2073815 -1.855516 -1.0278214 -0.6412255
pizza -0.7277147 -2.0776067 -0.7651435 -0.8309348 -0.16212322 -0.37846884 0.2525714 -0.19209199 0.41653165 -0.862
simply -0.21065868 -0.4978771 -0.5669954 0.49077493 1.184313 0.3851911 -0.5969214 -1.5140425 -0.88756204 -0.18545626
anything 0.14799587 -1.226335 1.1524503 1.6427953 -0.042360257 0.3611295 0.028546117 -0.24476226 0.21737501 -0.35582873
scene -0.59958255 -0.7011343 1.5260901 -0.28259918 1.6095635 1.7509356 -1.1568097 0.039597828 -0.303701 -0.95209706
charge -0.96238464 -1.5267514 0.09178983 0.9445567 0.06833331 -0.5773338 1.5065854 -1.0570953 -1.781574 -0.7537742
taste -1.6640041 -2.3043969 0.07755386 -1.6236182 1.6273184 0.854762 0.28374556 1.1652812 1.0150301 -0.9439533
wait -1.4125049 -2.0806277 -1.2567581 0.8602225 -0.8386176 0.57565594 0.09911337 -2.3726358 1.0248013 -1.349391
steak -0.4713335 -2.0709958 0.73576206 -1.6617842 0.4022571 1.4785844 -0.21206175 0.9309397 0.7327283 -1.655008
liked -0.11638751 -1.5229974 0.018760407 -1.0805601 1.1834775 0.6150742 -1.2320886 -1.594485 -1.8352203 0.46029896
away -0.7397035 -0.6905387 -0.3360624 -0.43534082 0.11801401 2.0375488 0.08123555 -0.47799966 0.8098362 -1.6589508
either -0.19939588 -0.9768845 -0.5298295 1.1115954 0.75413567 -0.38450179 0.6896002 -0.2941454 0.31518707 -0.6636915
almost 0.18760693 -1.3964883 -0.8479929 0.44998455 1.223411 0.7128097 -0.81318593 -0.055525173 1.1698372 -0.57174236
fast 0.25374952 -1.1685269 -0.34314314 -0.0912415 -0.58762544 0.87282497 0.7036631 -0.7052014 0.8495477 -0.3337131
writing -0.33230424 -1.1276548 0.96265894 0.7581174 0.30258593 0.90950614 0.059567157 -0.74892324 0.6228745 1.0955927
expect -0.35056934 -1.0974903 0.06653305 1.223975 -0.19348575 0.19327836 -0.46751857 -0.28533682 0.108815774 -0.7142669
without -0.84975475 -1.7701136 1.4357522 1.3485308 -0.19066584 0.38000292 1.2128079 0.68451136 -0.06238969 -0.42656782
completely -0.94189054 -0.77897215 0.20526853 0.2265005 0.64249223 -0.35995954 1.5514196 -0.46976203 -0.03464189 -0.106578656
enjoyed -0.02843754 -0.7458816 0.15658554 -0.41575792 0.36447033 1.148233 1.6798137 -1.8083568 1.352672 -0.64581114
worse -0.3174172 -1.6667675 -0.32382366 1.6618081 0.95283717 0.5572269 -0.79495037 -0.7271268 0.37694073 0.85969776
man 0.09728007 -1.7312081 2.0366666 -0.12531087 1.6837718 -1.0718597 0.61874837 -2.0543156 0.6718737 0.73133814
looks -0.17076574 -1.4474612 -0.25802535 0.4382342 0.9636631 0.24761933 0.07104325 0.81985015 0.7255802 -0.35105008
gets -0.6270883 -1.0307338 -0.19864152 0.3865846 1.4310958 -0.31253102 1.0765127 -0.27539128 -0.81649953 0.46592045
fit -0.12693623 -1.0555512 -0.00021099806 0.9109474 1.3613906 1.1908584 0.12952901 0.94092846 -1.1043669 -1.2818999
calls -0.11890748 -1.1095388 0.28891626 1.933447 -0.3970647 2.247559 1.2146417 -0.8263956 -0.8693795 -0.15042491
hear 0.86100334 -1.4873834 0.22463746 1.6606424 0.34147704 0.33007118 -0.34372073 -0.04134233 0.22277443 -0.82082194
purchase 0.9392017 -2.0473115 0.024011122 0.3374417 -1.3429941 0.8944063 -0.0567525 -1.5528476 -1.3680148 -1.0392685
cell 0.84865147 -1.5023805 -0.18440145 1.6859322 -0.46589956 1.9809945 0.84950745 -0.26663712 -0.5370124 -1.7078089
hour -0.7560943 -1.3746681 0.22560449 0.5321276 -1.2056602 0.9608466 0.9611229 -1.4143354 0.3642777 -0.16947888
server -0.56806564 -1.7479601 -1.4310257 0.36863342 0.16667539 -0.34081602 0.4565698 -1.2713978 0.64162594 -0.9074494
left -0.7694985 -0.6435586 0.28651175 0.7185478 -0.4283343 0.5867436 0.79900974 -0.69563097 0.405025 -0.7319062
bland -1.100267 -1.7587044 -1.2977504 -0.21987623 0.7397507 0.64601976 -0.9489202 0.15202917 0.36277112 -1.533046
sushi -0.74417794 -2.1509032 -0.6376553 -0.99330986 -1.3279828 1.9011606 -0.5653734 -0.94870317 -0.60373783 -0.95769525
fact -0.98903495 -0.4971531 1.1289707 -0.57414955 0.861591 0.3275374 0.8269003 -0.6190774 -0.82909733 0.048191745
seriously 0.16103716 -2.2504735 0.6721107 -0.26414645 -1.173106 0.121624954 0.07213878 -0.70502955 0.90064704 0.23284227
different 0.72496927 -0.61137795 0.6599919 0.4931862 0.11979816 0.95766234 1.3841091 -0.3491745 0.036132455 -0.5534635
flavor -1.1006403 -2.2103603 -0.6814999 -0.66348916 1.3045231 -0.6655171 -0.97841614 0.16915874 -0.263877 -0.95806694
white 0.5683407 -2.4902198 1.3968054 -0.038401302 1.3255317 -0.9435244 -0.026983652 0.03248535 -0.9977997 0.74382436
short 0.95806205 -0.57264626 1.0227543 -0.1094044 0.26304322 1.3158889 0.7452839 -1.287823 -0.2941059 0.18013848
rather -0.52138364 -1.0372024 0.9877211 -0.7510063 0.5222251 0.49794674 -0.17517099 0.554767 -0.37578478 -0.23200653
whole -0.86485803 -0.75106037 0.37028337 0.75443023 0.59824896 -0.02804259 -0.7917471 -1.4695717 -0.18229751 -0.06015996
super 0.01930063 -1.6779337 -1.5343337 0.15744796 1.2830541 0.28744993 0.9864917 -0.8535979 1.0984985 0.45571148
call -0.96310467 -0.32517305 0.26891756 0.7135119 1.1143699 1.1795194 0.70946705 0.18835257 0.055298276 -0.8487896
art 0.4696332 -0.7156224 1.8057 -0.8877879 0.8942248 1.2030225 -1.0544118 -2.031113 -0.61721444 -0.14169551
dialogue -1.4406348 -1.3076973 0.584816 0.8791826 1.4216104 1.2141479 -1.9373668 -0.38304326 0.07621034 -0.1343019
using -0.1567239 -1.0696104 1.1532011 0.29395452 1.076864 1.4031807 0.8630203 1.1690589 -1.2939711 -1.3803769
clear 1.3427426 -2.0933294 -0.28504208 1.4965581 0.5014436 0.5724898 1.454631 -0.42029905 -1.9251148 -0.004779869
motorola -0.8616543 -1.0018572 -0.26935145 1.1505044 0.44085774 0.079708576 0.5261725 -1.1287975 -2.007077 -1.1022675
device 0.91626745 -1.5870746 0.5073514 0.07455611 -0.23849736 0.9192432 -0.0073255925 -0.37147784 -1.9925425 -0.1425298
may 0.21819046 -1.344787 -0.22974159 -0.029492587 0.31844813 -0.33144695 0.7164001 0.13292713 0.42465162 -0.56589794
getting -2.1544929 -0.87925947 -0.7244858 0.24018493 0.5456483 0.3568081 -0.15542614 -1.1978989 -0.043453537 -0.6127026
tell -1.1566769 -1.4093 0.974562 -0.7998758 0.12203428 -0.0831249 -0.12437717 -0.5573437 0.5358523 0.1996716
took -0.9778184 -0.9389757 0.1420534 0.26113337 -0.15096126 0.84113127 2.3305187 -1.0836778 0.6238387 -1.2669375
burger -1.7071656 -2.049213 -0.7373486 -0.08639552 0.7110945 -0.7863983 1.0633692 -0.22820097 0.49884582 -0.6617011
deal 0.011356516 -1.6440864 -0.0048997113 0.56514126 -0.60283786 -0.6382634 0.64766854 -0.5075147 0.09441029 -1.3036252
side -0.16208641 -2.163459 -0.6135142 0.16445477 0.36121076 -0.50301725 -1.4196154 -0.044426333 -0.3100396 -1.5762801
enjoy 0.02094211 -1.1989866 -0.19388032 0.93480974 0.27476865 0.6560379 -0.099541456 0.16313379 1.0803205 -1.0836517
perfectly 0.42092606 -0.89482737 0.6699513 -0.9415725 1.4055134 -0.00029075597 0.0369472 0.13535394 -0.87846607 -1.4846761
buffet 0.19980858 -2.3352447 -1.7107844 -1.0930436 -0.51989275 1.3557166 0.1376513 -0.6268082 0.38876513 -0.701098
disappointing -1.1921637 -1.2848519 -1.165302 -1.0912704 0.8221995 0.1803005 1.4040302 -2.5627203 -0.7108199 -0.0768801
atmosphere 1.6912178 -1.9580053 -0.41631132 -0.90941113 0.48787686 0.3241247 -0.4460778 -0.9607122 0.9255951 -0.6646416
return -1.2512263 -1.1650611 1.387092 0.59247065 0.101078525 1.648265 -0.038363542 0.4603973 1.0954337 -0.9714944
extremely -0.4777675 -2.1042988 0.30935487 1.0533508 0.39193207 -1.2683085 0.09992166 -0.9919978 -0.040909488 0.63403624
watched -0.7528774 -1.2335906 -0.7949393 -0.23989615 0.19904174 0.023376716 0.5158379 -1.5665584 -0.33605325 0.6664247
several 0.22224303 -1.8812116 0.2732438 -0.116425775 -1.0232613 1.2528698 1.8919623 -0.5714277 -0.0624099 0.20441999
unfortunately 0.19532934 -0.50368583 -0.43059638 -0.3251094 1.3615074 1.2663523 0.25074366 0.39985093 -0.16083194 -1.1633643
full 0.9281962 -0.8482413 0.34278247 0.24969845 -0.066810094 0.07382119 0.6394514 -1.424334 0.77038866 -0.541161
looking 0.15544713 -0.30983117 -0.312382 0.16194299 0.33523977 1.6819724 -0.120474026 -1.6323777 -1.1319766 -0.8920557
incredible 0.45692754 -0.97654885 -0.16381015 -0.78976333 1.670749 -0.5586436 0.5947297 -0.7623074 -0.0017406095 -0.09348589
sucked -0.9791758 -1.00484 -0.7065905 0.29775178 1.0468036 0.010121935 -0.82630336 -1.4670001 -0.36481032 0.105554685
feeling -0.36610046 -0.35491157 0.37138194 0.7551756 1.1798205 -0.10012209 -0.32383075 -1.0099835 0.5346637 -0.83293784
believe -0.4553726 -1.1447932 1.362142 0.27578828 -0.65315276 0.6907893 0.24083538 -0.8634677 0.30763492 0.17501427
play -0.4779321 -1.4247712 1.4039875 0.5527867 1.387418 -0.46615705 0.5950706 0.40329662 0.18327186 0.013577102
put 0.30108064 -0.24561842 -0.03724911 0.81306845 1.1020112 0.8121638 0.6744415 -0.15340489 0.059216682 -1.2830938
started -0.41227743 -1.1030468 -0.5395894 1.1049919 -0.033416547 1.6136098 1.428314 -0.55446863 0.18081139 0.32280663
three -0.35618326 -0.67344946 0.8924333 -0.022768257 0.29290295 1.4311764 1.8883466 0.07409352 -0.27528504 -0.50511456
understand -0.110089384 -1.1630772 0.15613219 -0.42671958 1.2228042 0.03377877 0.3758853 0.24683194 1.0616081 -0.11591809
saw 1.2921934 -1.203033 0.6180499 -0.9441245 0.0023430847 0.6951692 0.7170164 -2.1625164 0.73971856 -0.40030742
crap -0.33696562 -3.0490642 -0.2505457 1.2399156 -0.78409314 0.84511596 -1.7972796 -0.9226015 -0.3071549 0.7890052
director 0.45184094 -1.3477752 2.2899919 -0.21894437 0.67224926 0.6856168 -0.38209325 0.02194754 0.4153676 -0.16458403
design 0.49273595 -0.58707434 0.45117798 0.3244354 1.4366829 2.5791512 0.5235246 0.0643235 -1.6361468 -0.43119907
plug -0.23365775 -0.29002568 -0.10367627 0.8733754 0.42447484 1.4228047 1.1272337 -0.7377587 -0.4872319 -0.8636324
volume -0.5189374 -2.0161602 -0.12146955 2.770745 0.24375457 0.2669364 0.49492708 -0.40606147 -0.89753085 -0.061568577
tasty -1.6483338 -2.8923352 -0.58096135 -1.2265354 0.19019231 -0.42939818 -0.68056655 -0.2608985 0.43785515 -0.24334674
care -1.311521 -1.271926 1.2879387 -0.44913024 0.06719799 0.42413935 -0.119387284 -0.2591601 0.27096972 0.33580977
less -1.0792607 -0.3734569 0.18533856 -0.079981536 0.540503 0.77371424 0.2830428 -0.7449677 -1.0731204 -0.07823181
huge -0.8193505 -0.78501534 0.2602977 -0.56717956 0.45254162 1.0581666 0.18882255 0.2135577 0.015385335 0.29073867
oh -1.0562067 -1.2454978 0.1642232 0.13989383 -0.1312325 0.23280825 -0.16124201 0.17820981 -0.28038085 0.32556403
meal -0.96738386 -1.562961 -0.87277967 0.39810717 0.4087166 1.3422183 1.2966435 0.04111678 1.6243044 -1.7188605
mess -0.25620666 -0.71710426 0.7805398 1.1509181 0.22808151 0.7397761 0.21538241 -0.043787822 -0.14818196 0.074988104
mediocre -1.1032788 -0.37703443 -0.0030248044 0.36813813 0.90300137 1.3632967 -0.15824592 -1.6151708 1.4267685 -0.6935096
hands -0.21476732 -2.4610572 -0.6386932 -1.0447564 -0.46853298 1.1023864 -0.12653777 0.15495293 -1.144549 0.48562607
hot -0.89034325 -3.2859862 0.7431756 -0.7888262 0.37248117 -0.7395342 1.1863534 0.5906125 0.9801777 0.31457344
soon -2.0403175 -1.14861 0.578901 -0.3016503 -0.8951393 1.2394353 0.7747143 -1.9659872 0.06408257 -1.8316417
yet -0.55704373 -0.38981837 0.78315306 -0.16961236 0.37240076 0.3252741 -0.34098268 -0.48664612 -0.7328364 -0.50657076
received -0.10238972 -1.0812236 0.21357785 -0.8487976 -0.1006411 -0.10857425 0.79477113 -1.2411196 -1.1772678 0.06729077
wrong 0.2714435 -0.78660667 -1.1327937 0.09399146 0.1950664 0.5607283 0.63104457 -1.2200975 -0.591944 -0.4602961
hours -0.66007733 -1.3910967 0.64333874 1.206223 -0.34764665 0.23907867 1.5934765 -0.065466516 -0.13787878 -0.6989731
stay -1.5785207 -0.46193975 -0.49446258 -0.20570874 1.12275 1.3700379 0.12959868 -0.49425405 -0.19654763 -2.245319
boring 0.7662799 -0.8543061 0.7319375 0.2530502 -0.1706911 1.2111477 0.3696187 -0.5053012 -0.07479432 0.15747005
high 0.040778287 -2.613796 -0.011339121 -0.6067028 -1.0015932 -0.055082057 0.24261132 -0.43192565 -1.8333108 -0.19329168
truly 0.653316 -0.97981364 1.0018389 -0.171282 0.9114425 0.026942447 0.7409111 -2.2158597 1.0303504 0.18177761
disappointment -0.77545637 -0.9682945 0.21249475 0.5795855 -0.5575124 0.4262247 0.30196205 -0.6854909 -0.09283879 0.08389638
certainly -0.015791588 -0.7102238 0.96149236 0.28694823 0.46695802 1.1011599 -1.1793324 -0.49889758 -0.37616894 -0.062751226
need -0.037553422 -0.61588436 -0.46958846 0.04906405 -0.0821188 0.6014562 0.60408676 -0.9262848 -0.6520395 -0.295355
barely -0.37213612 -0.9580158 -0.60490024 0.6152167 0.59645087 0.9409137 0.67906517 0.28250965 0.899167 -0.30046046
light 0.07609419 -1.280881 -0.80777436 -0.25039384 1.8369608 0.18136793 0.7285325 -0.21815899 -1.0312291 0.71768224
ending -0.92953867 -0.8128111 -0.101768255 -0.8010512 1.9276054 0.55668145 0.879748 -1.0048885 0.79545337 0.55625826
fits -0.8941835 -1.7266449 -0.5474076 -0.007997286 1.6136335 0.7690937 1.6872684 0.5424951 -2.0948062 -0.66875106
selection 0.10560291 -2.564716 -0.46894646 -1.73042 0.28100908 -0.26825663 -0.4309547 -0.33692822 0.1954625 -0.72733355
prices -0.4933948 -3.663021 -2.3343217 -0.96933836 -0.26957333 0.2175024 -0.9924164 -1.0566978 -1.1068379 -0.7260871
kept -0.99689794 -1.1853262 -0.3949419 0.7363204 -0.35481393 0.0016645069 0.5587059 -2.1779275 -0.6509574 0.16662265
recommended 1.1565242 -1.8552017 1.1629999 -0.45383033 -0.2522304 1.477735 -1.5639956 -0.3553945 0.15269572 -1.5971782
let 0.8721187 -0.9671116 -0.7737344 0.54672337 0.05229758 1.362968 -0.6331631 -0.82121307 0.034899797 -1.3524392
inside -0.64619344 -1.3416729 -0.19054763 -0.8152159 0.75682306 -0.90974844 0.3271002 -0.38466048 -0.94069815 -0.83062834
sauce -1.6007094 -3.7357106 -0.17665476 -0.94745696 1.0669811 -0.61286753 -1.8417238 0.5149133 -1.0551978 -2.840743
glad 0.123526685 -1.0516508 0.34353405 0.816081 -0.8023372 2.0059597 0.57210577 -0.6738396 0.32394207 -0.2154543
lunch -0.7246203 -2.304798 -0.40725422 -0.78365487 -1.1704372 0.14788328 0.98844886 -1.2926557 1.0494471 -0.61723006
company -0.8437444 -1.4093324 0.53628933 0.6680284 -0.74934393 -0.42133057 0.4360183 -1.7764122 -0.3681625 -0.22186801
breakfast 0.5355823 -1.5916189 -0.72531474 -0.83748776 -0.19936706 0.67546 -0.20081687 -0.8989861 0.7991765 -0.420745
top -1.005043 -0.5161594 1.0004106 0.801889 1.3025346 -0.09987692 1.2405531 -0.638697 0.07379682 -0.07457058
waited -2.9613144 -2.661845 1.2310947 2.1331093 -0.7509338 0.04577588 1.7879429 -2.3810968 -0.47814038 -2.9430735
area 1.1042883 -1.9917662 -0.057137232 0.05079801 -0.7695075 0.50733006 0.49203885 -0.016838662 0.47432867 -1.6691946
something -1.1234536 -0.6698926 -0.006263968 -0.2543983 1.1150291 -0.20550472 -0.6293579 -0.96641445 0.27014244 -0.5216183
home -0.12378985 -1.4514809 0.49334058 0.1017081 0.5591488 -0.7541286 0.27774143 0.35873154 0.32713017 -1.4804606
original 0.67934585 -1.9562684 0.6784313 0.80914146 0.107473284 0.18162033 2.1840103 0.25894907 -0.29023278 0.018093696
none -1.535593 -1.0605466 0.52198416 0.03383566 0.220098 0.28123975 -0.27540913 0.112956375 -1.328623 -0.99481595
cold -0.71375775 -1.9862819 0.054335546 -0.1179273 1.0451306 -1.2946045 1.199232 0.03790979 0.46262595 -1.6354094
world -0.39085418 -2.1499686 1.4395744 0.3199205 0.6135088 0.44018504 -1.8716532 0.44356304 0.42443362 -0.5335259
fun 1.0532184 -2.132499 0.10642045 -1.6393471 0.57390857 1.8246505 0.33467355 -0.8711249 1.9193379 0.2637933
picture 1.3046187 -1.0767015 0.67547417 0.704755 0.35290512 0.46007702 0.52284974 -0.023722962 -0.96359265 -0.6791786
tv 0.04616591 -1.032807 1.2666723 0.15870564 0.2840289 0.14251599 1.7664752 -1.2561524 0.22721837 0.31418806
gave -1.783847 -0.9338521 1.7530197 -0.056921843 0.5792641 0.34491962 0.03427475 -0.718687 0.5331918 -0.20890099
star -0.9929905 -0.51069766 1.5729196 -0.35531145 0.49228504 0.5176164 0.20921132 -0.5823665 0.32251212 -0.5641464
months 0.30731678 -1.4558054 0.14334686 0.2337366 -0.17643839 1.4773098 1.9285824 0.37481803 -0.5228182 -1.1627458
pleased 0.43465787 -0.6406181 0.6365667 0.1394472 -0.04278395 0.20431302 -0.43850446 -1.2836001 -0.5600948 -0.7903184
kids 0.018209917 -0.8609712 -0.20486271 -0.014216007 0.36466894 0.66957664 -0.6788973 -0.7740629 0.8577718 -0.2272677
together 0.42582232 -0.49197423 0.36426914 0.70302844 1.5093102 0.5098 0.40704298 0.12003781 0.59165144 -0.44223154
easily -0.40485793 -0.831457 0.84560627 -0.09834636 0.63846207 1.5915381 0.8213905 0.7767328 -0.97181994 -0.41507053
wasted -0.4119743 -1.1294656 0.9638064 1.742826 0.28661436 0.45460272 0.004563382 -0.65043473 1.4689796 -1.2405787
predictable -0.38529143 -1.2108474 -0.32389364 0.6387461 2.748333 2.180201 0.21090415 -0.9113984 1.9376678 0.50800383
cinematography 1.1170256 -0.9051452 -0.6557153 -0.19470043 2.964923 1.3509835 0.12607455 -1.3802987 -1.1087188 0.4301341
series -0.17565566 -0.7935215 0.584915 -0.17789982 0.31344897 2.5482645 1.1045097 0.4840247 0.42002136 -0.8082093
strong -0.8381439 -0.64710796 0.34963688 -0.7134597 1.3341179 1.1665791 0.66218823 0.15121464 -0.8258258 0.27465537
effects 0.45732605 -0.94251764 0.5529107 0.8596149 2.074775 0.1497143 -0.18486913 -0.61800224 -0.91168946 0.42383656
actor 0.7660357 -1.054928 0.19872026 -0.11290565 1.2868522 -0.11472859 0.843404 -2.1547327 0.54877126 0.62441945
voice -0.059037454 -0.30413434 -0.8440479 1.3424386 1.1619239 1.1504632 0.22481589 -1.4746681 -0.69324976 -1.559463
played 0.2786638 -0.97628075 1.8240497 0.20498477 2.3839974 0.08574092 1.0079132 -1.0002584 -0.9315436 0.60157305
drama -0.25319654 -0.2475037 0.48074925 -0.25634497 1.7975144 1.1305271 0.19048078 -0.32738158 -0.026665242 0.26708928
days 0.054788753 -1.6999559 0.074248135 1.4589182 -0.23377515 1.4133825 1.957088 0.14341153 -0.7678972 -0.91952336
phones 1.0753556 -1.8453742 -1.3084663 0.83699584 -0.52449834 2.2763946 1.1298369 -0.607312 -1.1840237 -0.91227347
fries -1.155248 -2.9929595 0.6066528 0.5170046 0.09190624 -0.33431718 0.18469933 0.9366126 1.4535036 -0.83882695
waitress 0.03815243 -1.8304248 -0.81714153 -0.549559 0.12538178 -0.50942457 -0.2096397 -1.560507 0.9366497 -0.6123059
decent -0.42249858 -1.0612084 0.38700697 1.1023029 0.6026762 -0.009925747 0.20473957 -0.0036822646 -0.48199666 0.23886332
seems -0.60845983 -1.1258093 0.76708317 -1.0442531 0.8838298 -0.36508143 0.9413295 0.034344763 -0.84665763 -1.7970614
table -1.4112614 -1.9792382 -1.3982071 0.03449645 -0.64062357 0.7222878 1.3659712 -1.1395376 0.51459485 -1.1146008
sandwich -0.5214462 -1.6164904 -1.1016762 -1.0344622 0.55538046 0.20773175 -0.42454007 -0.17689031 -1.0278145 -1.0057755
second -0.2720169 -0.9531099 0.80217993 -0.30220127 -0.59438914 1.0073639 0.18012854 -0.47516215 0.18936643 -0.0038051303
guess -0.10645926 -0.63565964 -0.42842105 -1.1585047 1.3951386 0.009944037 0.2670137 -2.8245733 -0.79463094 -0.6166609
today 0.14611042 -2.1888988 -0.35170814 -0.8307341 -0.7592874 1.2297515 0.109223306 0.24956423 0.3605892 0.091991045
eating -1.8351091 -0.6053934 0.18657877 0.5294305 -0.1176762 1.0768735 1.02584 -1.6993567 0.014118478 -0.096908934
meat -1.6114233 -2.2799122 -0.89669555 -0.45148468 0.83558446 0.29775172 -0.4520366 0.7008483 0.24200289 -0.34169775
wife -0.8287281 -1.0215735 -1.5978552 1.1353693 1.7150362 0.8015081 0.9973553 -0.13991563 -0.13816637 -1.5625212
helpful -0.6656306 -1.8083013 -1.6101373 0.86669356 0.4551141 -0.49277863 0.5130049 -0.9984726 -0.8175247 -0.32537404
cannot 0.50214267 -1.4152712 0.80144745 0.7436587 -0.4188972 0.7183409 0.2822895 0.22478172 -0.28170708 -0.025248911
dishes -1.5584989 -3.3660626 -1.2586639 -1.2458781 1.0880766 -0.5959019 1.5631332 0.4299687 -0.37737504 -0.15679759
playing 1.3947209 -2.7135594 -0.21410415 -0.3906208 2.203946 0.21041316 -0.2391598 -0.9024902 0.6814532 1.8021454
check 0.47373924 -1.162602 0.20994274 -0.23110889 -0.26155615 0.47254637 1.2526376 -0.9483064 1.0760761 -1.8225193
places 0.03179899 -1.7905276 1.1630892 -0.7441897 -0.9350094 1.671706 -0.5615399 -0.07455115 -0.13659704 -0.6360792
spot -0.56208605 -2.1180093 -0.91505134 -1.2505907 -0.05046144 0.20675363 -1.3681583 -1.2640234 0.23533782 -2.067968
clean 0.37567297 -2.3456635 -2.1956346 -0.46840438 -0.005697286 0.2525703 -0.21503273 -1.8239018 -0.7746127 -0.9629778
free 0.2314044 -3.5988712 -0.36162367 0.7714131 -1.504425 0.17284946 1.098955 -0.73267055 -1.123114 0.5822865
ago 0.36164325 -2.0121732 -0.31140253 1.4096109 -0.7049617 1.4424596 2.198715 -0.8678628 -0.52749074 0.090223975
priced 1.5934396 -2.8836136 -0.2196901 -0.62513024 -0.44639915 1.3156273 -0.72920406 0.0031179371 -1.8936113 -1.6929655
couple -0.5944078 -1.7283902 -0.20831084 0.61893004 0.4128372 1.4471172 2.8639724 -0.3107382 -0.84437793 0.6654329
set -0.7827255 -0.8110316 0.823275 0.43815878 0.6904318 0.6935179 -0.30424553 0.44531775 -1.3647105 -1.0623958
self 1.0055264 -3.3598406 1.6705315 -0.2528723 -0.793065 0.44234753 0.15031025 0.31666294 -0.29447457 0.9843885
house 0.44821903 -1.3214368 -0.84228367 0.69809806 0.74642426 -0.48695746 0.31755236 -1.2593455 -0.78041553 0.2526266
making 0.6022035 -0.6453804 0.44563496 0.6884022 0.35439387 1.1943895 0.011497292 -0.99772185 -0.11565789 0.73538345
turn 0.5465144 -0.5560689 0.9008023 1.3045901 0.06022196 0.51904297 0.6193101 -1.0700941 0.034452856 -0.8551984
else -0.79846334 -0.7110791 0.8629112 0.58995414 0.5422357 2.112102 -1.4644216 -0.6077022 0.08197367 -1.874546
dropped -0.8869906 -1.2298949 -1.5182124 0.95626754 0.7545662 1.4442087 2.231744 -0.73558617 -0.7708572 -0.64229375
trying -1.362616 -1.2156006 1.7656746 0.40650988 0.07257257 0.30995426 -0.23025292 -0.16912366 -0.31524968 -0.37643313
bar 0.9560916 -2.4218256 -0.19267611 -0.2831074 -1.4637095 0.12668344 0.9399939 -1.1721514 -0.3397628 -0.8003824
wanted -0.38574287 -1.1592078 1.691287 0.68570626 -0.5898018 0.53790236 0.16539371 -0.28604382 -0.2288487 -0.94105715
half -0.5011461 -1.233337 0.12401145 0.19550136 -0.88569695 1.6682861 0.3046271 -0.9955813 0.35038528 0.23245093
style -0.29207364 -1.2160883 0.963404 0.061488796 1.3415246 0.829161 -1.158172 -0.27076185 0.62727994 0.8667506
lost -0.45281857 -0.17644359 -0.07756794 -0.4753811 1.3003201 2.3512566 0.5387044 -0.2136374 -0.59091055 -1.4992367
face -0.7565213 -0.40621185 -0.14680932 -0.04491762 2.2424533 0.9847128 1.0774614 0.28285924 -0.29790124 -1.5484766
directing 1.069539 -1.5212287 -0.19472606 1.9336147 1.5805179 1.868661 -0.79934686 -1.528453 -0.18661149 0.9048105
game 0.42645088 -0.4395465 0.98539686 -0.28912362 1.005662 1.3050014 1.1293011 -0.3107449 0.29066193 -0.016541405
horror 0.5334546 -1.2047149 1.6157231 0.16236857 0.33610082 1.3118465 -0.17649251 -1.4619538 -1.2208401 1.0341635
keep -0.8535068 -0.89874905 -0.5767831 1.5038213 -0.16511697 0.97060204 -0.2985344 -1.5399722 -0.4444615 -1.0377517
junk -0.0068901614 -2.6475983 0.07421815 1.5173922 -0.633669 2.657308 0.9706251 0.84143806 0.07152659 -0.06352688
broke -0.68457884 -1.115099 0.36502486 0.789084 -0.42671895 1.8731953 1.3836883 0.02279377 -0.48954892 -1.677916
verizon -0.5248823 -1.8157578 -0.89102566 0.5743033 -0.26636493 1.2994825 0.42351404 0.14156574 -1.3414165 0.31907004
wear -0.6610657 -1.2993643 0.79504216 0.45827022 1.3778179 0.3179573 1.2821476 0.23136078 -2.0417085 0.10447021
jabra -0.29409274 -1.4107659 -0.7891411 0.058935046 0.31953222 2.7327878 0.27803746 0.059791714 -2.1374676 -1.2797958
amazon 0.71334964 -1.3331015 -0.054254442 0.5133549 -0.5729947 0.97789276 -0.12204279 -1.6370445 -1.4717268 -0.39278084
human -2.2392683 -0.42157492 1.0930136 -0.023230728 1.3669981 1.429437 -0.47064322 -0.9112128 -0.7769566 -0.6945448
beer 0.0576269 -2.6870859 -0.2867122 -0.7486268 0.5105722 -1.1981333 0.5945512 -0.011128736 0.74044114 -1.0407044
quick 0.3471167 -1.4824181 -0.79712945 -0.906891 0.58267677 0.09058344 1.0094311 -0.15626523 0.15256958 -0.09309685
amount -1.0196546 -1.1569271 0.27343047 -1.123964 1.2635634 1.2297721 -1.4196985 0.23110385 -0.284137 -1.1836766
expected -1.7877707 -0.9858913 0.091901325 0.22813942 -0.04628896 0.6172042 0.51650065 -1.6180375 -0.9381788 0.34973612
dish -1.0000415 -1.6764725 -1.2155256 -0.0014743521 0.33604848 0.9045219 -1.6393561 -0.42653212 -0.49540195 -1.0468886
value 0.44590676 -1.9392831 -1.1871995 -0.4418836 0.790696 0.015433159 0.11353286 -0.018934924 -1.5892501 -0.97441375
ask 0.031890627 -1.2905083 -0.7187017 0.6057922 0.08621425 0.92728674 -0.22130543 0.058668416 0.65074897 -2.0302038
dining -0.06890745 -1.6279023 -0.6895281 -1.0692289 -0.35796967 0.05331304 0.63061076 -1.6101707 -1.2237624 -0.36011928
arrived -1.2049098 -1.4207844 0.2879539 -0.71066326 -0.38117674 1.0076946 1.7147921 -2.1164424 -2.3751278 -2.4159393
quickly -1.5074047 -1.9618415 0.1063299 -1.7435536 -0.56310505 0.6947268 1.508364 -1.5201625 -2.0015476 -1.0314813
spicy -1.7080526 -2.2234864 0.23660287 -0.4554712 1.5162705 -0.3772395 -0.6372416 0.57125765 0.5536321 -1.8713033
although 0.21000613 -1.1791456 1.5200227 0.37982422 -0.42256144 -0.46157515 -0.20433694 -1.3954506 -0.8365336 -1.3650926
word -1.3722504 -1.7907395 -0.25506505 0.51005137 1.1248071 -0.02206788 0.12447185 -0.9061987 1.4577658 0.9251207
rude 0.02338991 -3.0310304 0.39829665 0.51505375 -1.0004591 -0.76771873 -1.2598468 -1.0417296 -0.5410669 -0.5267404
pay -0.8441073 -1.6094729 -0.7520676 0.3521711 -0.7481035 0.4421798 -0.82832766 -2.08118 0.06168952 -0.8471424
perhaps 1.7559923 -1.8729291 0.5901753 0.7686601 -0.08139899 1.5035805 -0.857314 -1.0360131 -0.753672 0.60723025
given -1.2468548 -1.179533 1.1425723 -0.47291574 -0.06689142 -0.49760148 -0.24090351 -1.2299546 -1.2524858 -0.8207661
waiting -0.6177853 -1.2798258 -0.1716671 -0.05261865 -0.541866 0.4590947 0.34481558 -2.158846 0.54982245 -2.8933833
mind 0.27281106 -0.3272473 1.0319917 1.085551 0.5020016 0.85738885 0.85386693 -1.3866521 0.75385904 -1.1753614
someone 0.5278561 -1.0550202 1.4414475 -0.4716296 0.22050726 0.42773807 -0.2157656 -0.24229299 0.8693528 -1.4551551
point 0.8058598 -0.6461598 0.16040935 0.37407452 -0.02544668 0.72831017 0.4912947 -2.1042523 0.57327056 -1.8408041
plus -0.87207055 -1.461587 1.847247 -0.8652753 -0.58842343 1.152651 0.24378741 -0.010098338 0.31227738 -1.1931036
twice -0.9407267 -0.86644477 0.21799344 -1.0236982 0.2112254 0.20982993 0.8393468 -1.2304481 0.46314338 -0.0061473083
hate -1.0787504 -1.3415269 0.6189667 1.0167888 -0.8316051 0.67364776 -0.34994483 -1.0071671 -1.1741633 -0.3045869
finally -1.3853695 -0.6384527 0.67013067 0.20075198 0.25724152 0.12629117 1.283155 -1.1688168 -0.20943274 -0.23018469
tasted -0.87696856 -3.5017576 -1.2508018 -0.2881886 0.3826588 0.5716008 -1.4278071 0.41217846 0.8964044 -0.04614324
told 0.40365055 -1.0614092 0.7325305 0.31123653 -0.1379108 -0.28682813 0.5187153 -1.4448575 0.89497846 -0.36085156
fails 0.34142908 -0.76439184 0.77677095 -0.72395533 1.3223487 1.3959163 -0.05833208 -0.98640716 -2.191509 0.22237301
average 0.38792798 -1.5484228 -0.32843187 0.19536029 -0.26613337 0.18026783 -0.39056206 -1.3932315 0.78491646 0.12444144
pictures 0.111267194 -1.8091366 0.58185196 0.69862264 1.2108066 -0.117173195 1.445902 0.9624346 0.10206413 -0.629207
mostly -1.2692161 -1.2099855 0.75364184 0.49066803 0.84001 1.1109536 1.2202905 -0.6568439 0.79139376 1.3406813
simple 0.90739036 -1.8612143 -1.0798883 0.082619 0.32979435 0.06712361 0.058552887 0.22509156 -0.08516835 -0.68351316
weak 0.33502424 -1.6900979 0.48311776 0.7440001 0.22823489 -0.36958757 0.26494756 -0.25615677 -0.46218994 0.94202757
entire 0.5197554 -0.80440927 1.3016905 -0.04960554 -0.20900361 0.99451137 0.6310039 -1.457768 1.1624815 -0.8757197
obviously 0.0007378907 -1.5354918 0.0014696445 1.0784824 0.8758747 1.4351736 -0.9376022 0.45273596 -0.759056 0.57752615
cinema 0.7296851 -1.060058 -0.32019323 -0.60802674 1.0841956 1.1311666 0.112672135 -0.7923834 -0.6772386 1.1275258
important -0.86797523 -0.7875575 0.413177 -0.53018093 1.7331944 1.5998665 1.5626582 0.37510362 -0.8234601 0.07598868
girl -0.7379169 -1.693668 0.71919215 1.0831256 1.9181263 1.1718199 -0.3685954 1.3844926 0.6557315 -0.14636321
suspense -0.79333436 -0.3578817 0.4871866 0.54107255 1.0418711 1.395506 -0.48396245 -1.2988176 -0.13333313 0.40126306
garbage 0.24477689 -1.6991571 -0.64830166 0.930577 1.743288 1.3209273 -1.1030648 0.52990526 1.0178735 -0.54771984
comes 0.09299138 -0.40627164 0.8366228 0.53381044 0.12429774 0.8469471 0.24259007 -0.6364627 -0.4571777 -0.29825222
audio 0.6354844 -2.983238 -2.7247822 1.3226722 1.1746289 0.979352 -0.74536663 -0.215687 -0.19575022 -1.1039793
buttons 0.8137837 -1.4691457 -1.7854198 0.9884294 2.4724243 0.8029735 1.2067213 -0.12279957 -1.3713651 -1.719368
unit -0.6853143 -1.1284755 0.56422955 1.8703908 -0.43837625 0.7516705 0.42918128 -0.6835087 0.2583178 -1.8690943
overpriced -2.5655158 -1.683385 -1.6700158 -0.14918377 0.56886756 3.3181937 -0.104357466 -1.2957395 0.6738086 -1.338614
wall 1.8063442 -2.2286515 0.3236419 -0.77691686 0.49790305 -1.1717246 -0.10584718 -0.94199926 -0.8735824 -2.4667091
warm -0.6574972 -3.132238 -0.77644414 -0.6010625 1.0670468 -1.1787345 -0.75126344 -1.1430552 2.077592 -0.7069837
waiter -1.1343943 -2.8657026 -1.6537442 1.3087466 0.13882524 -0.9491404 0.17186172 -2.9002602 -0.420231 -0.108756565
tender -1.1232837 -1.8810999 -0.022184232 -1.2149721 1.415016 -0.4295424 0.8268978 0.6327337 -0.14372072 -1.3197186
sick -1.2991937 -0.80968744 0.32777023 -0.37578517 0.42402634 -0.13219692 0.6901416 -2.248855 1.1326668 -2.0968628
attentive 0.09357267 -3.186739 -1.7207804 0.8566929 0.46143582 -1.4321544 0.60024387 -1.0174447 0.033593185 -1.436773
cooked -0.055317815 -2.9138818 -1.0092514 -2.2067237 1.093435 0.15326528 0.82973415 0.686588 -0.07233313 -2.3447907
outside 0.7669111 -3.1147287 0.8147656 -0.3971373 -0.16188377 -1.4959273 0.7529155 -0.03303306 0.45698324 -1.7712234
heart -1.568671 -0.5216569 -0.08259192 -0.8884842 1.2936798 1.0336882 -0.28678074 -1.1186044 0.67664665 -0.31992844
beyond -0.89265835 -0.46065864 0.95475215 1.4531394 0.87580895 0.5029672 0.929023 -1.1351113 -0.21974151 0.28047007
others -1.4773793 -1.0232488 -0.12850034 -0.74115 0.22171554 1.3408308 0.6683797 -0.9234659 -1.8094574 -0.14082572
town 0.38327137 -2.0705976 -0.57471997 -1.2657459 -0.16384238 0.9962969 -0.24122983 0.38454732 -0.30170682 -1.0092179
served -0.15040544 -1.3938961 -0.33714634 -0.10519338 0.49159014 -0.23986247 0.5903605 -0.21990296 1.2650391 -0.48840627
ambiance 0.40359536 -3.2739272 -2.2264287 -1.6091931 1.3136381 -0.12898783 -0.42921022 -1.5520927 -0.54486805 0.15292771
management -1.4800428 -3.5449417 -1.7259088 2.0428388 -0.5244445 0.75003546 -1.2123852 -0.57831657 -1.2232375 -0.5493333
solid 1.4500984 -1.4354072 -0.31342617 0.763795 1.4589431 0.08289233 -0.25766844 -0.97031766 0.5542762 -0.05833741
cover 0.39302257 -1.2260034 -0.63920504 1.190275 2.388713 0.42066386 -0.10560111 0.4214831 -0.03270569 -0.6583273
literally -0.63224334 -1.2485213 0.9813734 -0.6029786 0.46910387 -0.82532436 1.2363933 -0.5093001 0.2459686 -1.6622361
chips -1.4122903 -2.1625447 0.26927343 0.31013176 0.22670631 -0.40322492 0.9146099 -0.16037127 0.61161137 0.76557034
drive -1.7802349 -1.1311785 0.3179433 -0.46687463 0.07905842 1.4283953 -0.90988386 -4.219017 -0.11636001 -0.47660705
hope -2.0403855 -0.75735986 -0.07849307 -0.12496356 0.99865323 0.87825376 0.15463366 -2.0439916 -0.7193966 0.7352066
unless 1.1027119 -0.67833555 0.910954 0.34927177 0.283091 1.612736 0.2608149 -0.28086898 -0.16149013 -1.915853
needed -1.5181046 -1.4630396 -0.45190406 0.8132495 0.35342464 -0.367679 0.26145697 -0.6771637 -0.006880883 0.3559047
course -0.5579974 -2.1156485 0.3217955 0.2786392 0.033709764 -1.2957044 0.85602355 -0.3483669 -0.187685 0.45013684
annoying 0.5314764 -1.0901428 0.38801306 1.1638855 1.3006066 0.4293568 -1.1765969 -0.46064985 0.6969005 -0.6451609
single 0.38245678 -0.98704743 0.488748 -0.13743839 0.49163458 -0.48452085 1.7122391 -1.3337132 0.7912253 -0.760406
possible -1.4690145 -1.9639726 0.7873777 -1.4371964 -0.025757723 1.5927202 -1.0299227 -0.6085424 0.85715187 0.319149
close 0.14899172 -1.1395819 0.06943465 -0.35151556 0.8585653 -1.0744554 0.8933839 -0.39038658 -0.26309702 -0.78248966
later -1.117274 -1.9593399 -0.30107513 0.20618628 0.536153 1.4031804 3.1145318 0.5723392 -0.5469722 -2.0618937
location -1.0374595 -0.9706 -0.26830626 0.92447764 1.0335006 -0.6527665 0.38852754 -1.4170662 0.07483565 0.23995358
review -1.3439277 -0.900349 -0.1298062 -0.09589861 0.07303379 1.6384354 1.9539765 -1.3685732 0.17155586 0.40743428
friends 1.2655727 -1.7189195 -0.793057 1.1081166 0.042892084 2.013792 -0.22300082 -0.57950306 1.3905127 -1.8787584
reasonable -0.50040394 -3.391285 -0.10009966 -1.698417 -0.70468754 -0.83554155 -0.19343574 -0.95885265 -0.82865226 -0.39810693
authentic -0.4553811 -1.4671075 -0.89389825 -0.9837118 1.1318859 0.76706225 -1.6370366 -0.51300454 -0.2705783 -1.2197958
feels -0.6392363 -2.0350254 -0.776344 -0.4945973 1.7968367 0.34468392 -0.8395799 0.79886174 -1.2797587 -0.56729424
front 0.51103824 -1.6442806 -0.42516723 1.9457699 0.8787263 1.2171823 -0.7844847 0.4245266 -0.6109279 -1.4271271
joy -1.2750441 -0.26720637 -0.07550261 0.2607291 2.2319708 0.9814544 0.20928396 -1.0410783 0.8571113 -0.3274659
week -0.88327724 -1.3026478 0.24323355 0.35785082 -0.17922154 1.3521434 2.8302653 -0.77710974 -1.0655581 -1.5529021
mention -0.35427338 -1.5053532 0.8395429 0.075020805 0.08912242 0.6773427 0.2715131 -0.0074813026 0.53187054 1.0515153
bring -0.5219383 -1.3315952 -0.5576546 0.86657625 -0.32921615 0.732132 1.5277472 -0.9521045 1.1507175 -1.4102114
might -0.3910257 -0.9206946 1.5331815 -0.58427304 -0.1737598 1.9795355 -0.16757058 -1.273166 -1.0929894 0.5353107
room 0.00059077574 -0.957347 -0.025054928 -0.6486776 1.0780745 -0.47659546 0.833938 -0.7300696 -1.250875 0.120740324
maybe -0.15835048 -1.3371147 0.2695603 -0.75246686 0.59654385 -0.19736516 1.110331 -0.52247196 -0.23214494 0.94512546
color 0.84422874 -3.1508713 -0.3573906 0.46918187 0.66305107 0.21510702 -0.24044786 1.0723956 0.35759714 0.48076603
non 0.09690813 -1.5777282 0.21800071 0.8228578 -0.27192017 0.1586469 -1.3794556 -2.204853 -0.20945999 0.122829214
book 0.47829905 -1.1113734 0.64515215 -0.33946493 0.3011444 -0.3549071 2.0079868 -1.1105558 -0.2880727 -0.45762703
classic -1.2694373 -0.6837463 -0.02519944 -0.6701919 1.8111218 1.193208 0.017648844 -0.27062887 -0.028496293 0.5941975
editing 0.48087588 -1.4667748 -0.05208642 -0.14243218 1.5668015 3.0091748 0.25525194 -1.149381 1.0745829 1.446812
store -0.5237844 -1.3067166 -0.07134533 1.7857556 -0.35398066 1.0833389 -0.7380898 -0.56809145 0.26689136 -1.6032133
hilarious -0.55609673 -0.7634884 0.7584977 -1.146373 1.3683201 0.5704001 -0.603606 -1.1986396 0.79613733 0.13746439
lines -0.018371908 -1.0296576 0.15083037 0.52003765 1.5470465 0.19384526 -1.2327846 -0.37620997 0.49014792 -0.13798027
charm 0.23974171 -0.3972026 0.5070584 0.07991782 1.6219726 0.9949567 -0.36118662 -1.0966673 -1.908448 -0.64291465
budget 0.5475179 -1.8610495 0.7799905 0.7563914 0.02294821 0.69148976 -0.36711732 0.4951983 0.40775636 0.24484856
whatever -2.4729135 -1.048465 1.3749216 0.6533065 0.47382727 1.4518945 -1.0735416 -0.33127725 -0.59925747 -1.2624452
written 1.5257055 -1.8225989 1.7614334 0.53237706 1.6461694 0.36742383 1.0527064 -0.15885548 0.99824715 0.41355506
brilliant 0.3605982 -2.0339901 -1.6475617 0.03353544 2.5240939 1.5017812 1.4061863 -1.3484877 1.4938122 1.1837347
john -0.15355672 -2.0269365 0.74171734 -1.5367284 2.3509836 -0.124129534 1.7040737 0.451119 0.7181972 -0.30564052
action -0.6238954 -0.93878233 1.2377944 1.1263577 0.98287445 1.1581013 -0.8078116 -0.93681264 0.4796755 0.5492325
subtle 0.25211778 -1.3361021 1.8856863 -0.79019755 1.930226 1.0337602 -0.3006814 -0.022644335 -0.24772346 0.64966697
cable 0.29292557 -1.9868953 0.5005798 1.0056487 -0.3644866 -0.893408 0.038488943 -0.33147693 -1.0947695 -1.0745925
comedy -1.0167223 -0.46330938 0.92311317 -0.24524161 1.5731018 1.33264 0.29094297 -0.98782575 0.5538448 0.5387845
superb -0.23375238 -1.5151541 -0.013982741 -0.1315237 2.002504 -0.6137925 0.18609382 -1.6987426 0.04511058 1.2650262
within 1.1363403 -1.9785905 0.83468 -0.13169013 -0.15950629 1.602977 3.6614234 -0.99646 -1.8956621 -1.5246036
loud -0.9731734 -1.9646047 0.72672206 2.5268915 0.06494608 0.56807595 1.345005 -0.6613446 -1.3941032 0.4791357
headsets -0.8596268 -2.2433987 -1.2626821 0.9905956 1.6925112 0.99209327 0.5568891 0.99451214 -1.9330523 -0.2816346
software 0.4462778 -1.8970068 -0.44385487 0.650559 0.26730928 0.87300855 0.28885078 0.3294097 -0.40289584 0.7636223
internet -0.27793914 -2.9878585 0.52794594 1.2257168 -0.5484416 0.14598915 0.7744994 0.5674204 -2.0899634 -0.33705363
useless 0.09618971 -1.4672637 -0.26573747 1.2529212 0.63145757 -0.75567704 1.0625216 -0.4259284 -0.04832857 -0.39508307
nokia 0.47483823 -2.1481059 0.2579674 2.0337875 -0.52123374 0.11212562 0.919014 -0.9758044 -1.824365 -0.8640681
wow -1.2261561 -1.199361 -0.9712821 -0.21213241 0.5799728 0.14275257 -0.19577016 -1.0355606 0.92395127 -0.39225218
damn -1.4673909 -1.4216677 0.64132595 0.63838285 0.46663207 1.2361822 -0.85695124 -0.3014933 1.8842651 -1.1951761
pho -2.872848 -2.6537468 -1.1677027 -0.88279265 0.26787215 1.5762161 -0.43446752 -0.048598733 0.99659145 -0.6344339
running -1.3804712 -1.8127246 0.6210583 0.24883752 -0.45519352 -0.43807966 -0.038215365 -0.55562747 0.6159694 -0.28654107
elsewhere -1.1788384 -0.43878183 -0.7889042 -0.60835934 0.9985561 1.7487198 0.92038965 -3.806844 0.9577667 -1.8951802
shrimp -0.46555692 -2.0775611 -0.6643114 -0.68494093 1.436541 1.7271098 0.16223997 0.8110701 1.6300188 -3.4061902
whether -0.97124416 -0.20606485 2.145579 0.03579414 2.1026614 0.84751284 1.0062444 -0.7825104 -1.1473855 -1.4879373
note -0.40880713 -1.4218102 0.13623655 1.1739349 0.8223197 -0.9635133 0.2238379 -0.5089937 0.5510864 -0.48705095
rare -1.2583323 -2.215409 0.9441224 -1.2523842 0.2962307 -0.7154058 1.5254047 0.066658296 -1.2632301 -0.8301168
fish -1.6156285 -3.1913881 1.0620617 1.5379974 -0.41774252 -0.115328036 -0.5240726 -0.18644531 0.5307493 0.9667745
sweet -0.5805953 -2.3253365 0.570295 -0.74458766 0.60222787 -1.1008677 0.27690738 -0.17337167 0.8829665 0.04166079
potato -2.0788682 -3.2162123 1.1279925 -1.4184299 0.30259746 -0.841042 1.7877355 0.49914664 0.014139931 -0.9588252
walked -2.0634098 -1.2823527 -0.20673494 -0.19995297 -0.54938555 2.2193847 0.490114 -0.91712654 -0.944475 -0.27847126
extra -1.620962 -0.49896142 -0.07022908 -0.5201308 1.2183917 0.6272314 1.2089432 -0.43823045 -0.28988838 -2.205021
hit 0.0045560207 -2.284758 -2.8832092 -0.4338523 0.64658517 1.1980368 -0.6815948 -1.6443566 0.008038125 -2.9476311
leave -1.642089 -1.7238666 0.9470069 0.6193157 -1.5862601 1.9632326 0.8553936 -1.3539808 0.9250846 -0.9099992
bars 0.5082143 -1.5305202 0.12172733 0.43388903 -0.916679 0.81822675 0.9097956 -0.3288298 -0.07117246 -0.90553313
considering 0.28400114 -2.3497167 -0.51268166 -0.68916094 -0.8408651 -0.15142372 -0.6815501 -1.3142874 0.12157731 -0.36433634
zero -2.9933445 -2.9706707 1.8229603 -3.024712 0.6775956 0.7236571 0.071964994 -0.6778448 0.22351968 -1.2700033
terrific 1.3018359 -1.1181753 -0.72274154 -0.53420943 2.2446907 1.5649747 0.25343615 -0.9122584 0.21511655 0.2040798
reviews -0.27433327 -0.929259 0.045882642 0.20835423 -0.70078206 0.9896662 -0.46103647 -1.932016 -0.47567347 -0.35657743
sat -0.63980854 -1.559659 0.29082036 -0.5542406 -0.87752086 0.39519686 1.8055015 -1.3329964 0.6899828 -1.2124257
looked -1.6070073 -1.7803487 -0.4005232 0.5139166 0.57789856 0.07317533 -0.46281466 -1.6843628 0.7356862 1.0743558
lacking -2.039857 -2.7692878 -0.52356184 -0.73869056 0.38007447 -0.8812695 -1.1024241 -1.350415 -1.0958762 -0.2770223
business -0.65590745 -1.3539983 1.0582949 -0.2747802 -0.28517437 0.09156856 0.9986468 -1.4824263 1.5991024 -0.4882258
rating -1.0601015 -1.2607923 1.9267768 1.644768 0.12980863 -0.115511715 -0.6729487 -2.0048528 0.41032135 -1.2194928
hand -0.6739725 -1.7692122 1.0686183 0.046148214 0.53490156 -1.6414135 -0.14159518 -1.0444183 -0.61704373 -0.4098766
basically 0.4239692 -2.1000805 -0.18226826 2.8123739 0.3032522 2.072425 -1.1962715 -3.5962708 1.7031914 -1.0442157
joke 0.884592 -1.2502936 1.009693 2.3261154 0.34406826 0.55468696 -0.28904274 -1.9669853 0.44234106 -0.5295822
whatsoever -0.5720587 -1.6151464 -1.1637119 0.9234421 1.4290907 0.33735952 -0.8841781 -1.0719256 -0.8198203 0.9751875
large -0.88795257 -1.805296 -1.2949177 0.45859167 -0.28329372 0.2976908 1.2177534 -0.08909348 -0.74354714 -1.6107523
rest 0.25666177 -0.44267753 0.8935145 0.6599021 1.1420779 -0.099741325 -0.10102032 -1.366268 0.6429835 -0.5041483
happened -2.0671685 -3.5846832 2.2868383 1.0526025 -1.3324367 0.25997594 -0.3945194 -0.42417204 1.2880175 -1.3910055
lots 0.98277146 -2.548607 -1.1178333 0.6809065 0.65236086 -0.25039828 -1.4063874 -1.3212192 0.4052542 0.11202548
become -0.16833064 -0.23910104 0.3833641 -0.3579887 0.8113756 0.041754637 0.91547084 -1.5607871 0.5649269 -0.8769787
dinner -0.019706378 -2.0247881 0.23347583 -2.2994883 0.8113573 -0.61012065 1.6586733 -4.444679 1.0349519 -2.1669133
mistake -1.5537833 -1.5314213 1.2794864 1.5085421 -0.05525576 2.030289 -1.6871184 -0.8731243 -1.5296143 -1.9004095
etc 3.1307492 -2.1834638 -1.0289572 0.41201484 2.767978 -0.027469344 2.2274294 -2.1936383 -0.9484392 -1.0272429
exactly -0.18710798 -1.0883771 2.4384084 -0.17206766 -0.76461476 1.4637806 -0.48033634 -3.167566 -0.9770142 -2.1275597
living 0.51499236 -1.5823619 1.5101584 1.4554719 -0.4178253 0.49324015 0.907093 -1.7342423 -1.2160467 0.3656297
dont -1.1872824 -0.95394844 1.9885451 1.2691547 -0.7596324 2.2747009 0.36487988 -3.1337657 -0.19703811 -1.9389676
thin -0.09610202 -4.3206916 0.85527784 -0.124328084 0.45628053 -0.86792654 -1.3756189 1.0523534 1.1937574 -1.5165693
lovely 2.2571542 -3.0199702 -0.23024116 -1.4520183 1.3765951 0.114626475 -0.0034768204 -0.92531127 0.72594434 0.4630969
particular -0.021217609 -0.5262718 0.550968 0.054984074 1.0278351 -0.3118055 -0.5889648 -0.847826 0.14098337 -1.1404072
setting 1.6040761 -1.9472162 -2.5047057 -0.41532087 1.3781786 0.86116344 0.71997964 -1.7235695 -0.7228601 -1.023559
instead -0.30935022 -2.4519546 1.1301404 0.92760825 -0.053231213 -0.06988283 -0.10044858 1.261571 0.38826892 -2.0790668
despite 0.039758824 -1.7265782 0.9530004 -0.7915982 0.65257895 1.1895144 0.5298097 0.8413308 -1.9814937 0.14040288
blue 0.9894427 -2.007203 -0.08631105 -0.30268118 -0.73183 1.196114 0.64613384 -0.14870435 -0.22290829 0.43292603
dead -0.6964842 -1.6704702 0.8841524 -0.2562463 -0.49568152 0.86021376 1.9144094 -0.5826347 -1.3940604 0.47214565
poorly -2.6183789 -3.523817 -3.0666118 -0.05072579 4.277792 -0.35278526 -0.004566391 -1.2643094 -0.8970665 0.5668066
songs 2.3991609 -2.4363856 0.06197738 0.43039706 2.0214639 1.1136749 -0.28467926 0.34647283 1.2498825 -0.627576
longer -0.89424974 -1.3409243 0.9049732 0.40943503 -0.8452262 0.7872309 1.4265089 -0.17506105 -0.60823685 -0.98174393
bother 0.734192 -1.7898794 0.10055202 1.5633965 -0.9938181 1.0227987 -0.40611443 -3.740117 0.41515666 -1.1106967
idea -0.13244092 -1.2388246 -0.72771657 1.1271846 0.6272878 1.5995195 -0.06771326 -0.79477656 1.7124054 -0.24414761
plastic -0.29749638 -2.055306 -0.7606884 1.5324637 1.7861995 0.444908 -0.7649847 0.84797746 -1.1502554 -0.95265514
ridiculous 0.37449375 -1.1388425 -0.04784319 0.06631869 1.1921569 1.1784459 -0.29102522 -1.2164109 1.4710951 0.65894264
seemed -0.40984413 -2.2284827 1.7207596 -0.17005554 1.6582441 -0.25512058 -2.0497818 0.30174237 -0.973188 -1.1816974
reason -0.5397206 -1.1163255 0.27189884 0.7383996 0.117539115 1.3909436 -0.45343012 -0.91211855 -0.22356476 1.0732733
clever 0.6147069 -1.6092682 0.3931975 -0.4821007 2.10382 0.15459153 -0.9100898 -0.5938499 -1.1950163 0.901048
lacks 0.46949676 -1.5663875 1.583573 0.89786637 3.2530928 1.4725987 -1.9722773 -1.1819334 -0.42164528 0.84101474
casting 1.0424922 -1.8286104 -0.582996 -0.1231561 2.2968998 0.61221397 0.5364202 -0.95296836 2.0969803 0.28920725
adorable 0.7909837 -1.1272227 -0.28315842 -0.40529984 2.0739768 0.41475496 -1.2808323 -1.0383137 -0.8498212 -0.0850687
history -0.20080775 -0.8201699 0.61484325 -1.6859255 2.0987968 2.499109 -0.30215308 -0.93444496 -0.23219614 0.49887097
flick 0.6122171 -1.5384355 1.0025713 0.5443595 1.9265434 0.21667637 1.4672785 -0.639717 -0.7461091 1.5846263
performances 0.039620887 -1.3529115 0.75287175 -0.09598174 2.6091607 0.33748826 1.3377087 0.5384217 0.7302016 0.014556883
believable 1.747598 -0.9281409 -0.40163144 -0.20530483 1.2052649 0.43725535 0.24740924 -2.0379982 0.13154529 -0.9033719
portrayal 1.0667179 -0.7820668 1.6154839 -2.1074095 1.1419566 2.0799932 1.1465575 -1.7062724 0.03389278 -1.2939708
gives 0.20563191 -0.3953714 0.10849364 -0.47700918 2.1828847 0.4001917 -0.81392974 -2.0454545 -0.8439704 -1.4351109
sometimes -0.6389353 -1.4677771 -1.0951843 0.70299774 1.3217595 0.82888454 1.0479362 0.7521373 0.5263282 -0.6698756
rent 0.40877244 -2.2249253 0.3038217 0.8772456 0.456669 0.49956402 -1.9385456 -1.6601931 1.6732249 -0.34649667
cases 0.0036450597 -1.3092846 -0.005850586 0.56162673 -0.0052320655 0.9101872 0.12521566 0.8199221 -0.17989711 -0.98160094
features -0.3392472 -1.0511135 0.44217443 -0.42909122 1.0106952 0.43998072 -0.73165154 -2.5419176 -2.723 -0.62058234
seem -0.019277552 -1.1701707 0.6260093 2.6456504 1.4630882 0.9996194 -0.14099294 -0.25552198 -0.7008499 -0.23046143
goes -0.34214216 -1.7127922 1.2758974 1.2642311 -0.19535756 0.72041553 0.892691 -0.14082077 -1.5207413 0.4330137
hitchcock 1.3352697 -3.3027904 0.5756273 -0.48854375 1.4735402 0.04210886 -1.1488137 -0.15041485 -0.09636513 1.402286
hold -0.99394643 -1.1674373 -0.31648624 0.514041 1.1401997 -0.84997845 -0.13970636 -2.0396442 -0.8672031 -2.769245
holes -1.1900266 -2.2446346 -0.49774763 1.651537 1.3757683 0.7463486 -1.4542651 -3.4873853 0.4588261 1.5048165
child 0.28966522 -1.9190586 1.1363714 0.5288176 0.49665225 -0.3851476 0.8153591 -1.8929288 2.1758873 0.3391512
memorable 0.08773558 -0.59392196 0.35127398 0.14122653 2.2744908 -0.06844713 1.056379 -1.9127407 -1.2190895 0.25122288
seeing 0.8309889 -1.3594767 -0.13199273 0.027487101 0.3134166 1.3058274 -0.5302943 -0.3648269 0.021587018 0.72687507
throughout -1.4356824 -0.98365736 0.41371647 1.5179234 1.5882723 0.3362072 -0.34832 -0.6240492 0.12228622 0.40289217
player 1.0357215 -2.35743 -0.8699646 2.2139685 0.24037614 -0.16155136 1.2572522 -0.36588606 -0.042938977 -0.9170511
costs -0.73889875 -1.7727486 0.6472712 -0.2897553 -0.28729436 1.8857547 -1.0275685 -1.3585933 -2.7060742 -1.3080237
range 0.8954259 -1.6142877 0.4367287 2.5282085 1.1363515 0.53589547 1.8914924 -0.810333 -1.5607073 -0.6835444
feature 0.049425192 -0.23057564 0.024270877 0.3922867 1.0407184 1.0113806 1.6080896 -1.0173726 -0.45417178 -0.12270473
ears -2.0847988 -1.7042779 -0.36138257 0.885929 0.61081773 0.6853648 0.5569366 0.49436915 -1.9524962 -1.5542176
headphones 0.6011679 -1.5245395 0.18473294 1.9089787 -0.2130198 1.465937 -0.88366455 -1.0435169 -1.3859135 -0.82034665
signal -0.9220737 -1.3917941 -2.1840045 1.040146 1.2599148 1.993239 1.0220493 -0.6753899 -1.5352674 -1.3409557
difficult 0.042401027 -1.6936916 -1.4833775 -0.6603728 1.7552303 0.9392868 1.5366975 0.41425452 -0.45528817 -0.35327184
samsung -0.03217651 -1.651564 -0.57277566 0.3312015 -0.8171186 1.2475636 -0.3981858 -0.6284469 -1.280774 -0.22609949
touch 2.3994794 -1.3225027 0.2133511 -0.5953798 2.7784848 1.2812098 0.9321774 -0.47336593 -1.262397 -1.7725698
ended -1.884329 -1.6550195 0.45777783 0.039927885 -1.214001 1.3597617 0.3320514 -0.38955373 -0.095380545 -1.9621493
cute 1.2032057 -1.4598734 -1.1657492 0.3841208 0.5952937 2.163148 -0.5576594 -1.0631299 0.9692356 -1.3524729
stuff 0.44246703 -1.7723423 -0.16518357 -0.28316355 0.29187852 0.59377795 -1.6207163 -0.28009963 -0.8484078 -0.5015974
asked -1.522561 -1.8925008 0.53438956 0.36366025 -0.34246773 0.5559686 2.4968734 -0.30722445 1.1480937 -1.6963612
tables -1.6928931 -2.5632818 -0.17099534 0.011920886 -0.6055008 -1.3653604 0.3816117 -2.2070835 0.0065921657 -1.8407754
portions -1.9659952 -2.603895 -2.26979 -0.94830114 0.5610155 1.8886269 -0.45096585 -0.3356077 -0.10136767 0.05095444
sides -1.4517164 -1.4614898 0.6970607 -1.558253 1.4828011 -0.249965 1.2048591 0.37641725 -0.55569196 -0.92729115
provided -0.41964442 -2.2173936 -0.6585726 0.78909135 0.7024177 -0.97705173 0.79341173 -0.45902744 -1.9634739 0.065312766
dessert -1.5959724 -0.9261319 -0.57311845 -0.17251527 0.471734 -0.30370817 0.9989377 -1.2805495 -0.09131395 -2.080856
beef -1.0790325 -4.439255 -2.4273422 -0.6078465 1.9834005 -0.363781 -0.76402235 0.83208734 -0.7856954 -1.9180361
servers 0.15949893 -2.4074652 -0.7232396 -0.32258922 -0.3162691 -0.84587884 0.7536884 -2.2059345 1.2703909 -0.53444797
flat -1.3777171 -0.57491994 -0.7269368 -1.3679485 1.2638903 1.1352329 -0.13199508 -1.3570836 0.01602721 -1.3824384
seafood -2.3992298 -3.3353896 -0.40820974 0.5486832 0.47769362 1.6740179 -0.37429282 1.7846467 1.1741719 -1.7970119
pasta -1.45771 -1.9367566 -0.6239433 0.6765368 0.010389355 -0.1632057 0.69026107 0.27828163 -0.13134356 -0.653705
tasteless -0.22733462 -6.0699067 -0.6083311 1.2587008 1.4542772 -0.94541305 -2.4716387 1.272328 -1.1289237 -0.27595234
water -0.98667026 -2.5007849 -0.23329736 0.43992126 -0.27815774 -0.16607499 1.7517279 -1.0820004 0.23481463 1.3020501
rice -1.7268933 -1.2243584 0.24747054 -0.6162467 0.49279204 1.0245149 -0.17538396 -0.36815462 0.75810677 0.40763986
person 0.12946975 -3.07942 -0.87235075 2.2372272 -0.5928098 0.9820687 -0.60853785 -0.10628849 1.337911 -1.2119772
break -0.5680928 -2.043028 0.3389383 0.8797452 -1.0106751 0.049021367 0.44858474 0.22688429 -0.5326575 -1.3612752
party -1.2631421 -3.4019158 -0.44576985 3.3580773 0.8349473 -1.029603 -0.57723254 -1.0286599 0.8051223 -2.8244684
mouth -0.6524246 -2.993665 -0.35909852 1.4624496 0.8116231 0.060009684 -1.1140791 -0.51552653 2.4639788 -0.9317883
beat 0.050881654 -2.5833225 0.2490531 -0.17105328 -1.2588626 2.3996396 -0.7033616 0.5014182 -0.69461024 -1.3279957
trip -0.76606995 -0.9453907 1.2791737 -1.2320784 -0.1825172 0.7670924 0.17584871 -1.4440622 0.7235897 -1.7977465
thai -1.1248013 -2.1763475 -0.9281965 -0.66518134 0.44665244 1.4841323 -2.0744576 -0.46126232 0.50985813 -1.5203195
eaten -2.0560827 -3.682131 -0.3539402 -0.8641382 -0.85810703 1.2664018 -0.7512547 0.24626261 1.5845028 -1.5381488
empty -0.1279407 -0.7965303 -0.7393226 -0.5361777 0.6053398 0.71578926 -1.0040721 -1.3000511 -0.027826278 -1.2782673
thumbs -1.3844651 -1.5670547 -0.48374885 -1.8873911 0.5578337 1.0122027 0.09921068 -0.4090564 -1.2185217 -0.42608333
seated -0.71573746 -2.3568294 0.98627645 -0.106206045 -1.5560658 0.47039202 1.5468907 -2.3231683 0.49624833 -3.557423
reasonably 1.3296459 -1.646928 -0.45547524 0.50187355 0.5946312 -0.2388521 0.08406121 -0.8833136 -1.8494928 -1.42827
bacon -1.4406848 -3.844744 2.0525527 0.46973637 0.6313622 -0.30288932 3.0106237 0.34038734 2.2598984 -0.30124125
sad -2.193264 -2.0503309 0.38686374 -1.0704955 0.60380465 -0.75870687 -0.2902964 -0.7587033 0.33870924 -1.1186389
ice -0.732244 -2.4866157 0.19293267 -0.026240127 1.9643213 -1.2762831 1.0383266 -0.1547905 1.0531967 -3.4830842
bread -0.73810005 -3.8357143 0.55023044 -1.455232 0.62752825 -1.2623304 0.310038 0.22212493 1.362617 -1.1251249
satisfied 0.25717202 -2.0234728 -0.37057877 1.7090862 -0.5449384 -0.052166425 -0.1294058 -1.7172098 -1.2291719 -2.7869117
friend -2.2578006 -2.8310125 -1.1081173 0.2896787 0.97585285 -0.8366521 2.001012 -0.98251426 1.5241055 -0.34731564
unbelievable 1.4892471 -2.323439 0.4072068 1.4275595 1.7092935 0.020985086 -2.6032822 -1.1652801 0.42696017 -1.7319087
bargain 1.6071914 -2.3516023 -0.43943623 1.4994593 -0.40041104 -0.019746996 -0.68289447 -1.2387036 -0.3936422 -1.5250223
eyes -0.3905523 -1.3417021 1.6683187 0.081608474 0.61771995 -0.85014355 0.6980633 -1.7912484 1.4063104 -1.3785269
sub -0.18821193 -1.9984866 -0.14500023 -0.8153941 0.40553463 0.25442466 -1.0257113 -1.5094551 -0.874393 1.2814852
par -0.21590412 -1.5723364 -0.24435359 0.057838045 0.5296845 0.16252285 0.35070056 -1.0373011 0.16371681 1.4230621
owner -0.09179789 -1.733744 0.486068 -0.08201816 -0.46675614 0.4238644 -0.9672863 -0.08568883 0.17513728 -0.03344737
cant -0.07924087 -0.7628904 0.3633915 0.21816914 0.25209114 0.145891 -0.5873562 -0.30949035 -0.28309697 -0.2083568
incredibly -0.34075773 -2.6431074 0.37519947 0.27791333 0.3365786 1.1332531 -0.40980625 -0.78428173 1.1041441 2.0895264
please -1.5601476 -0.40987542 0.5869361 0.62439 0.29958957 1.1222473 -0.23431535 -0.98218924 0.5105952 -1.9927338
fried -1.5724845 -2.7712069 -0.5718492 -2.707156 1.4605485 2.1003478 -1.1438006 0.6737075 0.20746589 -1.1304295
favorite -0.032266155 -2.4955497 -0.41129485 -2.1842344 0.5414676 0.99799955 -0.022235187 -0.15130678 0.29409298 0.58363944
dirty -1.0114721 -2.2019997 0.47344854 1.5264095 -0.5011182 -1.0364892 0.7969732 -1.4016188 -0.29131278 0.11595456
plain 0.19859722 -1.1480598 -0.8899734 2.4700103 1.5745056 0.27852497 0.4065824 -2.0423388 0.45767087 -1.0688735
buying 0.28901494 -0.9897147 0.5200102 0.45075196 -0.65521306 1.8638515 -0.8150694 -2.3463562 -0.77287203 -1.712477
deserves -2.3336232 -1.2967799 1.1725053 -2.6948707 1.4855018 2.4350662 0.82479936 -1.5884008 -0.5369407 0.19643675
usual 0.36837086 -2.413389 -0.89628285 -1.1036321 3.1995034 0.020587895 -0.18936194 0.43896472 0.04351154 0.09374775
options 0.60696965 -3.0370355 -1.6863732 -1.6143465 0.59233165 -0.66184974 -1.1532915 -3.2420733 -0.8055369 -1.3315109
total -2.324022 -1.7206115 2.5571828 -0.8487251 -0.2699678 1.9208785 0.15434134 -1.6712619 1.5318918 -0.0763171
needs -0.55254674 -2.3022017 -0.27024385 0.03604311 0.6665822 -1.772512 -0.13162407 -3.9050832 -0.4891161 -1.1752715
anytime -5.3894563 -4.800336 0.7255529 -1.2413051 -1.8225267 1.8932866 -0.5538542 -4.942203 1.1924462 -2.0820765
due -1.1460861 -0.51199603 0.37820473 -0.6742625 1.625151 1.8383673 0.40977547 -0.20453922 0.57738984 0.077071816
recent -0.38408813 -0.5962039 0.24707523 -0.82817334 0.52899355 1.4559141 -0.270039 -0.7826995 0.38332266 0.18823075
consider 0.20512992 -1.1114725 -0.28235614 -0.36962292 1.6875634 0.6128191 1.5433768 -0.46309304 0.94738513 0.44289905
recently -1.5618556 -1.2016952 -1.1268103 1.0150261 0.30789798 0.51993763 0.6759511 -1.3536676 -1.0026132 -0.23723628
fan -0.094276026 -1.4146243 -0.022016753 0.24451718 -0.16463958 0.90620005 0.23433423 0.5109981 0.6015672 -0.040621642
dry -3.790187 -3.9589117 1.0316393 -1.3523146 1.74247 0.5985916 -2.17907 0.47052354 -1.3244678 -0.3606595
rated 3.7343142 -2.9576843 2.994755 2.602537 0.68035173 1.2946742 -1.1717739 -2.3890152 -0.99711406 -1.9922547
wish -1.434833 -1.209931 -0.00881264 1.2122858 0.15768027 3.0028946 1.2944634 -0.978696 1.5589179 -0.45741293
ok -0.5554743 -2.31087 -1.2213719 0.6519885 0.7668322 -0.67069733 0.7414087 0.11273345 0.7750386 -1.3456395
rate 0.50675964 -1.7766379 2.3238835 -1.6851836 0.36569765 0.09063116 -0.0023327435 -1.1083926 -1.975415 -0.68819654
list -0.33476606 -0.9665705 0.5486739 0.047803592 -0.53021437 1.4457293 0.81914884 -0.3231753 0.3626141 0.08082285
soundtrack -0.22571328 -1.887109 -0.3231145 -0.22803168 2.2150185 -0.93557584 -0.18399535 -1.5023508 0.16793074 1.1317765
mean -1.9098139 -1.3450868 0.3378732 0.39615208 1.2216185 1.0817189 -1.0894734 -0.6152516 0.4155654 0.6785053
reading -0.09227412 -0.8001402 -0.3664832 1.095515 0.48970428 0.19706503 1.3615639 -2.8436248 0.78623635 -1.415489
level -0.49490476 -1.308717 0.63182604 0.36408404 1.0669074 1.3195955 -0.48522574 1.31652 -0.046824478 -0.6969475
leather 0.23391816 -3.0176208 -1.4568456 -0.31668898 1.8074852 -0.12145888 -0.18101999 0.7467865 -1.6447917 -3.0004647
offers -1.8177285 -1.9679636 -0.021799209 -1.2925763 0.32374275 -0.48890787 -1.0045857 -2.3231518 -0.6994411 -0.18672976
forever -0.4432659 -0.90360475 1.0280145 1.2123277 0.18744715 -0.0020029144 2.2229543 -1.2222079 0.086824864 -0.98494345
lacked -1.410921 -2.1705687 0.78311175 -0.7295263 2.5920517 -0.36132428 -1.3897638 -0.11550207 0.30172458 -0.14482605
imagination -1.3309584 -1.6510866 1.2804674 -0.68914354 2.1664736 1.3883005 -0.7064448 -0.6464732 -0.39175838 1.7145334
shots 0.8806279 -2.6343925 -0.057335906 0.76137894 0.056862332 0.21591818 1.3037008 -0.42552084 0.5502791 1.3667489
owned 1.4257827 -1.476375 0.7330802 0.09125114 -0.20137279 1.1271813 1.1286402 -0.2243157 0.5724007 -1.0606937
impressive 1.6635363 -0.9174613 0.2511492 0.07591319 1.1464683 0.6817399 -0.006687511 -1.635064 -1.8337228 -0.5189966
moving 0.83680236 -2.1505067 0.37390628 2.619779 1.2684226 -1.1675543 2.3133092 -3.3931377 0.2820428 -1.0854665
audience -0.36215633 -0.19364695 0.5709 -0.17723016 0.78348225 1.9887 0.9108641 -1.9750106 0.73867756 -0.09095215
production 1.4838648 -1.2871407 -0.65116954 0.42145428 2.3115208 3.022866 1.1185104 -0.59656376 -0.89164144 0.4782047
minute -0.8191587 -1.2815418 1.3809724 0.44449434 -0.35664243 1.6460698 2.847095 -0.83338726 0.78400576 -1.6029665
form -0.3739128 -1.2858132 0.77807325 1.0051147 0.11520583 -0.12182349 0.30418712 -1.4714911 -1.7513813 0.55961037
graphics 1.0477859 -2.229845 0.05160729 -0.17577688 -0.18911545 0.91321 0.037058488 -0.059763122 -0.26924306 0.8831498
lame -0.23770724 -0.8525814 0.26691338 0.11313701 1.1975867 1.3171247 -1.0065223 -1.8247324 1.640043 -0.96052814
choice 0.3173431 -0.5457362 -0.11909069 0.11648518 0.41330424 1.7257276 -0.55210817 -1.4216654 -0.8491218 -0.0036094498
fall -0.1902354 -1.48248 1.9127812 -0.4346138 0.41193116 0.5853354 0.8051541 0.7398825 -1.4769423 -0.6025684
utterly 0.22229974 -1.2838929 1.4418873 1.1066464 1.3978355 2.970517 0.5273226 0.31159762 1.2177953 0.18744138
tom -1.7135384 -1.7681465 0.46374646 -0.26933956 3.142876 -0.9019662 -0.29423463 -2.2457597 0.4307731 0.40787748
often 0.1824786 -1.1828666 0.6067029 -0.29961944 1.7553047 1.5688952 -1.2684371 -0.6018504 0.6858405 0.36272705
generally -0.14537947 -1.9385363 0.19041082 0.33707395 1.450002 -0.124073535 -1.0554658 -0.7891119 -0.08938848 1.3707776
wind 0.65529144 -2.425425 1.8957987 0.36188647 1.1539114 -1.3059319 1.6861483 -1.4276377 1.6523812 -0.62466305
turned 0.3515217 -2.711104 0.14066347 1.2924846 -1.3136816 0.6955634 1.1943687 -0.66977155 -0.8958336 0.45187372
embarrassing -1.2548007 -1.5190868 -0.5459597 1.0539492 0.8682792 0.6568864 0.71079177 -0.7331977 1.4848688 0.34655884
along 0.16336943 -1.8296001 0.512488 0.11387908 0.83090204 1.5576813 -0.201202 0.029022919 0.21040231 1.7363683
direction 0.64689225 -1.1731272 0.012550763 1.1325856 1.6985645 2.489079 -1.1202029 -0.8595432 0.42268807 0.44053167
cult -0.53527164 -0.61879146 1.3143374 -0.5153879 1.168884 2.05688 0.21092227 0.10564231 -0.62988055 0.024168922
lead 0.9874523 -0.92434144 0.22890605 -0.23202199 2.1032186 0.8562622 0.22363204 -3.2097685 0.8399983 0.50272465
silent -1.5014534 -2.0961635 2.132356 1.8849487 0.31709486 1.7083056 -0.08278629 0.4373494 -0.48022515 0.43881017
thriller 0.72236913 -2.4096165 0.5245167 -0.41934627 1.153221 -0.6025476 0.2574228 -1.275824 -1.4071249 1.6701571
pathetic -1.6364995 -1.2702366 1.427668 0.86607575 1.7240075 -0.24110226 -0.9730699 -1.1836456 0.36453918 -0.11516179
trash -0.011366252 -0.77584165 1.1310514 0.96833223 0.915913 1.8568842 -0.3149961 -0.24703926 -0.3829057 0.3633585
fans 1.2913921 -2.6113575 -0.16350135 -1.8292348 2.311325 3.3267925 -2.7573607 -1.4539226 0.98238903 -0.4894179
shot -0.7732255 -0.2997704 1.3198539 0.4150635 2.546128 1.0252143 -0.048346743 -1.0759534 -0.92340654 0.04162353
games -1.0406857 -2.4137857 0.11339192 1.1418221 0.2722412 1.0238516 0.34335566 1.220084 0.2951837 0.60745734
roles 0.30675268 -3.394654 1.8904756 -0.47514609 2.6359227 -0.48970476 2.6704466 -0.3591519 -0.8006212 2.1430173
involved -0.0045698364 -1.1481173 0.71227765 2.006393 2.1787844 2.788723 -1.4954239 -0.36137253 0.80201477 -1.7268791
period 0.9650094 -0.8594882 0.9694774 1.3742039 2.2048094 1.1678913 0.2552252 -0.42698035 -0.4151839 0.28216797
particularly 1.3942354 -1.8911116 2.5460289 0.62806064 2.2199857 -0.26969546 -1.7217308 -2.7307343 -0.052715793 -1.0294378
computer 1.228684 -1.9983112 0.660615 0.92038864 0.7444985 -0.10959508 -0.38875657 0.73714155 -1.178578 -0.7988554
holds -0.53817856 -1.2501782 0.31327066 1.4857477 1.2329316 -0.6157238 0.6315638 -2.1055758 -1.8602648 0.11576021
ability 1.7259953 -1.0187986 1.550146 0.42157575 1.0415436 0.6467448 0.38502088 -0.3909835 -0.9284074 -0.46660292
razr 0.4204383 -1.7105391 -0.85255027 1.4731029 -0.18138589 0.7694068 -0.75365305 -0.73755735 -1.0727704 -1.4526476
charging 0.13767608 -2.8776286 0.7162091 2.1091435 0.32154056 0.111495346 3.4176686 0.0023960166 -1.4650319 -3.21109
mobile -0.014287345 -1.5782133 -0.108548716 0.15622568 -1.0705837 1.1694103 0.90563667 0.07038048 -0.59039855 -1.1544818
sturdy 0.16002096 -2.6473875 -0.25943992 1.848803 -0.78092885 -0.2975916 0.08137564 -1.0542063 -1.3516138 -2.438614
shipping 0.7140202 -2.5979831 -0.56917834 -0.6368941 -0.8893393 -0.13290519 1.8459251 -1.4396809 -1.4697088 -1.1565238
weeks 0.3080447 -2.4400682 0.24318205 1.5361747 -1.3193963 1.636187 1.2339174 -0.5888869 -1.8871973 -1.1406853
bt -0.0877965 -1.4918603 -0.30754334 0.42100048 -0.07926859 1.7001841 -0.25231323 0.31730315 -1.3421925 -0.4483247
belt -2.4386492 -1.2484343 -1.1789271 -0.07537672 2.1209102 0.46136642 1.1951551 -1.1862252 -2.2560804 -3.05825
data -1.2270075 -3.941141 -0.018798828 2.0755734 -1.1087277 0.16958179 0.6541184 0.19253454 -2.4855065 -2.2872903
clarity 0.6757877 -1.9070389 -1.455586 2.285677 0.36539736 2.0377617 -0.43151352 -0.58652306 -1.3547742 -1.586609
replace -1.5897 -1.0723091 1.1984845 0.6385572 -0.22761841 1.255088 1.582577 -0.8840401 -1.9072336 -0.8941952
connection 1.1974468 -3.0204916 1.6155057 2.979786 -0.07118733 2.0334868 2.247524 -0.019858142 -2.070528 0.012532364
nasty -0.25281894 -2.960145 0.8665443 -0.5929089 0.31596032 -0.42212096 -1.226328 -0.8568533 1.674017 0.38025218
hair -2.2272172 -1.9182503 2.5255399 0.058813952 1.0926634 1.1360744 0.059322916 1.2651341 -1.4778609 -1.2858238
red -0.26620463 -4.1304135 -0.22892986 0.5535119 -0.1903422 -0.042853467 -0.95728296 1.539844 -0.886173 -0.99310046
mexican 0.06534824 -1.4892249 -0.2864463 -0.89837843 0.090166554 -0.007590842 -0.67335576 -1.4130383 -0.10809415 0.17268303
tacos 1.0356277 -2.675885 -0.7552502 -1.7025098 0.27654427 0.6057863 -0.39534155 0.1648575 0.20367794 -0.3862151
salmon -0.5758007 -2.4905126 -1.2907598 -0.7574648 -0.2550009 1.2313839 1.4442631 0.10141829 1.4219334 -0.39398935
final -2.092067 -1.9956552 2.3466792 0.23378469 1.9543358 1.2780205 0.34541726 0.005405955 2.177356 0.037680946
happier -1.1441693 -1.0221951 -1.0365288 0.21952136 -0.09912368 3.668928 1.7175049 -2.1104324 -1.3002402 -1.197026
visit -1.3263887 -2.2654738 -1.6782509 -2.4964833 -0.43998605 3.534528 0.8925039 -1.7312807 0.9307838 -1.8688424
delight -1.9892402 -2.2424133 -0.6275535 -1.1007223 0.22451247 2.9192016 0.95416725 0.3384619 -0.88136804 0.4092858
establishment 0.74193454 -2.4610276 0.33013895 -1.3998275 -0.563121 0.15381792 -0.18339378 -1.4148256 -1.3196775 -3.6073802
fear -1.4579338 -0.44025812 1.4128698 -0.14631717 0.95933 0.5960932 1.2420716 -1.2583305 1.0022036 -1.7175444
husband -1.8332847 -2.938182 -0.31219512 0.28026673 -1.5975951 -0.6060578 0.66068196 -2.5883687 -0.009100839 -1.5229907
towards -0.55792993 -1.4417031 0.26265222 2.513457 1.3641989 0.86399007 -0.9442204 -0.18609998 0.087282345 0.015332742
power -0.54400253 -2.3926864 -0.24096468 -1.6787935 1.2757217 0.996124 0.9923215 0.69953203 -2.3316443 -3.5371366
heard -0.48475137 -1.0850346 0.497867 0.92466897 0.46746692 -0.2871701 -0.94516474 -0.45997658 -0.24690361 -0.42788616
included -1.4971058 -1.4891875 2.6037278 1.4915664 0.012132698 -0.05467683 1.6385764 -1.6403688 -0.86934465 -3.261459
drinks -0.9131237 -1.2979882 1.0265464 0.5170058 0.08313258 -0.16470434 2.3574533 -1.2149065 -0.10660388 -0.13576595
known 0.043755706 -0.68046254 -0.37081203 0.60124046 1.5717515 0.51773393 1.0886145 -2.3837676 0.58106625 0.41925249
sense -2.156491 -1.5031469 -0.37522563 1.4583504 3.011931 0.7020237 -1.0364045 -1.9423205 -2.3777587 -0.09680586
wasting -2.4365816 -2.6096478 -0.53532386 0.18394992 -1.5096326 2.0288146 -0.21933816 -2.9303553 1.2108445 -0.3631695
rolls -3.6497324 -2.8587143 0.3935872 -2.2509804 2.4676192 -0.103287615 -0.10787282 0.013940049 0.09270548 -1.0410405
yummy -2.4845412 -1.3446395 0.8929419 -1.683057 1.0164313 -0.23687913 0.8596575 -2.0124598 0.49338397 -0.5847522
loves -0.69404125 -0.47947815 -0.08037986 0.51643413 1.2733477 0.9926565 0.118152104 0.28339472 -0.31297287 -0.90275204
wine -0.4306875 -1.9780244 0.01342623 -1.6547512 0.12440566 0.925982 1.9012548 -0.21053666 1.3618542 -0.5745401
honest 0.5113709 -2.1506512 -0.5265809 0.5870876 -0.31704533 1.0580089 -1.8827653 -0.71742153 0.50208867 -1.2786984
passed -0.49554303 -0.38895115 0.20952243 -0.2603136 0.6475528 1.2838264 -0.17880033 -0.04991986 0.47842312 -0.71378917
steaks 1.891162 -3.973766 1.5347649 -2.6635761 1.5845814 1.1653982 -0.60771424 0.89183897 1.223433 -2.432391
son 0.24263833 -1.0432103 1.3371993 -1.4679673 0.830088 0.57388455 -0.046573166 -0.75477767 1.0366055 -2.079272
number -0.19388731 -0.8662309 0.06442171 0.8817306 0.0950995 1.4435605 0.12507571 0.070544794 0.8105369 -1.6095382
strip -0.6152289 -2.8340287 0.64875627 -0.84466094 -1.2949682 2.44066 0.16847304 0.9199307 -0.25481242 -2.1737626
pork -2.3617742 -2.3466964 0.784624 -1.1501019 -0.41001666 0.8740796 -0.77067494 0.11965192 -0.4142067 -1.4847115
including 0.7651028 -1.591459 -0.5798787 -1.0493436 2.991998 -0.3211888 -0.24800871 -0.29709005 -0.3366233 -1.589263
massive 0.54488766 -1.5306944 -0.017000059 -2.5232248 2.2203953 0.981389 0.2972511 -0.47947234 0.00031107944 -0.66317725
burgers -1.1785657 -4.018025 -2.4192126 -1.4782532 0.5869557 1.0424504 0.76845586 0.8613189 -0.035481784 -1.1373414
cream -3.3600607 -3.1823297 -0.6148502 0.8803995 1.9685022 -0.96397805 -0.47195226 0.09772459 0.7008138 -2.1854558
drink -0.3945824 -2.2040622 -0.8862614 -0.6465369 -0.7805516 0.021491291 0.21106912 -0.58357376 0.32851422 -1.6142086
checked -0.15593097 -1.8289385 -1.4039822 -0.13901286 0.34403145 0.20531233 2.5772674 -1.9393348 -0.43627238 0.08136099
attention -1.8360887 -1.529245 -0.2567774 0.09639169 2.0136902 -1.1639947 -0.335174 -4.3792434 -0.37736374 -1.1007544
bay -0.044649705 -1.905182 -1.4943817 0.081389256 -0.11631249 0.32005072 1.1678936 -1.688546 1.5454388 -1.9750155
five -2.770406 -2.5715072 2.8903055 1.3374964 -1.3689501 0.8872573 -0.2893067 -1.6660041 0.21560562 -2.1410613
cut -1.0365732 -1.3593531 0.28886342 0.9061887 0.9390838 -0.17236409 0.8733583 0.8017459 0.08545609 -0.81841683
immediately -1.19148 -2.7143776 0.7542035 0.8960052 -0.9192735 -0.37373248 0.797119 -0.41820523 0.6182347 -3.0671606
cost -2.0812333 -3.154724 0.9917388 1.0825416 -1.353933 0.47243652 -2.2963722 -2.719507 -1.9536955 -2.9823337
phoenix -0.22416157 -4.845919 2.3339138 -2.9705396 -1.7907457 1.4705467 0.97103155 0.002267456 0.5198162 -2.3123243
missed -4.0545554 -3.7484515 -0.081728086 2.6778274 -0.5514826 3.6280272 -0.93978137 -0.3890163 -0.68738306 0.10396275
station -0.11022574 -2.2988636 1.1273977 2.703378 1.7756011 -1.4432065 1.5680714 -0.25101295 -1.1289119 -2.4241908
wings -1.0787215 -2.5076737 0.17255796 -0.17486817 0.215285 -0.054558497 -0.7629596 0.0020836126 1.1671829 -2.7931948
live -1.1152083 -1.0356296 -0.70541656 -0.67060035 1.6376219 -0.12599266 1.0637043 -0.30974573 0.3575508 -1.7008618
showed -1.0038372 -1.417095 1.7881163 -0.11425345 0.25555348 0.5326205 -1.2850314 -1.1407026 -1.375507 -2.6433425
folks -0.21471354 -2.180824 0.26770413 -0.3013534 -0.13511676 -1.3050324 0.14163321 -1.7096057 1.1866821 -1.6512073
stop -0.61455977 -1.1570761 0.87205374 -1.432697 -0.18608463 1.8962828 0.71493894 0.04380245 -0.009536601 -1.3140767
chef -0.33687142 -2.0247424 -0.61953086 -1.092998 0.41664124 0.247025 -0.7839296 -0.5513043 1.1379637 -0.124760516
decision -1.2411386 -1.9348769 -0.566329 -0.8665008 0.07173981 0.19976741 0.21615939 -0.20857084 -0.3030704 0.4400131
honestly -1.1294681 -1.4544301 -0.20836617 -1.1503675 1.3931661 1.3133298 -0.42332444 0.6321244 -0.6211533 0.011824615
dark -3.413095 -1.5968149 0.7837338 -0.10671978 4.016698 0.37771803 -0.29373068 -0.09166837 -0.78596944 -2.0825648
charged 1.181895 -2.2126644 -1.4858838 0.15330537 -0.5037857 1.2107395 2.184108 -1.4524969 -0.07538473 -0.36395276
tea -0.346227 -4.0072937 -3.5242255 -0.40210858 0.9563399 2.7254832 -0.0054841875 -0.22616938 0.74854 0.23789096
third -2.7837284 -1.7113008 0.30818123 1.3326652 0.1677673 -0.10041966 0.045026194 -0.5976446 0.17327744 -0.6126878
charming -0.865959 -2.6383712 1.2985868 -2.7834902 2.1373498 -0.7338582 -1.2207265 -2.3049805 -0.45541683 0.2757781
exceptional 0.10708784 -0.6696329 0.23490563 -0.34134188 0.8353267 0.8159241 0.46169835 -1.0778749 -1.02655 0.89150363
pleasant 0.7872287 -4.391842 -0.12444746 0.44843766 0.7837195 -2.4081848 -0.41920272 -1.1047809 0.09251216 0.05148961
vegetables -2.4935327 -4.309372 -0.8329203 -1.03401 2.2979596 -0.4677123 -3.166435 -0.8283949 -0.1257153 -1.1536431
ten -0.3986306 -1.0078263 1.3555634 -0.1985862 -0.6326539 0.8158941 1.2365 -2.153329 0.30909696 0.19449204
soup -2.366262 -4.7644053 -2.0967243 0.7008655 2.9332309 -0.38972476 -0.79524213 0.928903 1.6766263 -2.1282723
space -1.4773414 -1.1031601 -0.35897818 0.07263455 0.60892713 1.7388946 0.31848544 -1.8189627 -1.2306238 1.246269
green -0.025038276 -1.2522323 -0.7559372 -1.0537378 0.6851219 1.5958552 0.4438364 0.5521229 0.18060519 -0.7705758
says -0.69426954 -1.7208581 -2.5107348 1.4908168 1.3743201 0.93327856 1.8863767 -1.2754211 0.07767357 -1.0248919
website -2.8553998 -3.3823864 -0.25349492 3.4260473 -0.21167064 0.4125666 1.6547431 -1.7762632 -1.5513717 0.70914656
owners 1.1573355 -2.5322096 -1.8424108 -1.0308344 -0.33673555 1.7576805 0.19857328 -2.0267494 0.20976867 0.29879448
anyway -0.5096749 -3.009902 0.22560132 -0.1453468 -1.3828971 0.6592478 -0.5036161 -4.428384 0.03813091 1.1332304
enjoyable 0.030325461 -0.248023 -0.15692228 0.44244355 2.6277788 1.3331361 0.5891914 -1.0057073 -0.46226954 0.084798045
paid -2.089585 -3.1148183 -0.15725444 1.238834 -1.2893475 0.87481797 -1.8527509 -2.2981997 1.1633446 -1.4781708
im 0.062927775 -1.9477173 -0.2774171 1.2681477 -0.96118325 0.65431154 -0.18595569 -0.14867108 -0.3229633 -1.3766626
manager -0.53273696 -2.504464 -0.3066878 0.81121635 -1.0771987 -0.27832156 0.19441266 -0.7904054 0.7320899 -0.2874184
nearly -0.28763378 -0.7362289 0.80712 -0.11715212 -0.47599635 2.3490415 0.57600546 -2.1162026 -1.2588518 -0.25452211
bunch -0.60313696 -1.0376576 -0.29800287 0.43052724 0.17762172 1.225715 -1.1525804 -0.5673197 -0.085249014 0.13878311
conclusion 1.2346433 -2.0476463 -0.37976173 0.094109096 0.16417731 2.2306356 0.31531623 -4.084782 2.9653404 -1.7304238
thoroughly -1.150795 -1.0441346 0.95600086 -2.1375618 2.2475128 1.6306323 3.6172693 -2.7828496 -0.19790332 -0.41361943
gone -1.3286116 -3.4712667 2.0034075 -1.7083069 -0.98822725 1.1653199 -1.9713922 -1.0495453 -0.94053614 -0.9491479
expensive -0.7727874 -0.60218304 -0.13161533 0.093238786 0.7605752 0.6067722 1.2641107 -1.2058603 -1.5669334 -0.07751627
boyfriend -1.0636518 -1.6537086 -0.53880316 0.055703577 -1.0042957 0.69527566 0.7376965 -0.4092281 0.36992458 -1.4378188
palm 0.8208178 -1.2119305 -0.24528569 0.26627535 0.19224559 1.8195734 1.1804106 -0.35121742 -1.0491725 -3.181064
disgusting -0.4583792 -1.9208815 -0.31173298 0.36797202 0.9613979 1.3897781 1.1940525 1.2307751 0.22612143 0.0044712224
complete -0.9120067 -0.88335985 1.2611895 1.7006477 1.0833256 0.41500053 -0.29096475 -3.7324166 0.34730405 0.1152304
fairly 0.59119636 -1.1057749 -0.5745353 -0.11843362 -0.40724227 1.9062198 0.42764455 -0.5278146 0.6887833 -1.3271272
crisp 1.1104263 -2.7524307 -1.1703215 -0.73643935 1.7755244 0.6759857 1.3624996 0.9419592 -1.4642099 0.2261751
guy -0.17187302 -2.3713098 0.7410436 -0.32630196 -0.6024153 -0.3748695 -0.69083714 -0.5082769 -0.23463583 0.56198895
vibe 0.15784734 -2.750607 -0.26514003 -1.1460742 -0.9197672 0.2760823 0.2051933 -2.3922403 -0.5375837 0.8438592
greatest 0.6037232 -2.0220938 1.6950495 -1.2179846 -1.0820743 1.0541066 1.6521394 -1.476603 0.705996 -0.40174767
somewhat -0.37305042 -1.028965 0.7095369 -0.03891866 1.3968695 -1.3879502 1.531283 -1.51004 -0.8986455 -1.1065111
italian 0.43428108 -3.5609455 -1.0198473 -3.6149044 0.49342638 1.2711521 0.4788046 -0.6576379 0.8188561 -0.60545474
gem -1.6242702 -0.9200319 -0.38470322 0.9019876 3.399798 1.6354334 0.47189054 -0.056361414 -0.42345577 0.4469296
chinese 1.6118666 -5.8401914 0.16267565 -0.74671286 -0.98677796 0.3199928 -3.5708756 -1.398425 -2.4335287 -1.9513375
main 1.5618203 -2.3254285 0.011106349 1.3332765 0.25574967 0.5340609 0.17107172 -0.49474564 1.495919 -0.112683125
crowd -0.66434824 -2.2927816 0.74143505 0.4912157 0.79075956 0.067349195 -0.20844735 0.3769904 1.2273705 0.6930899
thats 1.0755787 -3.9830523 -1.1685919 0.65663457 -0.09644398 0.49345446 -0.52948517 0.61870694 -2.2318733 -0.9545632
market -0.7912748 -1.971472 1.5612686 1.279371 -1.0257258 0.81931514 -0.084247485 -0.5966513 -1.3776189 0.16524436
likes 1.5491837 -1.3343389 0.6817772 -0.21834628 0.6858193 -0.37009248 0.33941218 -0.9744431 0.38655972 -2.188538
words -0.3149748 -1.3291614 1.016723 -0.508506 0.7025319 0.7325638 0.65733033 0.7644983 0.011828361 -0.09437418
crazy -0.738151 -3.073474 -0.12630518 0.5242628 0.6996691 0.5113665 0.23921119 0.29212835 0.61747354 2.1034782
head -1.8894796 -2.2666893 2.2094398 0.52815264 0.27450317 0.97715193 -1.3529227 0.48600847 -0.4425611 -0.59811205
hated -0.009990416 -1.2199455 -1.2708504 0.7181479 0.413923 1.9687371 0.2856594 0.058549877 0.2556319 -0.9904919
appealing 1.3423207 -0.70959514 0.68416715 -0.9303176 0.4519133 2.2529929 0.3123564 -0.9663173 -0.44085598 -1.5274699
weird 0.38291407 -2.253988 -0.31338695 -0.7306784 0.56109756 1.1133924 -0.26451814 -0.8010181 0.21733317 1.8824441
killer -1.2758892 -3.065476 1.5929084 1.6235061 -0.8684387 0.0023168514 1.8800722 0.35920843 1.2261835 -0.74311864
thinking -1.0978538 -1.8967485 0.20072594 1.8742102 1.1402147 0.22467315 -1.1260779 -1.1521802 2.025316 -0.66329646
christmas 0.19940926 -1.0931923 1.7148733 -0.62427115 0.50073063 -0.23099801 1.3873887 -2.1054456 0.45653954 -0.26564804
remember -0.10438464 -0.8758348 2.2552655 -0.8080784 1.1222502 -0.4422371 0.12802617 -1.8676602 -0.15393828 -0.67160845
gotten -1.2800289 -2.035506 0.6834433 -0.60666454 -0.28909189 0.62082916 -2.283635 -2.1918838 -0.6994868 -0.69032556
young 0.0796882 -2.5572705 2.7165484 0.94389427 2.8707645 -1.2229924 2.3970895 -1.5413787 0.6770742 0.7487154
song -1.9129572 -1.8028946 1.643384 0.36330858 1.2201817 -0.24407305 -0.20193776 -0.76742285 -0.4122147 1.1840224
clearly 0.22842966 -1.9747738 1.0858968 1.1191752 0.38602 -0.69226164 -0.67856044 -0.22295141 0.71226555 -0.67026633
tale -0.6358484 -2.2903779 1.8559813 -1.3182939 0.88507366 0.34246248 2.7637591 -0.24633388 0.3073122 0.37680104
true 0.4737628 -1.8772117 0.5973575 -1.6106902 4.267802 1.4832114 0.20886654 -1.3637832 2.9913824 -0.4352496
yes -0.52524114 -0.98119146 0.91806656 0.7502214 1.0089147 1.8659638 -2.0302892 -0.43653777 -1.043866 -0.97174215
th 1.0445161 -0.9592747 -0.2985435 1.4727199 1.0623521 1.3579364 1.3683069 -0.7988945 0.31209671 0.0580486
rocks 0.9343983 -1.77625 0.10572018 0.3284642 1.534539 0.41739374 -0.72472864 0.46057644 -1.7814124 -0.8656333
pg 0.12781985 -1.15721 2.6791384 2.2546363 1.6372844 1.502895 -1.6569432 -3.6651437 0.8586204 -1.7133173
addition 1.1028943 -1.9471536 -0.06488105 -0.329265 1.3869768 0.15359281 -1.687409 -0.38209388 -0.38980076 0.03396079
convincing 1.1338725 -0.64492166 1.7881141 -0.14356782 4.0407453 2.1180816 0.07919245 -1.0693057 0.31685284 -0.80313563
follow -1.2489038 -1.2144293 0.29424724 0.35139033 1.5204042 1.537916 -0.41136602 0.71694833 -0.5215465 0.27281857
energy 0.22171944 -0.9289738 0.60347825 0.25633222 0.8046525 1.9738213 -0.88330305 0.28468043 -0.498678 -0.21076292
pretentious -0.54037946 -4.0832677 0.07996851 2.873392 0.7399902 4.8581376 -1.9938823 -1.1343188 2.1698842 1.2034273
