4927 44
good 0.1996866 -0.07850756 -0.7117371 0.39126155 0.49228635 -0.0750073 -0.15690032 -0.19928037 -0.18574196 0.4221016 0.30920306 -0.29456615 0.18748134 0.41285706 -0.48135957 -0.34523985 -0.13652328 -0.012438698 0.6561418 -0.112535045 -0.1359985 0.26424143 -0.703376 0.21851452 0.038332988 -0.2855572 0.33317593 -0.23570247 0.3118638 0.12660925 -0.23926646 0.017604688 -0.3459007 0.50414544 0.12630066 -0.16374545 0.03649831 -0.028467907 -0.023996362 -0.08345184 0.11693307 -0.15071525 -0.19390482 0.2958961
great 0.32240012 -0.34226754 -0.49063447 -0.31037393 0.14215766 0.048801225 0.9196745 -0.06721908 -0.57886934 -0.076358564 0.60886586 -0.44841933 0.34872693 0.1982101 -0.5658605 0.2270463 -0.7187474 0.27273908 -0.07575664 -0.30467978 0.56268424 0.014775919 -0.5561274 -0.20204179 0.5142128 0.02556767 0.44675198 -0.03539738 -0.04644687 0.23902526 -0.3525415 0.40210596 -0.159898 0.5660484 -0.07904521 -0.30843446 0.38176697 -0.012216918 0.09915305 0.15032472 -0.00268784 -0.41152933 -0.5497387 0.28650352
movie 0.5169056 0.1445912 0.6258569 0.05739577 0.66458714 1.1963122 -0.7696825 -1.2945726 -0.055526488 -0.4748698 -0.085080534 -0.48481765 -0.22313309 -0.23582411 0.28316236 0.05598435 -0.8601299 0.38083336 0.7570328 0.17635703 -0.2071431 -0.030482464 -0.81249136 0.13048024 0.15067843 0.8649261 -0.42380142 -0.024351476 0.3696996 -0.36857423 0.20872498 -0.33037606 -1.0065062 0.5300941 -0.75310075 0.50111985 0.21426158 0.24905999 -0.034752052 -0.2727381 0.2539045 -0.3171382 0.595066 -0.3897178
phone 1.1220152 0.021981992 0.253836 0.5703928 -0.2342495 0.41391864 0.03105218 -0.21990152 -0.3958967 -0.7958831 0.6850634 -0.56724995 -0.04327966 0.893189 0.14869417 0.29398602 -1.3678566 0.28199908 0.101532176 -0.2668615 -0.29190332 0.91205734 -0.1247411 0.008651997 0.026331216 0.14248441 0.29833692 0.46655923 0.61236376 0.07626202 -0.46824378 -0.338369 -0.67194766 -0.16852881 -1.3192135 0.6586886 -1.1758202 0.5988351 0.36703274 0.17220157 0.3656559 -0.4423146 0.051486634 0.13792913
film 0.34055233 0.47913575 0.49091044 -0.57652456 0.92397577 1.0712476 -0.40704688 -0.64359474 -0.5776676 0.1640052 0.22483528 -0.5699533 -0.4862721 0.59341055 -0.10987874 0.089987904 -0.926237 0.03768611 0.65236735 0.15317494 0.20922856 -0.3304375 -0.5916665 0.014037239 -0.7244891 0.5422017 0.75134355 0.32663238 0.87910265 -0.08636366 0.10074231 -0.13607812 -1.0331343 -0.4479046 -0.33689842 0.8490167 -0.16826731 0.21463709 0.006276165 -0.2487316 0.2667776 -0.40526637 0.08502127 0.079280235
one -0.1762319 0.12789406 0.4424561 -0.3615346 -0.05238072 0.713205 -0.14341296 -0.361908 0.34294558 -0.24191949 -0.24407178 0.12127615 0.12596239 0.5766411 -0.08652314 0.28797424 -0.5487075 -0.06862455 0.46161842 -0.18912244 0.1468952 0.1443346 0.07598969 0.22995156 -0.49680582 0.6019281 0.23624533 0.59021086 0.68529636 -0.19232248 -0.6183856 0.29374582 -0.62917864 0.42021227 -0.13728791 -0.008664856 -0.044817094 0.11123284 -0.39821798 0.36015496 -0.06593378 -0.36711273 -0.48421815 -0.21513203
food -0.3983456 0.14911793 -1.1610727 0.16923082 0.24408215 0.61790645 -0.09108473 -1.2958517 -0.11241161 -0.6076752 -0.6220962 -0.06628988 -0.12310563 0.110646546 -0.06352239 0.43475717 -0.64527047 0.3078708 0.4836146 -0.44348562 -0.38782838 0.19530289 -1.5412377 0.051162586 0.24797636 0.13158183 0.07373555 0.8247562 0.23506029 -0.35026193 -0.11949329 0.44790354 -1.2024387 -0.46524432 -0.47002953 -0.3127428 0.119586766 0.654764 -0.40506822 0.875383 0.87279075 0.20753886 -0.3466164 0.79691756
like 0.1957297 -0.4325049 0.1521559 0.6582089 -0.069148816 -0.23190819 -0.40549314 -0.6598719 -0.8107902 -0.007847374 0.089656204 0.16894482 0.12743032 -0.12267343 -0.35194087 -0.09848473 -0.21378596 0.053579062 1.0888408 -0.21463174 0.6615764 0.039035864 0.28966546 -0.07020134 0.5365726 -0.32993746 0.16719896 0.20779654 0.3304448 -0.8571998 0.12187117 0.7445505 -0.026530134 -0.046122085 -0.090060875 0.22812842 -0.29334536 0.091168724 -0.21401158 0.052200798 -0.12003674 -0.7915882 0.1078428 -0.11045099
place 0.12861021 -0.39439625 -0.49805436 -0.1269847 0.27675503 0.86700517 -0.49963203 -0.88576156 -0.7212336 -0.3503941 -0.17935087 0.105796285 0.3544262 0.59013903 -0.04885094 0.8262211 -0.5168173 0.42739874 0.23510942 -0.47235283 0.035701863 0.5580965 -0.44150242 0.0487126 0.23322457 -0.10894243 -0.1721837 1.2803272 0.045911442 0.6191767 -0.23477681 0.12060484 -1.2098435 -0.8287778 -0.3402889 0.052036375 0.4248745 0.42435068 -0.6718902 0.22476874 1.2302594 -0.47226927 0.30243516 0.56087184
time 0.11943912 -0.17318988 0.2708641 0.19888347 0.42865306 0.20626107 -0.088701315 -0.5894401 0.25034964 0.33704817 0.114465624 -0.38347158 0.7976637 0.68169725 -0.4883242 0.5061768 -0.12168618 0.14495547 0.32917017 0.001664076 0.32204798 -0.113008015 -0.87914044 0.12501636 0.40993145 -0.42058003 0.105663724 0.58646446 0.3262126 -0.12550758 0.4079971 0.62767684 -0.576027 -0.2330413 -0.20043409 -0.033829715 -0.24682313 -0.2389296 0.26320356 -0.4450616 -0.40944347 -0.017241275 -0.20928629 -0.25129208
service 0.43191653 -0.9198056 -1.1957837 -0.051809072 0.41359383 0.09539769 0.4192467 -1.4025502 -0.037876334 -0.62758857 -0.28571954 -0.048861302 0.045734555 0.3564374 0.62308496 0.37025964 -1.1768993 0.13557455 1.1228347 -0.6805619 0.0012546169 0.34136003 -1.5058086 0.02129002 0.0777839 0.32415622 -0.18208022 0.51824665 0.35095668 0.06887273 -0.26238054 -0.061000083 -1.1043533 0.09810959 -1.2041248 -0.3733907 0.7738628 0.677386 -0.43624058 0.8705323 1.0389425 0.3680589 0.20950809 0.4100337
bad 0.23778489 -0.37779278 -0.3515468 0.7673513 0.4334966 0.31584027 -0.070492364 -0.84050566 0.45534617 -0.017897815 0.48899242 -0.50760716 -0.07087501 0.4632406 0.46194717 -0.18196355 -0.6508259 0.3963027 0.8553038 -0.10329292 0.81443775 0.32486865 -0.4943607 -0.5012064 -0.68526024 -0.8521864 -0.4026368 -0.20763129 0.132738 -0.33076096 0.10530587 0.5255666 -0.5871625 0.30813438 0.36943474 0.8545887 -0.03360789 0.21001922 -0.20220461 -0.10581715 0.34859636 -0.06165437 -0.5455746 -0.19712526
really 0.7924966 -0.54620457 -0.6446899 -0.042786438 0.6743109 0.75405383 0.3821532 -0.68657917 -0.257325 -0.051928937 0.22033648 -0.45496318 0.037534066 0.79724663 -0.05425433 -0.2742886 -0.7047189 0.06455537 0.6521802 -0.21754779 0.12362486 0.3695811 -0.46844563 0.290144 0.15197271 -0.3691889 0.15641956 0.18105218 -0.49792424 -0.509576 -0.044846933 -0.56147605 -0.30252454 0.053481102 0.53567994 0.04232216 0.49991214 -0.28999496 -0.7631255 0.6705898 0.16103879 -0.56502676 -0.5269101 -0.24027842
well -0.55021024 -0.616921 -0.31110832 0.45863453 0.17841505 0.011457786 0.55402243 -0.4879943 -0.41219568 -0.9052258 0.048342954 0.0637981 0.14998353 1.1378708 -1.0132928 0.7743004 -0.5588284 0.40461275 1.1209986 -0.13752927 0.8586054 0.03943209 0.16778061 1.4824703 -1.5228322 0.22281699 -0.6267236 -1.0347458 -0.5034142 -0.74975824 -0.77830696 -0.47497723 -0.61031675 0.661905 -0.5075233 -0.0069871135 -0.16826749 -1.3595816 0.17485909 -0.36294517 0.6290069 -0.38558054 -0.21023755 0.04995577
would 0.26648393 -0.915015 0.3908625 0.17318809 0.2772633 -0.28986004 -0.43117243 0.39148623 -0.9014796 -0.5701961 0.24975076 -0.08808207 0.7808192 1.436656 -0.24016327 1.0085101 -0.791809 0.0501832 0.75612986 0.009418831 1.4802762 0.22375186 -0.19608842 -0.26944882 0.21106729 -0.46366856 -0.14723901 -0.089686394 0.95452875 0.15406501 0.053527758 -0.08027685 -0.80696523 0.22771399 0.24860613 0.8291844 1.4001694 0.9806362 -0.12720162 0.59444475 0.28310066 -0.5563479 0.29875684 0.49729666
best 0.00059171993 -0.9411069 -0.68428844 0.39820886 -1.2494506 0.17741899 -0.9323776 0.79171145 0.6143635 0.76322734 0.27353817 0.45193547 0.48713532 0.124755315 -1.6440283 -0.27150682 -0.3074607 0.9531308 1.4003667 -1.1677694 1.9009649 -0.37086427 -0.47994083 -0.3345529 0.44395247 0.50350875 0.39581683 -0.003031144 -0.2719191 0.43423244 0.074041374 0.92810744 -1.1269672 0.63437366 -0.3396102 0.6353752 -0.32838774 0.3794365 -0.95679355 -0.14265317 0.70141906 -0.5041592 -0.56740844 -0.3272016
even 0.47804242 -0.40219307 -0.5073856 0.82839704 0.057864513 0.050531976 0.10213059 -0.9686424 0.09158048 0.35209924 -0.3665626 0.06560138 -0.2516719 0.77003324 0.33295557 -0.38369593 -0.17417377 -0.5244642 -0.3446876 0.14784445 1.1824387 -0.20799105 -0.8039306 0.34747463 -0.85297173 0.35113573 0.0676566 0.22659343 0.7831893 0.31182268 -0.7364742 1.3695867 -0.4902864 1.0518465 -0.28767133 -0.31147254 -0.33011886 0.7047761 0.09201114 0.26099727 0.64409167 -0.74286556 -0.6235523 -0.25127962
ever 1.1702332 -0.8501652 0.36940795 -0.24569182 -1.1096584 1.0493145 0.6989788 -0.011429715 0.6054397 -0.17424268 -0.33300328 1.0280777 0.61424536 0.41263676 -0.42297697 0.866992 0.16173878 -0.020317921 1.0354991 0.05828345 1.1416212 -0.62104505 -0.7170895 0.16641779 0.4347042 0.11320689 0.5908825 -0.63855594 0.08331455 -0.4859326 0.1901458 0.36466658 0.14540356 1.0938706 -0.62383896 0.33354062 -0.08435461 0.50962234 -0.8998321 0.24495983 0.61619556 -0.40186825 -0.7534025 0.9918459
also 0.62544745 -1.1651967 -0.91796505 0.1735178 0.62673926 -0.39761072 0.29827318 -0.5025702 0.06972702 0.23884927 1.4238485 -0.09810944 0.33928823 1.1504395 0.01318615 -0.15645546 0.18772875 0.6431527 0.036216233 -0.91860074 0.2026622 0.26659086 0.041308742 -0.4037908 -0.42934528 1.1877054 0.16310018 0.36198193 1.2149333 -1.9793613 0.6646115 0.013425644 -0.26024854 1.5989213 -0.58795685 0.8521448 0.5368387 0.2647168 -0.2848631 -1.5669655 0.19638923 -0.20975445 -0.29998153 1.3218359
back 0.1112695 -1.9312972 -0.85140955 0.8286948 -0.2938103 0.19666862 0.036886632 -1.9088935 -1.5106505 -0.36900884 -0.0017355699 0.403846 1.1556151 -0.15504666 0.3105483 2.2027009 0.33234438 -0.17759001 0.042713813 0.75043744 0.71441483 1.6688398 -1.3696246 0.3911839 0.31422484 -0.06562544 -0.36667973 1.830755 1.1760398 -0.5908605 0.22720064 -0.5920815 -0.7712927 0.5306664 -0.15823981 0.2549408 -0.22843145 2.288871 -0.5124404 -0.7085259 0.35374334 -0.12145844 0.03579309 0.6869318
quality -0.9349083 -1.9267143 -0.38693607 0.4478311 0.93371844 0.7303273 -0.2999234 -0.8721233 -0.47856057 -0.17696042 -0.3993514 -0.42766622 0.8726494 1.2583797 -0.6533811 -1.1851966 -0.7557655 -0.4904253 -0.03830354 -0.4191314 1.331834 0.18322544 -0.31204706 0.38346395 0.8576606 0.23771805 0.49919665 -0.6124843 -0.6550643 0.6496965 -0.9107639 -0.31810507 -0.5965712 -0.067050025 -1.0978975 -0.3536935 0.6686498 -0.10236971 1.5213437 -0.004257808 0.46657223 0.5233661 -1.2402871 -0.04800265
go 0.32046595 -0.5612468 1.1177486 -0.391755 0.09557569 0.40079746 0.33726832 -0.12361423 -0.9933148 -1.0264424 -0.7945844 0.28978384 0.8827358 0.7158264 0.20410046 0.1491574 -0.05473545 0.6649976 0.27826867 -0.3073166 0.33850253 1.2574146 -1.6400378 -0.7252294 -0.04347575 -1.0709848 -0.17267358 0.5098093 0.4494265 -0.16214791 -0.8627727 -0.045358643 -0.84764993 0.4637497 -0.06185224 -1.0258611 -0.15308888 1.2997708 -1.4168981 -0.14022607 1.0606803 0.21765505 -0.037917864 -0.006105446
love 1.3085074 -1.0564979 -0.16824609 -0.6610523 0.9191154 -0.55483514 -1.1503011 -1.1606328 0.19272721 0.39630297 -0.64544207 0.62554795 1.2685175 0.8550241 -0.1893085 -1.4581548 0.2602786 0.963719 -0.2425118 0.29306373 1.5217819 2.6845329 -0.5058683 -0.56441575 0.061959893 0.13740134 0.16597167 -1.4368408 0.31848076 -0.86781394 -0.1370432 -0.3273749 -0.91269964 0.11085122 1.0911592 -0.20758617 -0.8688732 0.97166276 0.085201174 -0.0031933568 -0.34192216 -1.5090814 -1.6883353 -0.02699931
made 0.8852941 0.26458812 1.036528 0.19353545 -0.31816813 0.25392884 0.100131 -0.35401908 -0.34440196 0.22657874 0.95785445 0.39934668 0.54543704 0.45216656 0.054206535 -1.2808666 -0.7922931 0.4893514 1.3103622 0.23832884 1.6071564 0.19582796 0.44282082 0.8561566 -0.19584191 -0.32225302 0.03031048 -0.38060817 -0.30769193 -1.2635187 0.07920199 1.032839 -1.7874758 -0.4046927 -1.3743689 -1.3488454 0.79816395 0.049665414 0.051926963 -0.6544263 0.93521315 0.5250582 -1.23373 1.2914724
work 1.1543335 0.26095343 0.6821017 1.5900393 -0.47133097 0.48349485 -0.031322904 -1.0739325 -1.0029024 0.045832977 0.47481325 0.6154765 -0.60318583 1.0775565 -0.80087227 1.3840754 -0.5258764 -0.5676935 0.34596264 -1.5451266 -0.073379464 0.46644175 0.7750227 -0.1284433 0.43196297 0.13251926 0.40060705 -0.3183733 0.56528854 -0.9937085 -0.14267772 -1.0215118 -0.54298526 1.2639982 0.38351873 0.5447821 0.35577115 -1.0998076 -1.0053555 0.5057884 0.5244576 -0.78176576 -1.2237049 -0.31219387
product 0.13033038 -0.4447201 0.19693828 0.7753011 1.2294947 1.1661246 0.12335138 0.14842245 -1.7666115 -0.59497195 0.52970815 -0.5975691 1.135438 1.4914969 0.41055605 0.36776698 -1.001875 0.5439553 1.3517462 -0.6399609 -0.44888693 1.0786487 -0.7256514 0.37358236 0.01786332 0.4537169 0.29844823 0.05941416 0.18471949 0.52480674 0.51148564 -0.4927342 -2.227672 -0.3372287 -1.5623451 -0.9483364 -0.20620054 0.74693424 -0.91536707 0.12134698 0.81062263 -0.55894476 0.92164433 0.13912328
get 0.69988406 0.17090556 -0.3319028 0.46994382 0.70644194 -0.35891837 0.25111085 -1.04105 -0.051400963 0.18567951 -2.0911658 1.299903 -0.9351665 -0.2230151 -0.6263386 0.7679747 -1.9087323 0.76801133 -0.64502186 0.04613941 1.2905751 1.0778533 -0.6175118 0.029932503 1.4827183 -2.8173378 -0.13610403 0.31135875 1.5093052 -0.14292295 0.022023309 -1.0356954 -0.4289424 0.97531426 0.0007970754 0.8825393 -0.38497496 0.5648239 0.4108789 0.18232547 -0.2998889 0.40184706 -0.28034914 -0.25350222
could -0.31268218 -0.19752946 -0.13320637 0.0713272 0.7874989 1.1847612 1.0620798 -0.80917954 -1.0695065 -0.48852843 -1.7930664 0.49118346 0.7985983 1.7139614 -0.9908832 -0.88268334 -0.16181408 0.36781752 0.7657619 0.22929959 1.6014822 -0.14773555 0.01900931 -0.06300112 0.43223542 0.32891697 -1.5263191 1.2303807 0.7448385 -0.7824882 1.0700451 -0.27774125 -1.345256 0.79417926 -0.8040446 -0.38023502 0.47970816 0.40771088 -0.52180785 -0.7930046 -0.30011025 -0.19524288 0.020304507 -0.2006659
nice 1.7223582 -1.7555676 -0.23813125 0.5607161 1.4720795 -1.2758216 0.046873037 -1.2435827 -0.53293896 0.58358055 0.8029377 1.0769603 1.7751921 1.2824433 -0.37810156 0.6389559 -1.4915347 0.76970834 -0.37897098 -0.33118546 -0.47156322 -0.93544996 -0.83004874 0.4945174 0.44569764 -0.28253663 1.7149603 -0.5224561 0.1327834 -0.82573825 -0.14150047 1.1576371 -0.3912384 0.06822808 -0.9925309 -0.25933218 0.3145592 -0.37903568 0.6109361 1.2912458 -0.0100657195 -0.88252985 -1.3900231 0.15538411
better 0.30511725 0.3688106 -0.166152 -0.17870717 0.59445506 -0.5806054 -0.30307144 -0.7495799 -1.0992713 -0.29647064 -0.28911373 -0.19032046 0.023205847 1.2018958 0.04740226 -0.27051297 -0.098037 -0.90429246 1.4555085 -0.79826427 1.8560128 0.17011426 -0.5921049 -0.04930746 1.9150512 0.101989165 0.15226151 -0.17282514 -0.5531345 -0.0500766 -0.62410027 0.20023112 -1.6342857 1.4465041 0.73454565 0.8532282 -1.306408 0.6262553 -0.5207541 0.7189862 0.9602207 0.7775776 -0.68100893 -0.07953797
excellent -0.9803756 -0.7782085 0.22796993 -1.3030187 0.5991622 -0.2414662 0.86991435 -0.3901007 0.114566535 0.2070218 1.270863 -0.28592786 1.0050483 1.3806878 -0.4333118 -0.18978457 -2.5587173 -0.90721506 2.0482662 -1.996605 -0.8681348 0.29119518 -0.52224743 0.53497994 0.3348685 0.049707282 0.67337006 -1.243065 -0.5247974 -1.2823223 0.9979192 -1.5136642 -0.724975 0.8932701 -0.22748336 0.92059904 0.5737242 0.5530817 1.2977219 1.2465283 0.6513741 0.40267816 -0.22461002 0.07934792
works 0.36814004 0.05231718 1.7489183 -0.51816803 0.309249 -0.79006857 0.058479343 0.12617561 -1.5836866 -2.0175128 2.2455153 0.23371047 0.7095635 1.7194763 -1.245411 0.4942132 -0.81820923 -0.30684647 0.7339461 -0.47288126 0.8624113 -0.17554522 -2.1769323 0.27012503 1.0956683 1.0459008 1.0743576 -0.9161804 0.3910385 -0.31419164 -0.73784715 -0.12075846 0.044068236 0.9255022 -0.68030924 -0.92969716 -0.63405514 -0.6747475 -0.026701245 -0.8513919 -0.41302142 -0.28566027 -1.0657613 0.09106489
never -0.4757884 -1.0934396 -0.26918754 0.09200367 -1.2091869 1.0929033 -0.86084825 -1.7965953 0.32392973 -0.31062755 0.022786489 0.69358975 0.93223274 1.3476429 -0.20647116 -0.11698231 -0.8229854 -0.5529143 0.42823142 1.0677996 1.2949008 0.703007 -1.3064547 0.14343652 0.25344813 -1.5662603 -0.0727706 0.26484445 0.11145355 -2.166433 -0.5321158 -1.577797 0.6289348 0.5820434 -0.6075103 0.53052866 -0.032031868 -0.2181014 -1.755702 0.31809577 1.6124856 -0.6749465 -0.16793445 1.1448975
much 0.033124246 -1.5875837 -0.30344462 -0.5737577 0.26277328 -0.3085471 0.41091585 -1.2394483 -0.9048242 0.52291816 0.1449586 -0.3458042 -0.24941127 1.6720093 -1.2546291 -0.35503697 0.21411471 -0.5727665 0.51327395 0.0014389436 0.53560144 0.06850138 -0.28115466 -0.36554882 0.7856919 -0.13005282 0.31480068 -0.27373788 0.39959165 -0.115795165 -0.709045 -0.23683421 -0.6179573 0.05459508 -0.135492 0.24943373 -0.101857744 0.039494943 -1.2351234 0.11574483 -0.013540303 -0.008955328 0.036181483 -0.42126432
sound -0.25808454 -0.8935282 0.38767838 0.19068831 -0.13569188 0.45278177 0.14724648 -0.4899644 -0.5277027 -0.23283897 -0.3660699 1.116719 0.26315308 1.3385488 1.046579 -0.5450966 -0.9871393 -1.4329435 -0.12490611 -0.42915413 0.63056797 0.6056403 0.08192238 -0.40773603 1.1831483 0.27246332 0.62957585 -0.32966772 -0.9972024 -0.021641929 -0.15229239 -0.3911555 -0.8382911 0.25172403 -1.4583701 0.29881313 0.5433364 0.5174468 1.2887037 -0.15749247 0.50152445 -0.9418694 -0.38728797 -0.8791783
recommend 0.22859795 -0.7603361 0.70018417 -0.6284079 0.41836065 0.37330323 -0.29991403 -1.8418489 -0.38443005 -1.5884026 0.22825576 0.28608957 2.0914812 1.8986397 -0.7700095 0.7374715 -1.3117614 -0.34393522 0.07374794 0.05713605 0.07261689 0.58111066 0.10588868 -0.16975315 -0.19961213 -0.43837246 0.2930804 -0.16982628 -1.9283166 -1.2227228 0.63148713 0.40274474 -0.91887015 2.7403188 1.1029518 0.16551258 0.46789032 1.3167789 -0.07738549 -0.05228851 -0.26886064 -1.0682623 -1.0595684 1.3600935
use -0.8650084 -0.6395456 -0.7651328 0.76535577 0.09606058 0.31984776 0.68903214 -0.3842215 -0.91848546 -0.67368865 -0.16660854 0.7433517 1.302889 0.7574569 -1.1186317 -0.55040324 -1.2375079 1.0683109 -0.5978711 -1.5120432 0.6259838 1.0669782 0.24981415 -0.91648686 0.08983258 1.1488034 -0.14231083 -0.5391486 -0.36323822 -1.5877417 0.35109577 1.4945606 -1.0250456 1.2248225 0.16065846 0.4504096 -1.5622133 0.7223627 0.9608191 1.227988 0.42984027 -0.8032005 0.92084724 -0.81419015
headset 0.71753 1.0209337 -0.33127865 0.25244626 0.51280725 1.6049837 0.17207657 -0.20666632 0.020029368 -0.7455411 0.41093338 0.84930634 0.27047476 1.8366125 -0.8562258 0.80771637 -1.9408785 -0.37550688 0.35092983 -0.050138563 1.2971418 2.1214857 -0.18659186 1.2090179 0.598691 0.66555876 0.46569872 0.03829108 0.2678724 0.84341466 -0.7232558 -0.7841573 -2.0683453 0.36386698 -1.893685 0.5062927 -0.3901288 0.9225413 0.5745332 0.36610088 -0.8904019 -0.17666015 0.09285535 -0.9769007
first -0.17259228 -0.4057958 1.3066175 0.74371684 -0.17573528 0.25061694 -0.41667917 -0.520018 0.78520995 0.80092806 0.37830576 1.1687961 0.8055277 1.668329 1.2533504 2.223252 -0.7432498 1.816839 1.8550898 0.20399684 -0.45376152 0.9225515 0.26594383 1.1548755 1.3471501 -1.4276032 1.1797247 1.3883823 -0.74742615 -0.48641795 0.53055966 0.5963009 -0.5983252 2.2759335 -0.14081754 0.75643307 0.4676662 0.126617 1.5263927 -1.498222 1.7365764 0.47414097 0.20656897 -0.24422637
think -0.5578469 -0.5336083 0.5014536 -0.41122767 -0.8830609 0.42204723 0.4256299 -0.8893554 -1.0505978 -0.06103685 -0.24754025 -0.23156568 0.23560363 0.14331965 -0.4052423 0.3626418 -0.09536978 0.65018255 0.1478006 -0.42473006 1.1542504 -0.400214 -0.5352504 1.0765601 0.70114076 -0.34074262 1.420775 0.027351687 0.14004731 -0.052619733 0.44450006 -0.5904647 -1.7487211 -0.20529756 -0.28877547 1.257507 0.48981476 1.3512222 -0.24349193 0.0023919027 1.0184036 0.39874157 -0.09682332 -1.0517021
battery -0.3007677 -0.7327683 -0.09880282 0.7866802 0.51242137 0.4850592 0.51908857 -1.1806626 -0.6208852 -1.1190969 1.0320365 1.2455413 -0.20478101 1.112593 1.0180396 0.69719666 -0.5866301 -0.59710294 -0.21631554 -0.27107593 1.5092702 1.911175 -1.5514872 1.472231 0.028563464 -0.50963545 0.7174187 -0.40927833 -0.1514397 0.15256312 2.0302196 -1.734502 -1.3742856 0.7715834 -1.8147582 -0.48159724 -1.7831863 -0.618674 2.5827813 0.4331963 -0.2289555 0.09523612 0.81162995 1.9481434
way -0.3551341 0.44111446 -0.54228145 0.09700005 -0.98491746 2.2179036 0.26548424 -0.8460856 -0.6579348 -1.5716956 0.2733466 1.1088254 -1.5385783 2.0617702 -0.17955254 -0.7014278 -0.11730153 -0.2042571 0.3317543 0.2766021 -0.30574414 0.08400657 0.9137274 -0.08669859 1.6149545 -2.1754131 0.57976884 -1.671769 1.4690213 -0.07420804 0.7056561 1.7813177 -2.3090212 -0.34197086 0.3851932 -0.7510368 1.1663281 -0.23000793 0.076268956 0.15573248 -0.28936467 -0.6614374 -0.045987573 0.28354502
pretty 0.029818403 -1.2555848 0.06821154 0.36958414 1.1916641 0.10849447 -0.60916835 -1.361941 0.33713084 1.8927884 0.1300344 0.62603396 -0.38091263 2.584691 -1.6906292 0.12319684 -0.20540893 1.9060563 1.7089047 -0.18668938 0.13561507 0.7196801 -0.0578514 -1.2692581 0.2001751 -0.52216375 0.23663947 -1.5654457 0.8269528 -1.0041296 -0.19046368 0.034372244 -0.008668922 -0.4025485 -1.1487722 -1.1727498 -0.15190038 0.07050458 1.110892 0.19533795 1.2921528 0.55817056 -0.12953444 1.0596671
see 1.4820138 -1.0880016 0.154805 1.0235896 -0.1598271 0.90671206 -0.614217 -0.052431867 -0.34823853 0.033596653 -0.459386 -0.07546028 1.5113051 -0.35958442 -0.5790482 0.3547742 -1.3583243 0.29694068 -0.88290197 0.896027 1.0041882 -1.6519196 -0.94224393 0.45337522 -0.33063737 -0.95255727 0.70267624 0.76497334 0.8893742 -1.7704257 -0.2695573 -1.5652249 -2.321978 0.93878573 0.1823619 0.06912304 0.7092458 -0.24664311 -0.25561678 -0.90931106 -0.120777905 -0.6811327 -1.3377436 -0.4879707
acting 0.21886799 0.6020809 -0.56346214 2.3607411 1.7167598 0.13324955 -0.4256116 -0.116558805 0.5307728 -0.06864199 -1.5201299 0.4491084 -0.23103036 1.6546954 0.0058045615 -0.019524692 -1.6953384 -1.3915521 1.7476195 -0.6279174 0.34697637 -0.7804689 -1.1963656 -0.36072332 0.35542664 1.2875329 -0.4417327 -1.7102214 0.8703772 -1.3913374 1.9368837 1.136218 -0.5043744 0.1006355 -0.1424385 0.83984154 -0.10205703 -0.28364784 -0.17049597 -0.35403526 0.7113108 0.07138602 -1.1782728 -0.17803659
make -0.8388927 0.42840198 0.13857098 1.1854669 0.5423475 0.46415767 -0.28798735 -1.5125726 1.1778659 -0.33346853 0.00096550875 -0.70709294 -0.065291196 0.41007474 -1.0034195 -0.3825271 -0.5617501 -0.21967901 0.60014874 -0.3689401 0.7460631 -0.4974278 0.8724507 -1.1865597 1.0394844 0.19777358 0.48258615 -0.3640353 1.1163036 -1.1942582 -0.6644759 -1.0124705 -0.84736127 0.77807945 -0.8007522 0.7854984 -0.43018988 1.7306592 0.018566364 -0.43826956 1.0559038 0.021314265 -0.81420046 -0.30419126
worst 0.911244 -2.7561295 1.4586444 -0.88540214 -0.27147073 1.6605374 2.3046603 -0.6278408 1.422366 -0.38383105 -1.193636 0.42633304 0.39815843 0.22061145 -1.0358646 0.47862694 -0.7015823 -0.4367336 2.34159 -1.8275992 1.1945301 -0.24029277 0.49901098 -1.0402611 0.07108445 -1.7739266 -0.3130542 -0.27407458 -0.68155444 0.16064884 -0.4867256 -0.7575771 -1.2621838 0.08867213 -1.2700018 0.3873234 -0.61347795 -0.16833527 -1.0325545 1.1230462 0.106176585 0.07309952 -2.4543705 0.086697936
still -0.41941097 -0.054123264 -0.2789498 0.72941995 -0.4695045 0.08220271 0.8564144 -1.5918939 -0.015599056 -0.64966094 0.6050733 0.36457714 -0.27171618 0.8727752 -0.1805056 0.50840235 0.908438 1.0632399 1.2482647 1.2171264 0.89930665 0.0046509644 -1.3828334 -0.34370646 1.077917 -0.39516118 0.45984116 -0.59614056 0.60369647 0.31363818 -2.0341325 -0.4164028 -1.7083645 1.2692493 -0.48873046 0.82391727 0.08938045 0.078137495 1.1039332 0.041649777 -0.41962865 -2.245114 -1.8432939 1.3698123
got -0.5416943 -0.43361318 0.634628 1.3782232 -0.3675915 1.0298386 0.69191295 -1.6770687 0.43203965 -2.170182 1.5224701 0.90961486 1.6255834 -0.30008927 -0.6887515 -0.83325696 -0.23968475 0.039951682 1.4277474 -0.8798623 -0.0033319313 0.009656005 -1.4403305 1.3430351 0.71721697 -0.5302865 -0.45151377 0.72967005 2.847404 -0.13336292 -0.770461 -1.1936337 0.4785056 1.0338204 0.84650135 -0.0032864998 -0.38685745 -0.10161344 1.2500128 1.040921 1.0328593 0.14490028 -0.69189686 -0.80026823
everything -0.13106653 -0.637457 -0.91379964 -0.2107379 0.9938854 1.1547441 0.5508378 -0.8605787 -1.1255963 0.61504126 -0.29251298 -0.17196822 0.120737724 2.772075 0.53215647 -1.3927449 -2.0305886 1.5705512 0.30538338 0.00674482 -0.21062781 -0.28886297 0.7377007 2.1320558 -0.8867503 -0.5329465 -0.20232767 -0.06264946 0.4760766 -0.64631295 1.4099888 0.5937839 1.3689307 0.37533665 -0.97353923 -1.1458619 0.16665258 0.6345673 -2.3604913 -0.26455873 1.9699169 -1.6105481 -2.42727 0.13565324
say 0.20715421 0.14975686 -0.40702364 1.9160972 -0.14281003 0.18184769 1.385927 -1.334921 0.7509652 0.1396363 0.65837383 0.6837874 -1.0848904 1.6691352 -0.4562449 0.18162447 -0.22708127 1.3671161 0.39208263 1.7124318 0.4046271 1.5035672 -0.13528071 0.33936924 0.28115457 0.0653451 1.6846695 1.3925967 2.05617 0.35963532 1.9459089 0.117466465 -1.0798943 -0.16814147 -0.5797996 0.12588532 -0.08277234 0.28243178 -0.55657226 1.1093342 1.347687 -0.40580603 0.019249698 0.79377604
enough -0.15672435 -1.0096881 0.19668712 2.5886266 2.5029716 0.960726 0.27272066 -0.41173542 0.11269403 -0.36684906 -0.5017384 0.025885576 1.8149205 -0.32243913 -0.49785975 -0.27903786 0.024059031 1.0192789 1.3312715 0.14368051 1.263023 0.77261007 1.1545706 0.04734942 -0.24128641 -1.7226022 0.6704973 0.36916387 0.9481772 -0.8510559 0.5486648 0.16878667 -0.7292369 0.9608726 -0.98196226 1.4503015 0.8168924 0.37183428 1.2481843 0.7646649 1.3945978 -0.8519776 -1.1241424 1.0115702
little -1.4049903 -1.1198531 -1.5456622 0.83921695 -0.90057087 0.7993462 0.16633394 0.62976867 -0.5265953 0.41839725 -1.0869162 0.102745384 -0.07856392 1.2296492 0.69953203 0.9503146 -3.4664466 0.7915422 -0.52575153 2.130632 0.23019755 0.6651982 0.13345104 -0.9261487 1.4153023 -1.138398 2.1142788 -2.1118155 0.9842471 -1.512612 0.7293773 1.8506875 -0.37295562 0.757163 -1.6407733 -0.7258325 1.2696092 1.2289284 -0.16959575 -0.009921043 1.2105258 0.5842462 -0.5346779 -1.1966435
every 1.084763 -0.76574445 0.6684976 1.5939803 0.01759126 1.1349323 1.0670795 -2.900982 0.014720419 0.26446083 -0.9772575 0.9362532 0.7293939 0.32801813 -3.5367534 0.5602758 0.48376137 1.0502185 1.2775902 -0.49794158 -0.72569203 0.55565065 0.65228003 1.0022861 -0.78002316 -1.006882 1.5604486 -1.0272582 0.60319954 -0.9164301 0.33692682 0.3748645 -1.3235799 -0.15496245 -0.38497937 -1.2194513 -0.053479575 1.6984148 -1.6388695 -1.1131308 -0.20552002 -0.5043653 -0.14292039 -1.084297
disappointed -0.0934319 -2.606883 1.0999911 1.9183949 1.0549406 0.43718407 0.60678905 -2.7524664 -1.7395887 -1.2599753 -1.117602 0.937647 -1.0016334 3.1715772 -1.2259271 0.7497605 0.8893989 0.38748896 0.46794814 -0.22557826 0.4173503 -0.2940675 -2.391604 2.1070495 1.967746 0.21562634 -0.49540168 -1.4469055 -0.5236003 -0.076533124 0.99612415 1.5545362 0.46442547 -0.053033512 -0.100474276 0.19045049 1.8001521 0.8221899 0.43687233 0.88615316 0.669362 -0.17489271 -0.07195357 -0.34238005
two -0.016764773 -1.1394147 -0.80504966 -0.25867543 -1.375622 2.033934 1.8514327 0.09640877 0.08336221 0.2148523 0.42652693 -1.0184216 -0.72993004 0.9113428 0.12168031 0.8865613 -0.33783448 -0.6352281 -0.09670646 -1.5010271 1.0861953 -0.4259775 -0.44793603 -0.6137961 -0.555098 -1.024012 1.8456342 0.43074754 0.3468236 -1.4042026 0.47796202 0.6626727 -0.98970735 0.5989029 -0.3067529 -1.261551 -1.102053 1.2747161 0.9714125 -0.45817706 0.36761943 -1.237026 0.110680595 0.12732501
characters -0.8454207 0.5021779 0.9197824 0.68333226 0.23734526 2.6657093 0.4907271 -1.8130853 1.8882896 0.3156335 -0.38903427 -1.0479136 -1.7581365 0.39773762 -1.3148334 0.6933979 -0.2702258 -0.18187869 0.6501145 0.26600915 0.20287445 2.0633123 -1.3188233 0.40019917 -1.1516454 2.2938442 1.8777795 -0.28340447 0.6001868 -2.2506537 -0.08476153 0.9472964 -0.48632264 0.5517124 0.36907056 0.6103488 0.8196809 -0.7259735 0.5668459 -0.8361915 2.1771033 -0.36227453 -0.38200492 0.18980742
ear 0.1182826 -0.768002 0.23341082 -0.8925203 0.88979477 0.40262604 0.44635168 0.13000916 -1.2254725 0.20915857 -0.72436273 2.0169282 -0.24208502 2.0704863 0.80530196 -1.800102 -0.7146107 0.57290554 0.44771436 -0.769814 -0.049057458 -0.402981 1.1414683 0.3408868 0.43139535 -0.90922326 0.12857611 -0.87746084 1.9132661 -0.48669595 -2.507049 -0.82845014 -1.8731942 2.721766 -1.0433894 -0.7685445 -1.054148 0.7411253 0.1392187 -0.69259614 1.3679054 -0.88924634 0.6707949 0.068935625
amazing -0.05252592 -0.4560912 0.19055432 -0.2997467 -0.27722403 0.39604044 1.0553061 -1.070178 0.22678906 1.5278829 0.097827815 1.6890671 -2.3535805 1.9679288 -2.2089581 0.19693103 -0.35264176 2.3287182 1.304124 -0.9308968 0.23542167 0.28729552 -0.33706495 1.3754312 2.7377725 1.7855155 0.03513125 1.7086139 -0.03795371 0.97310835 0.8374496 1.3324444 -1.6963397 0.34350067 0.67274916 -0.7481932 -0.3154984 -1.0241586 0.26170465 -1.2183796 -0.9547809 -0.6396702 -1.8222095 2.1130724
right 0.5296653 -0.11502016 0.11397942 -0.22054395 2.8982756 0.040312517 -0.7972682 -0.3503545 -0.6112203 -1.1732789 0.45861843 1.9470664 0.4399967 2.0237775 -0.8597032 -1.3575583 -0.81964177 -0.8837629 -0.47975454 -0.52418065 0.5225881 -0.5427517 -0.24022976 -0.106460616 0.33450285 -1.3310437 0.60562545 1.5891714 1.7386079 -0.41057974 1.1326805 -0.9677381 0.8466485 2.1758225 -1.5296834 -0.57982403 -0.12813774 -0.6410463 0.11811999 0.9959729 0.68576086 0.830565 -1.520401 -0.62279236
thing -0.24638608 -0.42132714 -0.65249133 0.9494109 -0.4009653 0.82908666 -0.7977325 -0.15679039 0.33845803 -1.0101657 -1.4638513 0.0061019836 0.12543626 2.1347897 -0.24118823 -1.9657357 -0.0756344 0.95652336 1.1429363 -0.6590952 -0.9134555 0.36640328 -1.2574719 1.5732486 1.1244845 -0.7813398 2.0309875 -0.15155086 0.5669844 -2.2403126 0.017095942 -0.32513 -1.3563592 1.0864545 -1.6049764 1.3268421 -0.98354936 -1.3104517 -0.65293336 0.30387485 -0.4527478 -0.9871873 -1.6916163 -1.6741159
going -1.2955018 -1.6144233 -1.3906803 -0.46906826 1.3129461 0.7808486 0.89590186 -1.8907905 0.67837006 0.0013385563 -0.08349319 0.21617714 0.3049919 1.84096 -0.017579805 -0.41709933 0.089316115 -0.017483165 0.50508016 1.6363457 -0.14892471 0.6908793 0.06558654 1.9275874 1.1870713 0.22710498 1.4035828 -0.6045557 -0.22869626 -0.26803213 -0.93668306 -0.3167749 -0.31821916 0.82440203 0.42750373 0.29896984 -0.43735716 2.0971603 0.53679407 -1.4259851 1.1193112 0.16084903 0.99284667 -0.0629203
price -0.770279 -1.0551207 -0.2814827 0.47069025 -0.017926801 -0.47287667 -1.096771 -1.1360078 -1.6774913 0.4078008 0.5262217 -1.0762728 0.47370556 1.3158233 -1.0218076 -0.014610653 -0.5102775 0.98679066 -0.29242027 -2.4034002 -0.3928166 1.1778911 -0.06549949 0.103926145 -0.6451814 -0.48319453 1.0611058 0.0152817685 0.8799269 0.03746995 1.010668 -1.1050925 -2.69315 2.294988 -0.56588835 -0.720785 0.8673676 0.92765677 1.1517445 0.36768118 0.9826346 0.73437476 -1.8596312 0.57389593
people -1.0418571 -1.716048 1.8092957 -0.095613085 -0.66984475 -0.6462095 0.9929664 -1.7436606 -0.96775895 0.7033022 -1.0907243 -0.5515281 0.5620994 1.0746729 0.3858407 1.0966793 -1.3886136 1.3026843 0.94653606 -0.8091976 0.35822904 -0.62217337 0.09911063 -0.73082167 0.53761786 1.2762833 0.9299487 -0.32497263 0.035235565 -1.3219332 -0.59951234 -0.37906808 -1.0814759 0.8255085 0.082428075 -0.24795802 -0.29133558 1.0426834 -0.1685292 -0.418968 0.47570828 -1.0329142 -1.235802 0.5605255
minutes -2.6857753 -1.2320858 1.9722629 1.8454603 0.7736433 -0.37038842 0.9837234 -1.5714109 1.8078641 0.8014287 -0.18361865 1.0735544 0.5217205 2.503569 -1.0500697 -0.46776384 -0.9237308 0.9441276 -0.601313 -0.5883631 1.4021429 -0.22981638 -1.1832331 1.7371671 0.023118237 -1.058573 -1.6045288 1.5912571 0.5572566 -1.131573 -0.52595794 0.46791938 -1.1460118 0.22389446 0.024388835 2.0279016 -0.52282417 1.0202649 0.3723338 -0.6254826 0.17782387 -0.7162704 0.49933153 1.4830443
real -0.09255431 -1.283978 0.17598541 0.7292815 1.6702414 -0.13914578 -0.6356729 -1.3540442 -0.8955576 0.10242247 -0.6818949 -0.33008245 0.5142018 1.3848431 0.014884871 0.67956173 1.6658509 -0.28071958 0.07405628 1.6646702 0.38973916 -1.1663553 -0.74744165 -1.2401121 0.7712513 0.37141442 1.9310786 0.41223514 -0.4061765 -0.9102472 0.8139682 0.1572814 -1.7974241 1.7553455 0.43198276 -0.10211447 -1.2800475 -2.316374 -0.07867822 -1.2725792 3.1581297 -1.2343323 0.6505047 0.012428838
waste -1.6137791 0.28678116 1.5608741 0.9668839 1.4671278 2.1114955 -0.5142572 -1.2933456 0.58786404 -0.3195169 -0.025025465 1.0575994 1.763815 2.9487846 -0.2417297 0.99194133 -1.1920316 -0.5503972 0.808118 1.2125896 1.0639342 -0.017340468 -2.1072652 -2.8474097 -0.724546 -0.48208773 1.0672913 -0.015828123 0.70980996 0.6407425 1.5958495 0.24228436 -2.8291755 0.0145928785 0.06904856 -1.9001186 -0.4184477 0.017251538 0.7192679 -0.5183346 0.34275728 -0.5249109 -0.5388154 -1.8298594
definitely 0.21467656 -1.4725289 -0.6372876 0.1747631 0.19931519 0.30979925 -1.2668613 -0.3350216 0.5887528 -2.1121006 -0.44565964 0.40222648 1.4587705 -0.49325258 -1.1045991 1.7235154 -1.0839711 -0.28319022 0.30378327 0.06100123 -0.018571049 1.71222 1.2609423 1.5907059 0.58321697 -1.2229153 -0.2266768 -1.3479935 1.5851731 -0.41902432 -0.018625261 -0.103620626 -2.5703638 1.312641 1.9648111 0.25311336 -0.3404564 0.4719474 -0.09834972 0.15555188 -0.29611796 2.3885527 -2.4434543 1.5712175
terrible -0.21474676 -1.4252495 -1.2504702 1.5323974 1.6367208 1.3942295 0.3772839 -1.2927715 0.0115704425 1.7252398 1.1067486 0.51092505 -0.8342259 -0.4182417 0.72859764 -0.8645164 -1.3402212 -1.4077524 1.5619888 -1.0811135 3.587937 -0.32133636 0.096502095 -1.1464933 1.4350712 -2.9535189 0.8592052 -0.79385215 1.0500019 -1.5575387 -0.20829655 0.21530753 -1.3297812 -0.040910315 0.07907287 -1.4635954 -0.6725027 -0.3623219 0.7268935 2.1772177 1.4859453 0.5246101 -0.2214333 -1.9931618
case 0.108406216 -0.55943596 -0.27212682 -1.0385983 0.018049302 0.38533598 -0.74327075 -1.8719531 -0.96806484 -1.0055478 2.2569888 -0.81693304 1.261974 0.305622 -0.49193513 -1.1701132 -1.6985142 -0.15483998 0.5391098 0.42123157 0.40108228 1.0070156 0.88764066 1.6597984 -1.3541054 0.44358552 1.8784139 -1.1221642 1.4441787 0.18432412 0.3554849 0.661021 -0.6886936 1.7848117 -1.4430633 0.3729791 -1.5518876 0.6440463 0.55094635 0.039785612 1.4112477 -0.079629004 -0.3868702 0.22581641
look 0.059328966 -0.37158522 0.6526954 -0.8981992 0.5733527 0.16838141 -0.7551276 -1.9965612 0.4926215 0.15910625 0.18514758 0.9545026 0.848167 0.96767634 0.6154426 -1.6921053 -0.58137226 -1.6260973 0.57341266 -1.7112877 -0.5782734 0.7735701 0.58606094 -1.6681256 0.48692927 -0.60532475 1.3612536 -0.6538675 1.3714998 0.4194554 1.0863041 1.1087594 -0.7897232 -0.011863159 -0.15295377 -0.6464547 0.4421851 -0.27344397 0.14341007 -0.5689325 1.3713188 -1.0650629 -1.2206844 0.924795
money -2.9904997 0.31041616 -1.4620866 1.7682071 1.861019 2.1728828 2.1618352 -0.44642395 1.0210643 -1.3672917 -0.19381306 0.72459525 2.0156116 1.1570811 0.15876833 0.31805012 -0.94015366 -1.8303916 -0.4298271 2.1260579 -0.52926576 0.80316776 -1.1177032 -1.0572796 1.0838926 -2.7144687 0.15692694 0.62483215 2.7322297 0.5665166 2.2352705 0.74024457 -1.4969416 1.8808562 -0.30252087 -0.8354687 -0.79551435 -0.34602347 -0.9715181 0.5368092 0.56819177 -1.1223255 -0.31973693 -2.3847375
came 0.43893152 -1.5857172 -0.065459095 1.0313181 -0.29502156 -0.00033289875 1.1372336 -1.5351732 0.34094426 -0.5681543 0.5394604 2.4781284 1.8354683 1.1231683 -0.43580884 -0.688886 -1.1958101 1.005901 2.5861254 -0.34878123 0.2211933 0.11456919 -1.744842 0.51975095 -0.65841913 1.3040835 1.7868549 1.8023318 0.13702026 -0.81698656 -0.32979143 0.77970946 -0.15131661 1.0658826 0.6909342 -0.50673735 -0.90100867 0.8727444 1.7030863 -2.1186879 -0.49804065 -0.45589006 -0.49882954 0.64308447
experience 0.17317134 0.8586366 0.75212234 -0.00089054607 -0.21927215 0.46732152 0.2922592 -1.3222326 0.69281965 1.0383312 -0.20667136 0.8116289 -0.48460683 1.0354131 0.31983107 -0.04413565 -0.24693373 -0.056299817 1.6112509 -0.44924206 1.1051978 0.8714241 -0.9254712 0.05972245 1.1496989 -0.3601595 0.34245268 0.9765817 -0.18792088 0.10677037 0.50974923 -1.067267 -0.37574357 -0.70020473 -0.23647721 -0.9242023 -0.04923783 1.6600662 0.610881 -0.36556548 0.9379405 -0.85901535 -1.8394932 0.19299212
know -0.411139 -1.5733157 0.7587897 1.9318808 0.58887213 0.36286864 0.58145577 0.48315638 0.092940226 -2.1776907 -0.16816667 -0.6205302 -0.202413 -0.16963378 -0.32828763 0.220745 -1.2115027 0.8541068 1.872125 2.4087358 1.1259252 1.8488812 1.2583245 -0.37611037 0.36040673 -0.04346876 0.008890236 1.4407958 -0.7303212 -0.74625427 -0.46949184 -0.60461783 -0.40512425 0.15499386 -0.31546107 -0.81508404 0.2778286 1.0840269 -1.1739119 -0.8862685 1.1080548 -0.27529955 -1.4237788 -0.1761539
new -0.29808512 0.18755732 -0.63435394 -0.23780975 0.55283326 0.8294673 1.3994308 -1.9065229 -0.51182556 -1.7514752 -0.28294614 0.073102206 1.4275354 1.1797816 -0.30428213 0.83621097 -1.4812831 -0.57762545 0.52168137 -2.5781245 1.3968494 1.4499056 -0.3704272 1.2167815 0.6489983 -0.69350684 2.0444415 -1.603642 0.30843008 -1.2559471 0.33000827 0.326296 0.5402135 -0.18560211 0.120540366 1.1462042 -0.913768 0.7602572 -0.60356945 -1.3410852 0.049643576 -0.36073145 -1.0437863 1.0718838
movies 0.9017608 -0.5095832 0.8374176 -0.3065616 -0.5446674 2.7381372 -0.30666977 -1.2573649 -0.1789678 0.011560842 -0.5084602 -0.10418175 0.50084245 -0.18844377 -0.016143078 -0.32392025 -1.2693195 -0.37408465 1.230292 0.93985 1.4962218 0.6973467 0.504645 -0.5858722 1.0714523 0.47019503 1.2256129 0.7401783 0.86564296 -0.51648176 0.40634784 0.63770044 -1.891019 1.2181963 0.06800516 0.367546 0.47016326 0.10732699 -0.16180336 0.82075274 0.049392056 -0.28281578 -0.13507055 -0.6827856
friendly 1.6776342 -0.5915251 -1.3452654 0.13928421 0.45017818 -0.05688161 1.2188925 -0.6628279 0.4341753 0.24829052 1.2753975 1.3184011 -0.57236224 0.78434515 -0.24127965 1.0105218 0.04067826 0.49673963 0.19568308 -0.3138625 -0.23208237 0.74022204 -1.6119998 -1.9158319 0.57499784 0.48044688 -0.7535332 0.4880325 -0.51275784 -1.1778777 0.08357313 1.4364088 -2.1403673 0.33286452 -0.5284454 -2.0765324 0.45973217 1.7240127 0.35977894 0.12451863 0.86116976 -0.042139135 -1.1441078 -0.046898186
many 0.64528775 -2.0954223 0.4927484 0.58634925 0.5178709 0.65406257 0.42793003 -1.8139918 -1.5556545 -0.67574173 -0.6530732 2.3504386 0.8145581 1.0863737 -2.0082057 -0.076079555 -1.4964019 0.43968114 0.31960946 1.6038425 1.5965724 1.2032179 -0.16617994 -0.2749813 -0.7237674 2.6859286 1.2037044 -0.060943455 1.5620722 -1.2556951 -0.56654114 -0.93981785 0.7163812 -0.4794954 1.5029382 0.11105446 0.3215608 0.44135118 -0.40296292 0.89389193 0.12173945 0.8721253 -2.1680093 -0.43780217
plot 0.5932945 -1.0109301 -0.17111377 0.05413983 0.86604404 0.2105078 -0.19715156 -2.0820863 0.4563881 -0.74517137 -0.9690033 1.079898 -1.606254 1.2387019 -0.52284867 0.76120317 -1.6818573 -0.6938297 1.1477653 -0.24058487 -0.076267086 1.123138 0.55757105 0.035400566 0.15190485 -0.3946379 1.0794055 -1.3554566 0.9132028 0.118431605 0.4902158 2.0899942 -0.40828177 1.0367712 0.09816362 -0.6201257 0.01593698 -1.5807747 -1.2741103 -2.0100799 1.5748308 0.99891144 1.3672962 -0.64988303
story -0.26930052 -0.2926662 1.2758749 0.30419803 0.26775694 1.1044245 0.6333426 -1.1055793 1.6069361 1.2721137 0.27392286 0.51639616 0.18372692 0.022736771 -1.0331675 -0.15759856 -3.1445994 -1.404175 0.29220903 -0.036469854 -0.82781345 1.3352392 -1.3516774 -1.366063 0.30862984 0.485067 -0.73197216 -1.3279184 -0.11230277 -1.842062 0.53532237 0.09739866 -0.6951332 0.12460618 -1.3460182 -0.27028483 1.1555502 0.0045827413 -0.8212873 -1.8840033 -0.50055766 -1.6229075 -0.01881361 0.6597029
poor 1.7982239 -2.5485883 -0.6780665 -0.29914987 0.7159153 -1.6744485 1.1526608 -1.0776399 0.62739706 -1.6423708 -0.6124298 -0.29399163 -0.21310066 1.6116813 0.11527173 -1.4453425 -1.0871668 -0.013445414 1.5565922 -1.9254736 1.6244625 -0.31987107 -0.12935603 1.0831392 1.1300298 -0.881003 -0.34020907 -0.8639056 -0.1897388 1.1831088 1.3105105 2.1204696 -1.1907121 0.94606024 -2.1368563 -0.37306222 0.99580324 -0.7908326 1.8283733 -2.1459217 1.2463032 0.18485342 -2.116106 -2.5818224
piece 0.3578432 -0.18283182 0.8086533 0.40361714 -0.10432792 2.284587 0.45943764 -0.99405736 -1.2584552 0.2328364 1.7993337 2.4781759 1.4617368 0.9988746 -1.4480201 0.4052664 -1.6309228 -0.07831892 1.336858 0.0058980547 0.5712178 -1.9813282 0.5444558 -1.0025977 0.37780052 -0.5860431 -0.44291148 -3.5204082 1.2692319 1.2266154 -0.7209306 -0.5550858 -0.76861197 1.0899146 -0.27260587 1.715539 -0.3595842 1.0234195 0.9468638 0.29923266 2.3563845 0.12586875 -1.5735562 0.8294755
used 0.8425376 0.081087366 0.048619695 0.044692714 -0.48508424 0.46664518 1.2573977 0.5424669 0.35763988 0.21138577 -0.8919613 0.13892774 -1.4777988 1.7468128 -0.84886646 -0.53068286 0.25246322 0.3173173 0.94102156 0.0512161 0.68748987 0.24023439 0.30967736 -0.0064707757 0.6546014 -0.04548907 -0.35720378 1.4406718 -0.582516 -0.42237872 0.7584193 -0.9843081 -1.0027275 2.2078612 -0.98611414 -0.22213736 -0.1475405 0.1275234 1.9317333 0.9705058 2.3325999 -1.1866815 -0.67961746 0.31151763
far 0.20874864 -1.1489307 0.98140126 1.0037526 0.16611174 1.8948655 -1.1637344 0.46775112 -0.6077419 -0.07558538 -0.14079556 -0.056469012 0.2547813 1.3951896 -1.776308 -0.14005347 0.5191288 0.21537046 1.3212426 -0.16043253 1.3007731 1.808902 -1.0883381 0.4048221 0.60401493 0.622424 0.99138856 -0.058680084 -0.16081017 0.16505034 0.52542704 0.07616863 -0.4380024 1.2615054 -0.54285336 -0.09958817 -0.2559952 0.07465469 -0.41495618 -0.25497648 -0.27569354 1.4264581 -1.5026888 1.2261492
life 0.6641792 -0.516586 -0.1395377 -0.65033525 0.12155913 0.32065046 0.3908405 -0.8874257 -0.0800692 1.23884 0.7268892 1.4747622 0.59163594 -0.12321494 0.00092123967 0.6230567 -0.9646607 -0.8069078 0.79812765 -0.94232064 1.1921986 0.81091493 -0.57788086 -1.1564842 0.2537011 -1.3314981 0.7543091 -0.4848497 -1.1268172 -0.67315924 0.83626664 -1.8029336 -1.9009869 -0.6418571 -1.2934632 1.6422187 -1.1607107 -1.6735588 0.9810841 -1.7305099 1.3924387 -1.205591 -0.7395828 2.7760267
worth -1.7832842 -1.1135987 -1.9313678 -0.10037166 0.08979194 -0.988171 -3.5723307 -1.862398 1.5729978 0.3906795 0.12222945 -0.8887208 0.99457496 2.0727289 -2.5447512 1.0204955 -1.1268656 1.8102534 -0.21584897 0.17409709 1.4285631 0.9290324 -1.0640166 1.8426229 -0.36146194 -0.7787873 0.34161508 -0.42080572 1.472572 -0.5766782 1.4533466 0.9151257 -2.09469 0.322117 1.0592886 -0.5352312 -0.6891716 -0.5717426 -0.117396474 0.2548674 0.3619173 -0.2667288 -0.73923814 -1.4070045
nothing 0.32969722 0.34821147 -0.472447 1.8237846 0.76337373 1.3780874 0.73272425 -2.0753956 0.82776105 0.13747494 0.5506503 1.4483105 -0.7160075 0.90204144 -0.09117054 1.2378358 -1.1919274 -0.67518014 -0.0019562494 0.10080783 0.45244983 1.1487212 -0.52162236 -0.42445272 1.1067109 -1.0453084 1.8972806 -0.36822408 -1.4635255 0.0863925 0.34880716 0.9587242 -0.5708026 1.1098311 1.907498 -0.53880715 -1.4279685 1.8258892 -1.3545121 -0.37260023 0.8620556 -2.2960522 0.7252814 -0.72950035
years -0.6160773 -2.1294034 0.39270434 0.19789417 -1.4082224 1.3069533 0.15983024 -0.6588164 -0.07310185 1.0934901 -0.08850055 1.0006139 -0.67030394 0.66077214 -0.38430935 0.33712485 -1.4995948 0.3467832 1.6103234 0.6858424 0.9406838 1.9838827 -0.9151552 -0.08771984 -0.60093665 -0.35977036 1.202154 -0.73445684 -0.41433886 0.7831065 -0.7076168 -0.5848458 -0.26092398 -0.07687711 0.8623998 -1.3718622 -0.37337705 0.53646356 1.4673473 -0.91962355 0.088912755 -0.8581029 0.17496255 -1.2318779
seen 0.4906037 -1.9378704 1.1134696 -1.1320761 -0.508139 1.7643806 0.34613758 -2.103365 0.9591908 -0.69080204 -0.4173518 1.6709857 1.1776052 0.64515203 -0.46302542 0.63714653 -0.0917781 -1.2101908 1.558722 -0.5057871 1.040035 0.4394768 -1.6117285 -0.06593333 0.15061565 0.3350493 1.7604741 -0.78213364 -0.6944128 -0.15991376 -0.71881676 -0.6594967 -1.6800356 0.4153329 1.0561816 2.37668 -0.33182994 -0.7328666 -2.1169646 0.79274434 0.24074644 -0.2647526 -1.000078 -0.70401
long 0.6707049 -1.1529613 -0.22938673 1.4813141 -0.16262175 1.7331257 0.5424745 -0.8498155 0.60754174 0.6017554 0.024296828 1.2942628 1.8268495 0.16367295 -0.33627027 -0.23781309 1.2267928 -0.7947603 0.041422196 -1.186201 2.72971 0.99787235 -1.1347026 1.0860505 -0.16977501 -1.6470572 -0.39082685 -1.656117 1.8916286 1.0143987 1.4132453 0.18629345 -1.964466 -0.6146748 -0.90796447 1.0610981 1.1169325 -0.054130677 1.4561511 -1.4705243 0.22057463 -2.2575648 -0.79500324 -0.76634854
want -1.7827803 -0.28123504 -0.07882028 -0.5325237 1.3710607 0.99407935 0.42735118 -1.9271749 -0.06312556 -0.2454708 -0.25441745 -0.04701743 0.23256446 0.50628376 0.77090263 -1.3660151 -0.5279495 1.549748 -0.13377498 0.52778924 0.92197543 0.53182817 0.06630101 0.046262186 -0.010695982 -1.3132122 0.82398725 1.4549928 0.31967956 -0.5320598 -0.15098466 -0.06531812 -0.6922424 0.1464211 -0.035200868 -0.83422303 -1.2494386 -0.380266 -0.22446792 -0.15785578 1.2998399 -0.4889426 -1.0333093 -0.4741083
restaurant 0.32824516 -0.58564496 -1.1119766 -1.1322235 0.1344934 0.849491 -0.8918826 -1.4371566 -0.04037257 -0.40614638 -1.4577966 0.2773975 1.4017272 0.011636566 -1.4485251 0.9131444 -0.6229465 0.40913665 0.16745551 -1.2138935 0.117662616 1.1309645 -1.8641499 -0.16321696 0.95483536 0.49220368 0.9213107 0.027436959 0.45405346 -1.1291728 -0.030832976 0.19672488 -0.50039655 0.84480894 -0.6485081 0.7358505 1.0518041 0.794573 0.5212429 0.59350866 1.6397136 0.30481294 -0.58167744 -0.45366356
lot 0.43216136 -1.0695478 0.9890443 -1.5869602 -0.8764198 -1.4237537 0.5260502 -2.7600732 -0.2940327 -1.3261071 0.34675217 -1.9027705 -0.9417808 0.07427848 -0.70552063 0.5037724 1.6832082 1.6120228 0.43408173 -0.90814155 1.6708587 2.7223852 -0.46499836 -1.3653567 2.1157372 -0.921241 0.08270219 -2.0793602 -0.15275064 -0.43502438 2.1057916 0.9282602 -1.7398167 1.3718659 -1.5443716 -0.80812186 -1.2473835 -0.61144674 -0.65485966 -1.530753 2.071799 0.078316644 -0.5931943 0.5761863
us -0.028526982 -0.06299268 -0.18102226 0.37313008 0.7453668 -0.044885114 0.85093385 -0.66456056 0.008599666 -1.4249723 1.3066113 3.13406 -0.62093085 1.6415805 0.17796761 1.6106944 0.78549457 -0.57902914 -0.049379587 -0.89272726 0.3061919 -0.7935193 -0.85466987 -1.262923 1.4966254 -0.40738755 3.2571068 -0.7456989 0.65354663 -3.041362 -0.3464237 -1.4323807 -2.818302 -1.8301797 0.50496244 -0.502846 -0.19761242 2.5859313 0.46604535 -0.7020197 0.5375201 0.8428173 -0.6147961 1.6672325
wonderful -1.0185318 0.5363482 0.038836893 -0.8397694 -1.2350446 1.1289558 0.5336928 -0.4332736 -1.1590401 1.6764902 0.5777729 1.3542005 -0.08014604 0.13788712 -1.2170912 -0.08904447 -1.1916214 1.141288 1.1355289 -0.75211173 0.7314642 -0.5462512 -2.3241518 -0.46894768 -0.6420288 -0.9037771 -0.41160604 -1.00351 -0.5338881 -1.8402884 -0.9409444 0.6260864 -0.6406623 0.5569258 0.10325886 0.072201476 2.2764535 0.76528287 1.8375958 -1.0351961 1.5692189 -2.1372786 -1.3883165 -0.5420459
quite -0.15759042 -1.7167383 -0.14291982 1.5528662 0.5774492 -0.25951532 -1.439217 -0.8147657 0.007853722 -0.1779846 -0.15793121 0.34565783 -1.4088408 1.0072303 -0.26215482 0.17078538 -0.5699044 0.60962814 0.8656089 -1.3387779 0.77085817 0.06334122 -0.9181989 1.7708204 0.3968749 -2.1961794 0.6040917 -1.8559338 -1.9411774 0.7509965 0.05930086 -0.39485404 -1.168003 0.25175947 -1.9347262 0.15690045 -0.411119 0.6323135 -0.9493216 -0.3663598 0.36809334 -2.3914137 -0.02033546 1.0566384
always -0.2673793 0.1934678 -0.6974566 0.19914836 -0.4117145 0.13528869 1.1128539 -0.09686954 0.96784955 -0.2838337 0.39249727 -1.1822342 2.124105 0.6731162 -0.89028376 -1.2459339 1.2082769 -1.9044056 -1.6176829 0.31421417 -0.42768252 0.9375997 -2.7215366 0.042552225 1.114053 0.3538705 -0.41782725 0.0056623425 -0.34321153 -2.1984708 0.7707245 -0.056397848 -1.831252 -0.28294668 0.09939506 -0.14083508 -0.18060398 2.7650406 2.1450896 -0.7828504 4.240823 -0.7015928 -1.7300986 1.3491317
happy -0.7569865 -1.8232796 0.26758465 -0.4750321 0.8417586 1.5690236 0.5953752 -0.540149 -1.0005125 1.7327478 1.3732418 0.52976733 0.91118973 1.7731848 -0.6988562 0.8750818 -0.26443285 -0.8711546 0.29764783 -1.8581617 1.1925241 1.5629891 -1.7423253 -0.4801226 0.78356636 -0.86543745 1.2400239 0.707156 1.1238757 -0.9620434 -0.23007129 0.6270073 -0.53094083 1.5241921 -2.0034332 -1.7420666 2.258368 0.8871962 1.9507054 -0.49439067 -0.5366891 0.5825394 -0.45192283 -0.058010966
films -0.198256 -0.021111714 1.2774894 1.5847731 0.35332742 2.0869741 0.7286563 -0.43088904 -1.4686278 -0.030816576 -0.049155008 0.76571834 -0.23680738 -1.8156886 -0.64501315 1.0813861 -0.78058004 -0.41727445 1.5018042 0.47884944 1.1457384 0.36657017 -1.3284091 -0.7234161 -1.5681436 0.7105708 1.7778918 -0.33347437 0.013601678 -0.64594924 -0.41962945 1.0051755 -2.010693 0.0024919927 0.3374531 -0.92006665 -0.89353925 -0.2607578 0.12330973 0.15078062 -0.3689635 -1.047013 -1.209007 0.5012254
character -0.8038301 0.48458567 1.1145203 1.370906 0.11735065 0.1060721 1.1809179 -1.1571223 -0.19717759 -1.7539937 -0.14684258 -0.8902637 -1.7968901 0.6691986 -3.1625767 -1.4061364 -2.234608 0.567384 0.4778108 -0.24041139 -0.6801125 0.8603639 -0.3264618 0.636421 0.44737607 0.32718194 0.15013047 -0.56507736 3.3154006 -1.2423902 0.87090236 -0.37255132 -0.9726315 -0.5237407 0.112260796 0.70658827 2.341119 -0.43995732 -0.16470712 -1.5667807 0.3207723 -2.4601216 0.57134753 -1.7402494
screen 0.5735113 -0.8975072 0.32554 0.20074305 -0.6947534 2.6328762 0.4215836 -0.4570084 0.26460353 1.7365465 -1.2860312 0.861588 1.1428242 0.6449771 0.25288603 2.1285756 -2.439306 -1.9954045 -0.8271842 0.36989248 0.44690427 -0.7597283 -1.6484433 -0.8232815 0.92726845 -0.458792 2.4487898 -0.5644283 3.2172453 -0.22116965 -0.8760082 -0.41282636 0.47752434 0.43996936 -1.3337464 0.48091546 -2.1368752 -1.7409811 1.291122 -0.46318758 1.2129049 -0.9388404 -2.589947 -0.036771495
highly 0.5292741 -2.0406578 -1.6044514 -2.925241 -1.1109937 0.14261273 0.6082163 -0.5463455 -0.4037713 -1.1810689 1.8021162 0.8140581 0.11477222 1.5072042 -0.11741387 1.7332398 -1.4665599 -0.16840714 0.7733141 -0.19634975 2.328372 -1.3819956 0.3891701 -0.8277086 0.292908 -0.2231024 0.53405064 -1.3996065 -0.72147346 0.55682683 1.8027443 -1.7557795 -2.7763934 2.5658798 0.5263936 -1.4787209 0.36592966 0.18422775 0.17651752 0.40792942 0.32692724 -2.6267447 -1.3534735 0.50504595
found -2.47994 -0.25403887 -0.34944084 -0.38307846 0.8290118 1.9140162 0.8829181 0.3744024 0.8021316 0.82790375 -0.19130105 2.3970194 1.8027356 2.4655411 1.4726017 1.1705545 0.6014809 1.0744655 -0.2142471 -1.0775126 1.6171852 0.85463685 0.42314348 1.445916 1.0206625 2.4591928 1.1833957 -1.1889793 2.1731064 -0.087910555 0.6795785 -1.8210746 -1.01408 0.69988394 0.531255 0.2408742 -0.54844165 0.23518276 0.17442422 -0.3541147 1.5350337 -0.4792902 -2.9378345 0.5748004
delicious -2.8229525 0.83676136 -1.7819021 -0.6180106 1.7802037 3.0389295 0.90502656 -1.2431853 -0.050015304 1.1678431 1.0163025 0.6303243 0.8653231 -0.1912964 -0.9584913 0.3822235 0.1798908 1.9184285 0.33508146 0.75871474 0.3455135 0.9207026 -1.4774116 2.7022715 0.8358213 -1.432334 -2.092856 1.2194442 -0.9383441 -1.2197113 0.5029157 1.109115 -1.2809666 1.3797686 -1.0617915 -0.021661084 -0.5028616 2.084398 -0.01658838 -0.6347406 0.019531015 -0.73235327 -4.7252765 1.3618252
give -1.1143091 -0.111427814 0.46663114 -0.96360356 0.731619 0.57180655 0.71678656 -1.2941977 -0.07539521 -0.88302755 -0.6365459 0.45308593 -1.2777375 1.5109795 -0.89764845 1.7486696 -0.48141828 0.20384157 1.9792976 -2.2988973 0.8223756 -0.053576984 -1.0208352 -1.1455313 -0.834084 0.21434921 0.95405954 0.36444023 0.99083513 0.07070481 1.930416 0.8949844 0.06230915 2.4886703 -0.66756934 0.21141165 2.4955819 0.82912403 0.093769886 -0.34560254 0.23773913 -2.1380658 -1.6641906 0.18687433
anyone 0.61544794 -0.36975703 1.4905099 0.13781007 0.25021106 1.8060025 -0.41466546 -0.9607578 -0.3345322 -1.4739993 0.46902463 0.588178 1.4478928 0.5974264 -2.2439697 0.4700399 -1.6773148 -0.5416478 -0.1322681 0.6616748 0.7129183 0.10098611 -0.082862124 -0.42926276 -0.4281672 -2.0256886 -0.874817 1.365405 -1.2768184 0.28503495 2.1287758 -0.09214788 -1.5532396 2.9573507 0.7829336 -0.31343958 -0.14525326 -0.070169605 -0.7901212 0.09870492 -0.28749534 -1.5498248 -0.7574368 2.2978637
camera 1.8463532 -2.3227892 0.96045846 0.22167628 0.824652 0.16763073 0.14354916 -1.189497 -0.09623297 0.7045372 -0.95378464 -0.4738518 -1.2787784 1.4224362 -1.2763 -2.0758805 -1.6909269 -0.021380313 -0.23249713 -2.1197114 0.1742972 1.045918 0.66397095 1.4052935 -0.6984092 1.0891076 0.32501176 -1.7955142 1.0822656 -0.488818 0.09114219 0.29926175 -0.8008127 1.6230444 0.13328926 0.1489188 -0.16240744 -0.8943841 2.2215943 1.4110065 0.69613075 -0.6386831 -1.3654062 1.7137378
script -0.77243996 -1.0330437 0.39766735 1.8598528 0.13830434 0.518448 -0.52512705 -0.41827756 1.6025715 -0.15057383 2.245503 -0.9353817 -0.9727987 2.0871074 -0.099977225 1.1411655 -2.4041095 -2.2924619 0.4722547 1.1922368 -1.0886744 -1.0225581 0.39086857 0.38594133 0.07378831 0.80500746 0.10022676 -1.1429193 1.4887035 -1.3688874 -0.33452886 1.6061959 -3.1439707 0.70407254 1.7035581 1.3137587 -0.045164917 -0.62518513 -0.6133823 -0.49444032 1.3475397 -0.605207 1.1811959 -0.41797426
vegas -0.046771985 0.04577775 -0.7530296 -0.46055153 0.25176305 0.22434367 -0.29400668 -0.17528176 -1.0864614 -0.12067622 -2.6331956 1.3848426 0.8565006 1.1210696 -1.1918489 2.1458182 -0.7914572 -0.14303944 2.0365806 -1.4691039 0.6657887 3.135951 -1.3748416 0.5516152 0.10024792 -0.33185512 0.803366 1.9650322 -0.33377832 -0.76928794 0.993445 -0.041533273 -1.2504226 -1.0988309 -0.41425118 -0.74721956 -0.7023914 0.71750754 0.3477125 -0.10732094 1.3683666 0.6931353 -0.3228757 -0.4145214
times -0.20481831 0.38467014 -0.5696863 -0.055608273 0.26116526 0.48227656 1.2487164 -2.5035193 -1.3655682 -0.20717536 1.2945136 1.373346 1.1047486 1.9278462 -0.23774414 0.5130425 -0.42035195 -0.5550371 1.0970912 0.67585784 1.4724411 0.63712883 0.14697225 0.3427347 -0.28443423 0.18843013 -0.43529537 1.1101799 0.061942667 -1.2098577 0.31841326 1.3975291 0.1487552 -0.42012128 -0.7395518 1.2573315 -0.17082733 1.0855218 1.1113311 -0.22470577 1.4591265 0.6331139 -1.3890661 0.015640222
another -0.71741104 0.8772141 1.5156577 -0.50572866 0.42747536 -0.71011126 2.192868 -0.057763394 0.0854522 -0.7569909 -0.55210274 0.88096553 1.6958284 0.29207534 -1.101668 -0.93674403 -1.292064 0.8999198 1.2337674 -0.4756186 1.1356868 -0.21921428 -1.0295781 0.5545969 0.6188932 -1.40136 -0.04597967 -0.32772142 0.92080003 -1.189125 -0.09856943 -1.6294446 -1.4003547 -0.26017785 0.080584265 -0.29728755 -0.41970468 -0.3817931 -0.39495078 1.3714504 1.4715024 -2.7093453 -0.15552112 0.7165718
watching -1.1022565 -0.019264515 0.5262112 1.3228492 0.32342052 0.45543098 -1.3387831 -1.2629086 0.33539683 -0.4194065 0.9844743 -1.0063018 -0.32297263 1.2058841 0.48114988 -0.5266781 -0.999383 -0.36609665 0.64802 -0.104781225 2.0747848 -0.19443752 -2.1252573 -0.4691138 0.38294768 1.1089342 1.5622025 1.0474813 1.9099466 -2.0658247 0.9731874 -0.7773044 -0.8226237 -0.21768558 1.7949435 -0.274361 -1.5198525 0.114654265 -0.48889643 -0.3457377 0.15525906 -1.2344884 -0.7422691 -0.42691585
easy 0.66808033 -0.25313216 1.3621604 0.9941607 -0.7729856 0.50714326 0.82435155 0.79299396 -0.7328442 0.5504308 -0.12108903 1.0954064 0.05866066 5.0425262 1.8752563 -0.6473223 -1.0328183 -0.7363637 -0.85029393 -0.9870319 0.28495508 2.7472608 -0.5015908 -0.8793998 -0.09818374 -0.20721887 -2.1101441 -0.8726271 0.10644894 -1.1094425 0.55671656 0.32365426 -3.3856564 -0.7787452 1.1352621 -1.11052 -1.9567021 -0.25550225 1.0107352 0.005053664 2.7169585 0.24273346 -0.28759536 -0.41592437
loved 0.70920473 -2.1006036 0.571719 -1.361544 0.629892 1.8574895 3.8443027 -1.1711524 -0.3867984 -0.26355812 2.0571263 0.0670866 -0.6318973 -1.3473343 -1.6190022 1.7718464 -1.5366659 0.9097827 1.4709243 -0.5433755 -0.44166583 2.0434618 -2.2048166 -0.8978314 -0.26366603 -2.3127067 -0.40838924 1.0100789 -0.7419966 -1.4330952 -0.545028 0.59144104 -1.1705681 1.6918554 2.9913468 0.16814888 1.899114 -1.2391385 -0.56934375 -1.4799573 0.34400794 0.984747 -1.2274371 0.046616834
around -0.26005223 -2.1981359 0.41407788 1.2870991 -0.8366982 0.6308571 0.19844574 -1.8326919 -0.6544773 -0.43451765 0.77944237 1.7391813 -0.78077763 9.9713834e-05 -0.96411884 -3.0100493 -1.0491799 0.08153742 -0.2601967 0.28622144 0.50884223 0.8168986 -2.7078998 -1.7037375 0.1204348 -1.7741028 0.3889138 0.5026581 0.87546647 -0.8117338 -1.6571105 -0.09420176 -0.79715323 -1.1917903 0.3492019 0.75178456 -1.01363 0.9428102 1.1103226 -0.82674426 -1.034075 0.3965409 -1.6226554 -1.4460702
absolutely -0.17619154 -1.0515687 -2.35357 0.16866808 1.4729431 1.9619434 0.40860105 -1.620132 -0.1884101 0.5439019 0.7940669 1.8911554 -0.006125086 1.1302406 -2.448173 1.2547994 -2.7770498 -0.61037016 0.5658318 0.95762783 0.22160111 1.9032847 -0.91684395 0.012739896 1.5771778 0.10543307 -0.8943681 -0.08430623 -0.74735653 -1.4468263 1.4955417 0.81373554 1.1761796 1.8986981 1.0770333 0.048865292 -0.38893896 0.5929317 0.05863389 -0.6501176 -1.7299197 1.2940726 -0.4666803 1.2208321
went -0.42303067 -1.4531915 0.41527995 0.34558758 1.0634123 0.6130184 2.632953 -2.3033633 0.20156063 -0.12543577 0.38396224 0.44856012 -0.6578969 2.0908334 -1.6214863 1.5054966 0.22991756 -2.275745 0.54037184 0.4392598 0.9011103 1.7504431 -1.3259679 0.23617727 1.8185489 -0.70952064 -1.8171597 2.1092057 0.5143429 1.6017338 -2.1709163 0.23600352 0.036560565 2.708521 -0.5772301 -1.7971123 -0.69786096 -1.6317908 0.7841941 -0.063639805 1.4382643 1.0447073 -1.2813804 -0.04087009
fine 0.051287953 0.49669495 -0.6190624 -1.6762495 0.8593153 -0.5869268 0.22797336 -0.99046534 -1.801154 0.7716493 1.7731749 -0.26983985 -0.108420745 -0.0489347 -1.7166549 0.06062112 -0.43998873 -0.74299675 0.7851654 -2.7210453 1.1792496 1.8019338 -0.42705682 1.0020287 0.5561267 1.0909445 -0.30852833 0.17208463 -1.2195786 -0.89046067 0.9501565 1.2329382 -0.3829204 3.785348 -0.7090635 -1.6316788 -0.35612324 -0.6543237 -0.09809636 0.9474154 1.7633 -1.4716185 -1.7716374 -0.7053515
take -1.1619452 -2.1085973 -0.20498778 0.8021865 -1.1880429 -0.6613261 1.5098342 -1.8096155 0.12600009 -2.0161703 0.757545 0.22990626 0.80931175 1.1985587 0.051588308 -0.6024265 -2.0464072 0.20606855 -2.3278804 0.31217495 2.3831346 -0.5058801 -1.2723837 1.2667943 -0.038831495 0.43824714 -0.035638873 -1.1893023 1.3603178 0.4654226 1.4300002 2.243845 -1.7923294 -0.996746 -0.19899315 0.24912658 0.2309691 -0.046743657 0.19529152 -1.5322316 0.19724509 -0.23082282 0.1380871 0.7351186
probably 0.040182274 -2.3844464 1.0011958 -0.24617139 -0.58298224 0.44265524 0.2452053 0.52673393 -1.0991517 0.12319184 -1.573402 2.2006686 -0.3628197 1.7734241 0.31035194 0.25953844 -1.1404833 -0.7010658 0.8608455 1.7727823 1.5822833 0.5845099 -1.355469 2.3610156 -1.5307131 -0.9783964 0.42007887 0.60047567 -1.1091365 -0.7049109 -0.10764397 -0.16411984 -2.102968 1.2723213 -0.20135206 0.82089406 -0.91650003 0.64840955 -1.3914907 1.334046 -1.5797056 0.15036145 -1.0576587 -0.17709383
car 0.24636556 0.69158137 1.0080009 1.7520319 0.16647069 -0.48432174 -0.52069867 -2.4746683 -1.401947 -1.0203501 1.1532861 1.1808662 0.9266178 0.985527 -1.5699503 0.3343247 -2.083618 -1.5321612 -1.6944766 -1.9801308 0.8036827 0.9193496 -0.44060808 0.8959132 -0.95147526 -0.86435264 -1.215162 -0.21628872 -0.25425667 -1.1541698 -0.89297444 -0.5369878 -1.9679303 -0.34081542 -1.1991105 -2.0774238 -1.7927006 1.9900724 0.7769523 0.3960731 0.953223 -0.887981 0.04261249 -0.4816749
funny 0.78400016 -1.4184781 1.1088307 0.44307226 1.6817206 0.3505194 -0.03613193 -0.59674954 0.15156466 0.4318805 1.9732392 -1.2342988 0.86837476 0.41857153 -0.51783 1.5974015 -1.536135 1.8787637 1.3896165 1.3121133 1.1993461 1.9695277 -0.8751296 0.35833982 0.93803596 -0.24823087 0.13790077 -0.23090275 1.4941208 -3.848762 0.4580552 -0.65359396 -0.062010575 -1.3723762 0.90524167 0.4539926 0.75074387 -1.285647 0.82234967 0.47838008 0.29421064 -1.0700388 -1.6259758 -1.4974273
however 0.80051726 0.31399372 0.30195376 -0.28684515 0.8320003 0.2664527 -1.3185526 -1.0226283 -1.2490628 0.26956883 -1.6034384 1.295367 -1.3462675 2.0356104 -0.18949896 -0.12937053 -0.3144068 -0.32494742 2.0361462 -0.59110653 1.2660382 -0.4368968 -0.8052271 0.023835994 0.00039140112 0.05764217 1.7211967 -0.43255177 0.94957674 -0.2662835 -0.20773774 -1.2458571 -0.98777455 0.5134939 0.32256824 0.47920966 -1.1374493 1.6918588 1.8512157 -2.5817285 0.4840207 -0.11725228 -0.78645283 -1.000383
awful -0.47394463 -2.287744 1.4087898 2.1712465 2.586107 -0.9496048 2.3568466 -0.052649148 0.10089011 -0.60305226 -1.7131573 0.3985651 -1.6393381 -0.11010959 1.071526 -1.460125 -2.5278811 0.46664396 -2.701452 -1.8106344 0.8144378 1.6734121 -2.2515252 -2.9982648 1.02314 0.08074706 0.14261028 -1.5231775 0.16616401 -0.5429346 0.18288225 0.5726007 -0.942828 1.7663308 1.2033533 -1.5250617 0.97628665 0.18352488 -0.7948963 0.7530352 1.4329853 -2.846206 -2.089701 -0.5364556
bought -0.12218462 -0.83250695 -1.5996859 1.5552909 0.81902605 1.1543025 2.3633788 -0.76034 -0.5810222 -0.38645828 0.9179763 -0.95770985 0.05972439 0.22387436 0.6340968 -0.6071454 -1.0971777 0.491528 0.6792358 -0.9769394 1.2011311 0.93013126 -1.5091338 0.040088326 2.2440257 -0.8414509 1.3662275 0.5873406 -0.36991528 -0.7079211 -0.6719857 0.1755853 -1.148202 1.1967773 -1.12815 -0.24784523 -0.55251724 0.23038363 -0.43869388 -1.0799316 -0.7694002 0.16125861 -0.57206655 -0.54897064
buy -1.3811145 0.7637003 0.8594857 1.5973213 1.9656972 -0.106144354 -0.47644904 0.5366273 -0.5530698 -3.0324903 1.337 0.99214524 2.104533 0.7091174 -0.7336172 -0.83237046 -1.78954 2.7585564 -0.44264114 0.4540634 1.4255031 3.1209345 -0.7377134 -1.1901852 1.9679006 -0.5971998 0.46421224 -3.0496259 2.667762 -1.2760705 1.2687881 -2.3935053 -1.3426374 0.30764624 0.8659402 0.5624783 -1.8594966 -0.14249365 0.12342448 -0.37751046 0.728704 0.3409027 -0.71350956 0.8958595
worked -0.13105865 0.2430696 0.6179558 0.4663718 -0.67793906 1.7878987 0.40514016 0.6810056 -1.8234391 -1.6812636 0.13638216 -0.26427084 -0.5137285 2.0725207 -2.0103335 0.7977439 -1.2981838 0.8684146 1.2204307 -0.54799193 -0.07782181 3.218321 -1.1069854 0.86030966 0.24517107 -1.0847013 1.0029329 -0.76441354 -0.33592448 -0.2538319 0.38366005 -0.5364771 1.2992903 1.8118538 -1.7464681 2.244835 -0.8336629 1.0144299 0.97986627 0.597017 2.0100558 -0.73595744 -0.25441772 -0.82299626
slow -1.8372946 -3.1426735 -0.7306556 1.1425862 -1.468406 1.8581945 -0.579997 -3.301308 -0.0615166 -0.69277084 -1.4628603 0.08834906 0.7992925 -0.89757925 0.47231117 0.6587441 -1.7211648 -0.40402636 2.3594222 0.12929767 -1.0791136 0.95918757 -0.66663134 1.062507 1.106553 1.3767836 -1.5055493 0.6368873 -0.2569805 -1.6635993 -0.14499094 1.7088897 -2.3261175 3.8781655 -2.4191344 -3.6046298 -0.7864581 0.6810173 0.20474893 0.31430808 0.971097 2.0945182 -0.8050548 -1.3175435
horrible -0.15480569 -0.7098457 -1.4885256 1.7229863 0.8915513 1.0709013 -0.5489045 0.09047319 1.5394213 -0.19551383 0.59840834 0.8803858 1.2259085 2.7897904 -0.031553682 0.28786907 -1.7540131 -1.0996664 -0.36723772 -0.9051915 1.7002021 -0.8595123 -0.79030854 -1.102016 1.1439835 -2.3697402 -0.67348635 1.4593103 -0.0015131658 -1.333065 -0.7739737 1.6715045 -1.1616517 0.6730571 -0.23188311 1.4534861 1.1296101 -0.74515474 -0.28261682 -0.6171938 0.6567784 -0.20383267 -1.8952199 -0.12433654
stars -3.4060445 -2.3581638 -0.35576925 -1.1810403 -0.31989983 1.7569195 -0.69069076 -0.26822805 -1.2772325 -0.11390582 -2.1657643 1.1134753 -2.1659863 1.0876533 -0.7374212 1.6612892 -0.40775272 -1.1119294 1.2521074 -0.80866855 1.0761615 0.45943385 -0.10528837 0.2977824 0.5399198 -0.49348176 -0.09036835 0.16223237 -0.7644849 -0.83477473 -0.54503703 -1.0512804 -1.2802455 0.9049967 0.7457929 -0.035839327 0.7860077 0.65506035 1.319083 -0.17778568 0.7274552 -0.60787773 -0.9130661 2.2928631
thought -0.4563941 -0.52924347 -0.36527 0.6258046 -0.8061929 0.627347 -1.7855519 -0.6211755 2.433314 0.5717267 -0.3391127 1.0005702 -0.6565338 1.4376295 -0.54316735 0.7280386 -2.2643182 -1.3011584 -0.13271262 0.01203652 0.5146228 -0.070753805 -1.9091995 1.9857234 1.3347868 -0.61171985 1.3084134 -0.4661823 0.5241328 2.008466 0.6192788 -0.21943656 -0.5620031 2.08163 0.40665203 1.4394416 1.6835996 2.169574 0.20351319 -0.83365226 0.48022547 0.48068118 -2.7176414 0.7871163
since -0.17938007 -2.618224 0.048549984 1.8144729 0.55193114 0.9390419 0.54672015 -0.75222033 1.6072377 0.41244438 -0.12827952 -0.04932046 0.96925503 1.087205 -0.77180874 1.3557104 0.45833045 -0.53686625 1.1668273 -1.4570588 -1.8764702 0.08677493 -0.038360868 0.6335738 1.5937622 -0.7042267 0.8086347 -0.25024566 -0.7950185 -0.2993049 0.16010872 -0.37535858 -1.2700145 0.3917525 0.31066385 -0.5095248 0.23724206 1.1799467 2.174293 0.056414407 -0.95708746 -2.6884902 -1.0880207 -0.19233817
comfortable 0.2642681 0.8807051 -0.06780258 -0.69333005 1.0909702 0.9807272 -1.1820308 -1.3309611 -0.79999983 0.1601191 1.3087611 1.3347825 -0.6594713 1.5823319 -1.16076 0.8867048 -1.8116932 -1.8136976 1.7786062 -0.19917028 0.38538057 1.1004299 -0.29094878 1.2549988 -0.49274305 -0.8711979 -0.7433248 -0.8884096 0.5227682 0.4054376 -1.005661 0.47116473 -3.1156495 0.8452973 -3.436788 0.8572434 -1.667194 0.060896184 2.5556388 0.25003213 -1.7676215 -1.1812694 -0.13347995 -0.05749357
big -0.30153486 -1.2399157 0.5936694 2.1611176 1.0195982 1.7904595 3.0514438 -0.9544647 0.38215482 -0.075512625 -1.3092289 -0.19323188 1.0494753 0.55904895 1.1955732 0.4231923 -0.24729626 1.2957538 0.9783366 -0.3201952 -0.2934281 -0.4063367 -0.5251201 0.87595755 0.7838546 -0.0524805 -0.29128343 -0.7326144 1.7252457 1.1296393 -0.8075939 1.7862228 -2.26283 0.7789431 1.4851879 0.6797943 -1.1462171 -0.29981792 -1.2160875 -0.06829077 1.1835697 0.2964643 -2.7263052 -1.0159358
awesome -2.4449244 -1.5836325 0.36888272 0.23882805 1.2227135 2.6062868 1.9046255 -2.4437656 -1.8609995 1.1849934 -1.8677919 2.2429738 -0.15818883 -0.767007 -0.14083707 -0.23905641 -1.8321713 1.2491872 2.5835965 -0.4544274 -1.7420527 1.4946645 -0.36232162 0.071854 1.8210852 -1.9118341 2.1681085 -2.1224036 -1.0878503 0.8259176 -0.14033008 -0.39591542 0.59092635 -0.25751552 0.66494757 -0.8816895 -1.8334992 1.1791755 1.4824693 0.14093241 0.19545254 -1.5440942 -2.9899452 1.6273922
item -1.2627536 -1.4377213 -0.21114492 1.5723232 -0.4237888 1.7532078 0.31948456 0.042502802 -1.2496556 -2.107787 -0.11112595 0.049648453 1.2475995 2.7038474 -2.1722217 2.0109878 -1.331052 0.42325822 -1.0145057 -0.26800334 -0.76211154 1.3541397 -3.2808163 0.24613194 0.8412528 -1.1520618 -0.33458492 -0.8584852 0.9560491 -0.29723692 0.1565224 0.42689103 -0.6873155 2.9606237 -2.4249597 -0.108900145 1.8661178 -0.55696493 0.38345885 0.46842864 -0.24223691 -1.2073566 0.16706747 1.0977145
staff 1.2744553 -1.6977971 -2.0162263 -1.0375359 1.804029 -0.81850487 0.31753692 -0.57057387 0.10445541 -1.1029547 0.38154593 1.8328973 -0.2588648 1.5485045 -1.4865078 1.2371242 1.0082109 1.3285273 -0.12035401 0.9878426 -1.6118754 0.101698995 -2.299905 -2.4187245 -0.5034527 0.24132632 0.74643993 -0.0450722 -0.9621293 -1.3188244 0.53663814 1.8081172 -1.7122754 2.0887523 0.484906 0.19276303 -0.17294057 2.2788823 1.4651355 -0.6637251 1.8905782 0.4151955 -0.8214421 -0.6237936
totally -1.4334856 -0.4864824 0.99171954 0.40324232 0.7660097 -0.64265066 0.0984037 -1.5649661 -1.3073109 -2.8540266 0.544076 2.8451896 -0.4636745 -0.70983565 -2.8521624 -0.68196803 -3.6789384 -1.1346247 -0.86294734 2.0054078 -0.57760924 -0.49683687 -0.6292925 0.08197534 0.66994756 -1.3318509 -0.2763118 -0.36233783 -0.66863596 -0.7652098 -0.31333154 2.1602838 1.5405141 1.6383564 0.19287804 1.9167501 1.0525403 1.1442547 0.23023236 0.17037517 0.6444176 -1.6784048 -0.37682015 -0.27919397
eat -1.3666341 -2.3913317 -0.5937303 -1.1262414 0.4977021 1.3520613 0.15907133 -0.28532723 1.0338607 -1.6225353 -1.4092016 1.3849541 1.0320445 0.97413373 -1.7719828 1.6573181 -0.9753005 2.6338387 0.10748303 1.5553807 0.92736477 -1.8560708 -0.15413834 -1.8796444 -0.37233683 -1.480394 1.9406229 0.080464356 1.423455 0.85026294 -0.27435493 -0.30339327 -3.2918277 -0.6708168 -0.37503612 -1.1686976 -0.5598074 1.9651647 1.2058812 -1.9014637 1.5752186 0.69029754 -0.45324814 1.7033088
music -1.6756064 -0.016963284 0.48110873 0.61533713 -0.104945675 -0.22418973 -1.4865894 -0.10181764 -1.8356842 0.27063438 -0.32559636 1.757876 -0.4094318 0.8694093 -0.66132087 -1.041316 -2.6493735 -0.2927618 -1.2191322 -0.46419677 0.06893313 0.2818293 -0.4904419 -0.48567486 -0.36005053 1.077584 1.1059875 -1.5809331 -0.30285192 -1.8825893 -0.07643331 2.1951578 -2.7515967 1.4441533 -0.65643287 1.2676156 2.07947 -1.1083353 -1.3205266 -1.182111 0.75650513 -1.122569 -1.003863 0.46615335
must 0.82299346 1.1555339 0.7995968 0.19394885 0.13171051 0.6305644 -0.31827763 -0.14939238 1.5693434 -0.66949457 0.44748285 -0.9370267 0.61433166 1.2966067 -1.2879795 1.8098118 -1.8480092 1.698819 0.56960344 -1.4541752 3.0070791 -0.35788798 -1.5557775 0.38522002 -0.18091944 -2.3089595 -1.3507191 -0.18988058 -0.15022711 -1.3933429 2.651967 -0.80416757 -1.7010992 0.043006968 1.5981385 -0.6275541 -0.9801107 1.3537039 -1.4899286 0.41967043 2.6314788 0.87332785 -2.0763497 -1.6500114
impressed 0.16068418 -2.208788 -1.0417334 -0.16250628 0.9605681 0.32067972 1.9436358 -1.3869288 -2.1292036 -1.6133819 0.4852989 -1.0000325 0.08392578 1.9766384 -2.791957 0.49047452 -1.0841484 0.7034976 1.1700776 -0.04922107 0.6657514 0.044204094 -0.92728937 1.2151982 1.9183522 -1.0875359 1.3955047 -0.064332634 0.79983526 1.4499266 0.15370813 -1.4592187 -2.1899114 1.6330808 2.479669 -1.6646768 -0.023914676 1.1363965 0.34891033 1.1949667 -1.2041552 -2.187553 0.73959917 0.68679845
watch 0.3674036 0.1196731 -0.9013935 1.0284842 0.25754327 1.8747721 0.5027175 -0.7188849 -1.8214793 1.5137887 -0.8585399 1.1426272 0.82380825 0.75954896 0.04442143 -0.5158658 -0.83205044 0.53184557 -0.1396253 1.7552656 2.092094 0.042155094 -2.365865 -0.5337832 1.2573799 -0.90609634 0.14963093 -0.08625037 -0.091953754 0.19347368 1.2182211 0.9465718 -1.204049 0.10993601 0.9922593 -0.58865654 -1.2842402 -0.82123417 0.86546236 -0.84065205 0.5102981 -0.468384 -1.4180663 -0.43266073
things -0.6490456 0.88906544 -0.1604305 1.2331789 0.83538395 0.83001035 1.1215591 -1.5637313 -1.269901 1.5566465 -0.23067695 -0.9080049 0.073034756 1.48679 -2.1991918 0.38103944 -2.0862217 -0.77089703 0.5632115 0.47488225 0.9725954 1.0081483 0.3027919 0.87756646 0.7858778 -1.1604471 -0.1582873 -0.08946957 -0.0889781 -0.6204943 -0.57452166 0.022348512 -0.9917814 0.77952564 -0.059939742 -0.04834059 0.7374751 0.32025412 -0.7265591 -0.11712147 1.0595489 0.5210344 -0.49112493 0.07191596
show 1.0229588 -2.2120624 -0.74306387 1.9086688 0.20913285 1.0684928 1.2703451 -0.49027082 0.13682728 1.177927 -1.7837507 1.0291263 -1.3433046 0.72317445 -0.6803848 -0.28314784 -0.79043984 -1.2112657 0.1963075 0.9837121 1.8303846 0.71600807 -2.3734283 0.698869 -0.08518622 -0.91896343 2.3675401 -0.6710624 -0.3613292 -0.5313541 -1.1576382 1.6078053 -2.156819 -1.3549669 0.25991416 1.5007001 0.32120544 -0.03758184 -0.67558056 -1.4279586 1.4320439 -0.15190162 0.9307435 1.4303116
cool 0.9223571 -1.3509244 0.48240116 0.84950024 -0.75625265 -0.6701056 0.46105227 -1.580863 1.4982514 -0.59554756 -0.020824894 -0.055623487 -0.9324103 0.6015512 -2.52779 0.44063932 -0.39850354 0.3057222 -0.6426444 0.25818774 -0.26875836 0.051401265 -0.5600991 -2.6634543 0.74186707 0.5586794 1.0087196 -0.4082796 2.8975136 -1.2023202 2.251472 0.8398961 -0.23702559 -0.5506071 -1.461064 -0.897573 -0.13291225 1.0888731 0.98387283 1.5025082 -0.51567847 -2.173299 -1.7531251 0.6938001
find -1.4017463 -0.16898762 0.3849091 0.48524323 -1.4765898 -0.20079394 0.049137946 -0.73541814 -0.17160568 0.81126565 -0.18051875 -0.1675735 -0.10344483 0.6530852 0.6538773 0.52614945 -0.67128146 0.7592798 1.1955382 1.0763327 0.8838343 2.1873522 -1.4617704 -0.9832829 -0.38438883 0.34186816 0.34105182 -0.0058034724 0.602373 -0.7085375 2.1127346 -1.1766827 -2.1008873 1.0198458 -0.38736537 0.026050689 -1.2741044 -0.17174587 0.41606265 1.713359 1.1322514 0.38416505 -1.715696 -1.3129315
end -0.96309376 -1.2936895 1.6430488 -1.6707495 0.053207185 2.0059664 2.3788958 -1.5458926 0.41276512 -0.6252905 0.5773141 -0.12034476 0.5479483 0.21908249 -0.73115253 -0.5493438 -1.8368702 -0.5045379 -1.2335626 -1.0635529 -0.28886724 0.47052637 0.67298377 -0.15632728 3.5666265 0.6413233 0.55312634 -0.2547256 -0.06391475 -0.4179558 -0.016668309 0.6749346 -1.4773989 -1.1067919 0.4468335 -0.42444098 -0.08288048 1.854504 -0.5406647 0.6779593 -0.9300183 1.2363055 -1.9807564 -1.1685998
scenes 1.5042304 -1.1167504 1.3680869 0.045187403 1.0515102 2.9285514 1.0746634 -1.3848261 1.430965 -0.07688883 -0.5932481 -0.3232318 -2.238813 0.6486863 -0.5066921 1.364608 -1.9515244 0.5464934 1.302712 -0.7049326 3.116893 0.6567617 0.40221462 -1.0639378 1.4477919 -0.8187746 -0.2485527 -1.7537295 -1.4852906 -3.4421847 -0.5813316 1.2325624 -0.0017350116 -0.14999649 0.9957195 1.7037871 -1.5170447 -0.9786926 1.2780457 -0.6434816 1.6449075 -0.8394386 -0.008282704 -2.372669
actors -0.14973935 -0.22552049 -0.71159637 1.1835744 -0.486295 -0.52134204 0.030054064 -1.4908782 -0.40698066 -0.82899296 -0.009037875 -0.5938105 -1.4016551 0.15227365 -1.675049 -0.067228906 -1.2863824 -1.9389038 1.5281698 0.19010293 -0.00027976884 -0.9803121 -1.9833657 -0.43633807 -0.9517367 -0.8639514 1.9741094 1.3336279 0.008761999 0.31944937 -0.8072339 -0.0014481498 -1.4506322 -0.046505984 -0.54141647 2.196271 1.0005152 -0.86083615 0.13286494 -2.027096 2.1874595 -0.87127596 -2.509773 -1.3652349
makes 0.013153008 -0.30354205 -0.026683489 1.1164778 -0.5719704 0.037514716 0.6479974 -2.3934777 -0.78929377 0.826611 3.0693703 0.10284349 0.86882174 0.8528677 -0.803403 -0.87398064 -0.2093501 -0.12832072 -1.6420467 0.7634446 0.9574002 2.457484 -0.2558976 -1.3900518 2.3595507 -0.17713158 -0.30393726 0.10078981 0.97313833 -0.18735006 0.4882347 0.11801 -2.9733202 1.318519 0.024372792 -0.9573175 1.6173964 -1.0657549 -0.055490196 -0.7605607 0.81211305 -2.3726988 0.18589786 -1.2886355
charger -1.0621004 0.6540356 0.058316473 2.0191534 -0.05963911 1.3464851 0.45265222 -1.1689367 -1.1904318 -1.7875668 0.6546853 0.5792167 -0.4246473 1.1316112 -1.5022203 0.015572285 0.29705518 -0.9513104 -0.51551694 -1.5102775 -0.0022608954 2.064101 -1.4731765 -0.21990177 -0.40494514 -0.22972286 0.30467492 -0.16291702 -0.5948678 -0.09632767 -1.7832935 0.6173793 -0.81305206 0.587326 -0.67262995 1.3578442 -0.95851654 0.6870818 -0.10711978 -0.2203581 1.6804652 -0.06219693 -1.1445054 -0.3989377
overall -2.1464534 -0.35124463 1.4005558 0.024880277 -1.3637985 0.14301169 -0.4721694 -1.6298909 -1.1660048 -1.7261027 -0.56842715 -0.9798237 0.41943765 1.2196698 -0.3481347 -1.4129287 -1.108965 0.19860215 1.9532629 0.60518366 0.73220986 0.7542519 -1.6281068 0.18443888 1.1972364 -1.5896437 -0.14078212 -1.9125918 1.1556201 0.78816193 1.5672791 0.034716316 -0.14757147 0.4140253 0.19337422 -1.0380785 -0.3188648 3.1733017 0.784804 -1.2690575 0.5260358 -0.87988216 -1.9959396 2.1438324
talk -0.98605335 -0.98318547 -0.13910046 0.7661114 0.45981833 -2.1230514 0.8713844 -0.5525587 -0.009565649 -2.3164861 -1.8817995 0.20991002 1.0209154 -0.13349962 0.7773255 0.66182244 -2.4789631 -0.8079872 0.66603965 -0.5037381 1.9359127 1.5626355 -0.008512088 -1.0513299 -0.6756303 0.014569679 -0.70323074 2.0352502 -0.28321183 -0.53933394 0.6469319 -0.3285193 -1.984948 0.26924688 0.6382433 -0.9072559 -1.7187432 0.31693783 2.6569777 -0.45554867 1.5156479 -1.197054 -1.6797009 0.21594779
old -0.14008531 -2.1869707 -1.8243344 1.088362 -0.8157246 0.07037862 0.49910608 -1.5222863 -1.0517184 -0.98926973 -0.43904665 0.013754281 -0.19257715 0.68029153 0.30402783 1.1045895 -0.8950525 -1.2292771 2.4069068 0.42060813 0.95946443 1.587702 -0.039226186 -0.4972431 2.022462 0.69230884 0.5118505 -0.6199223 1.152872 0.05137336 -0.34391603 -1.0436217 0.8411767 -1.5617108 2.0275588 0.7205827 -1.2671496 -0.831317 1.3102956 -1.741201 3.036734 -1.8479562 -0.47298545 1.1755323
fantastic -1.2595786 -0.37350842 -0.8153063 0.113632135 2.0144093 -1.97233 0.08533048 0.50005114 0.9736328 -2.2872667 -0.57638085 1.4971765 0.259189 1.1404912 -0.5815438 2.0126586 -1.5850488 -0.5782475 -0.37492818 -0.7233326 0.5127908 2.3798378 -1.6170747 1.621293 2.7959259 0.9850127 -0.08958306 -0.7733299 2.7605827 -1.3968754 1.1238399 -0.5195499 -0.46827218 1.3490413 1.1031295 -0.37952185 1.4043936 -1.0822723 -0.94631886 -0.03511248 0.04283164 1.2830766 -1.9531671 -0.22213103
night 0.60252017 -1.839133 0.9539691 -1.1023388 2.0602875 -1.513013 -0.9407202 -1.3225516 1.2629821 0.69263303 1.4554107 0.2662506 -0.276993 1.7210746 -1.1284727 2.2388654 -2.4219184 -0.032036316 -1.1713451 0.2990674 0.52020717 0.39321622 -0.57416093 1.0498227 -0.024474358 -1.693064 -0.2956527 1.7301941 -0.30769613 0.8191137 -0.073501766 -0.26238626 -1.5276941 0.27166784 0.37681982 -2.5236652 0.6895604 2.217769 0.599687 -1.1691151 0.5899873 -0.30708545 -0.800751 0.45245123
come -0.09003783 -1.5865242 1.4152918 -1.0690001 -0.029068412 1.6621594 -0.21677595 -0.68851143 0.3693407 2.5495503 -1.1003097 1.9072576 1.4241697 0.026564615 -3.142916 0.76927674 -0.35022625 -1.3215637 0.28256923 -0.09798696 0.50827956 1.2358115 -0.2760997 0.73994845 -0.25979757 -0.53050184 -0.13916767 0.10658603 0.7853833 -0.3604613 -0.30548978 -0.87503594 -0.82730913 1.7254841 1.0066144 -0.26895252 -0.20370714 0.998377 1.0631031 -1.1652524 0.72911 0.26517567 0.056720145 2.105315
day -0.22673438 1.4965254 -0.57556707 0.10262422 0.83664966 -0.6140424 0.63754505 0.47701105 0.46068513 0.25184414 1.0982922 1.7675152 0.012189532 1.447923 -0.952064 1.9748993 -1.6284053 1.466056 1.4456499 0.5378096 0.88680387 -0.6864917 -1.3851662 -0.5323065 -0.32172763 -1.7039293 -1.1734246 -0.7814059 0.38644236 -1.4664179 -0.49873194 -0.38661343 -0.5138594 1.7786713 -0.22034824 -1.7951524 -1.8802243 2.2608042 -1.1132282 -2.3734365 -0.30220535 0.35291752 -1.775421 0.3651605
last 0.6072243 -1.8490285 0.4778512 -0.13465954 -1.2836697 1.1625934 0.38420895 -0.8455998 0.6563579 0.6443083 1.1368669 -0.18016824 -0.62875324 2.2725556 -1.2582626 0.57735354 0.6834661 0.00045623136 0.4812686 0.11959591 1.2708536 0.587782 -0.29535693 0.7294534 0.14344966 -0.46099958 -0.95858616 0.46781528 -0.538881 -0.44854128 -0.4405819 -0.33762237 -1.6792828 0.22424425 -0.1967655 0.48403832 0.5322159 1.2710487 1.6269144 -1.3189985 -0.18921848 -0.0623973 -0.5250215 -0.33568832
though -0.08585094 -0.7181512 -2.8823292 -0.019967174 -0.19907553 0.06008995 -0.44073892 -0.45813665 0.754372 0.6024438 -0.4398209 0.9720758 -0.2832812 0.17344601 0.5575529 0.8911757 -0.7495038 -1.1559893 1.0815018 1.4017636 1.6651515 -0.18663834 -0.5745425 0.96088356 0.57010454 0.9052909 1.3801575 0.55035174 0.4234375 -0.27220753 0.0021676354 -0.39893582 -0.6208977 1.1075206 -0.38964072 -0.76743984 -0.12301375 0.063890815 0.059231002 -0.55939484 0.64784485 -1.4872477 -1.6822543 -1.1888297
small 1.3182455 -0.62657905 -1.6180449 -1.0450631 -0.4864644 1.5291835 -0.85320055 -2.3969488 -0.7141645 -0.9912719 0.37586904 1.3465796 -0.28056112 0.11498807 -1.5121826 -2.4007566 -0.028936068 -0.117973566 -1.5276186 -2.0769553 1.9791988 0.06961802 -0.08005201 1.5076767 0.73306334 -0.24931803 2.6353292 1.3680499 2.0294175 -1.4602194 1.8108411 0.8993367 -1.8838933 1.3279412 0.26770923 -2.6958194 -0.24594921 -1.5877066 2.878573 0.3050012 0.5968441 -0.3532307 -1.024883 -0.85565305
job -1.3393157 0.11937808 -1.674583 1.2465944 0.5089634 -0.8847635 1.2525873 -1.5898226 -1.1458117 1.5152802 1.6026512 0.83572567 0.56705356 1.4767741 -1.2517085 1.6117514 -1.8373085 0.4916472 0.054077074 -0.89695734 0.6171985 -1.9903363 0.83880323 1.7434562 1.5311173 0.97332495 -0.6630653 -0.013406435 0.4281557 -1.095345 0.9294914 -1.3895599 -3.2830577 0.42487934 1.0795474 -1.5856737 0.18763772 1.2533724 1.3683207 -1.4838457 0.4578544 0.20321523 -1.0851805 -1.1662842
black 0.34082472 -1.5123174 1.4443384 0.84081995 0.01915007 -0.5362039 1.4367615 -1.0656401 -1.6848683 -0.27868733 -0.9708081 -0.83156353 -0.29560405 0.13929105 -3.5119765 0.22000383 -2.2554111 -1.3939223 -1.036355 1.7748202 0.5973379 -0.27507994 -1.3723897 -0.30302998 -0.6446344 -0.961147 -0.43623814 0.5601078 0.14829978 -1.0785869 -0.27639538 0.14787681 -1.4112467 0.59626883 -1.2909992 0.4893597 -1.099212 -1.6572754 2.1598608 1.6731555 1.1465257 0.29873982 -0.7019201 -0.6974133
part -0.11146445 -2.2231078 1.4971985 1.3334458 -0.76379955 -0.55068445 0.5188815 -1.7553613 -1.5107931 -0.12858762 1.2875704 0.70053095 -0.5110797 -1.7654836 -2.7124228 -2.321619 -0.6181695 -1.690764 0.2229213 -0.6940881 0.4815844 0.9637608 -0.99563414 1.6091388 0.09286998 2.4426515 0.97949636 0.22016086 -0.56996274 1.7250035 2.0898578 -0.4148753 -0.19595794 1.0238965 -1.25206 -0.28618038 -0.7350889 2.3727157 -2.0679827 0.42982066 1.0265671 -1.7947184 -1.9233836 2.1160855
family 1.7950714 -0.72894937 -0.47347468 -0.21781828 1.3843822 -0.29951665 0.674281 -2.8483806 2.0751412 -1.5226986 -1.1001242 -0.2943944 0.36183912 -1.6229388 -1.9274911 -0.7333506 -1.4072717 -0.7150554 0.26242223 -0.7652423 1.2184178 2.219517 -0.19097205 0.96804136 1.9982735 0.0046285624 1.2573725 1.3157669 -1.8968043 -0.14089647 -0.4458248 0.24027342 -1.477713 2.1658697 -0.11637681 -0.51241463 -0.49298865 -0.78665465 -1.1398203 -1.6647266 -0.44667405 -0.6115121 -3.0860586 0.32627556
cheap 0.040161297 -0.66888475 1.759001 -0.3426069 0.43501318 -0.8367141 0.33443338 -2.7428772 -0.44157538 -1.403488 -0.3601843 -0.24720234 1.7101198 2.689235 -1.7006738 0.09654082 -2.8623698 -1.6146967 2.8089845 1.1280062 -0.85340923 -0.47352147 0.701893 0.71810484 2.379882 -2.6689227 1.2738117 -2.0544455 0.4586735 -0.25726587 -0.591938 -0.20623392 -0.2622805 -1.4647892 -0.7672145 -2.208338 0.4732106 -0.81003594 -0.12442604 -0.16361198 2.1898568 -0.9802026 -1.3287596 -1.4767892
cast -0.7360332 -1.7745652 -0.4252723 -0.8212514 1.0815806 0.34207314 2.725446 0.10009312 -0.95003545 -1.0680566 -0.6102824 -0.06087091 -0.071729004 0.75807965 -1.205228 -2.094882 -1.2417647 -3.22154 -0.1535821 0.93508667 -1.432085 0.9314821 -1.8913282 -1.1511413 -1.684576 -0.55099875 -0.16577052 -1.5653667 -0.062700436 -3.56807 1.0694472 -0.6297692 -3.2258933 0.76992023 0.2811378 0.6937909 0.71608233 -0.78372383 -0.25148955 -1.6171894 0.2839065 0.9025638 0.0075333305 0.5498728
bluetooth 0.9195134 0.5217122 -1.0601557 -0.013051341 -0.005210742 1.6096181 0.5098327 -0.20882432 -0.11170176 -0.19438472 1.1998998 1.1055954 -0.33541396 1.545786 -2.3649747 -1.3210443 -1.5796803 -0.3331459 0.894426 -1.259366 2.0236948 2.2039418 0.38159302 0.7340029 1.6850309 0.43019125 0.5442852 -0.042649742 0.26708725 0.037905958 -0.85907125 -1.7575501 -1.4409403 0.35227105 -1.2881643 0.0657632 -0.78171235 0.65518045 0.13454549 0.35010576 -0.19924496 -0.043103676 -0.09219338 -0.33451128
chicken 0.50156957 -1.8732563 -0.577774 -0.8610256 0.24306174 0.91291326 -1.2579409 -0.8539207 0.8795051 -2.589051 -0.20313427 -0.95643216 0.38442644 0.10772067 -1.1835456 -0.11917864 -0.035114557 1.1460359 0.8135336 -1.6124717 0.5494526 -1.3332705 1.1237646 1.6791388 1.7756673 0.9582946 -0.9366899 -0.24711832 1.282082 -1.8792368 -0.13154447 1.7147343 -1.8251121 -0.7342181 -1.6527226 -0.8067501 -2.0483122 0.34065852 -0.19174837 -0.40031 1.649241 0.5143263 -2.5002508 0.94014096
beautiful -0.5769747 -0.8428491 -1.110454 -0.45759442 -2.3802207 -0.58686465 0.5112065 -0.5714935 1.7901692 1.22875 -1.2712413 -0.30639842 -0.7413239 1.3818951 -1.2043375 -0.71282715 -2.8658257 -0.052490734 -0.49720058 -2.0710309 1.7475588 1.5411571 0.091630705 -0.21387129 3.7183173 1.3623542 1.225013 -1.3244542 1.7911283 -0.36407864 2.9487464 -0.27898026 -2.1513035 0.95341617 -0.93040085 -0.34839863 -0.09332936 -1.8439568 -0.45079717 -0.13517238 1.2534144 -1.4478406 -0.19207086 0.56242764
feel 0.74134856 -0.96937793 -1.1847668 0.20096159 1.2940949 -1.0962458 0.47553626 -1.567339 0.08507271 0.6694025 -0.10849305 1.0112678 1.1669797 -0.40208453 -2.0244505 -1.3603181 -0.5329763 -1.0090433 0.8552364 -0.7710622 0.8579733 1.3978598 0.44256538 0.05330676 1.4444358 -1.4380236 1.5814147 0.14176601 0.6435117 -2.512374 -0.46523952 0.747284 -1.1169951 -1.3984511 -0.87652355 -0.4926753 1.5109915 1.7993422 1.3722821 -1.6195804 0.80576116 -1.3200967 0.47224373 -0.24260758
stupid 0.1701763 -0.59252435 2.1990135 1.5452892 -1.2791406 0.0815491 -0.29181615 -2.0416136 1.386388 -0.10745809 -0.32221574 0.7757229 -0.41487458 0.9550228 0.4299342 -0.9900211 -2.6189823 -1.5484304 0.83991456 -1.3580995 -0.29073304 -0.322747 -0.7173536 1.7303457 0.26141617 0.08750279 0.27083537 -0.51102906 -0.06562798 -1.1900275 -1.1860645 0.6019531 -0.6300047 -0.15868163 0.10463396 -0.38528612 0.6278721 0.5353592 -0.55338204 -1.7310089 1.2983276 -0.54823434 -0.7224618 -0.5830421
ordered -0.38761976 -1.9257692 -0.53239334 -0.661447 -0.015986316 0.32436424 2.5410302 0.16531308 -1.0667708 -0.9685842 0.8158928 0.9130615 0.34009987 1.9653972 -0.43987992 -0.8641047 -0.47114965 2.7719045 2.1643698 -1.7990986 -1.1719114 0.33147177 -2.0692654 1.7052636 0.83971167 -0.22160232 0.35124108 -0.08145376 1.0539694 -0.9237308 -0.21740983 -0.9016596 0.3205662 -0.8007768 0.7700841 1.1117468 -0.033113934 1.0933827 -0.12932734 -1.778352 0.9095614 -0.56387144 -0.6689949 -0.5112582
kind -0.4030682 -1.8161337 -2.0354137 1.2252191 -0.40913647 1.00821 2.8688064 -1.276309 -0.49865252 -0.27105373 -0.18409088 2.044078 0.597513 1.1220267 -0.21652609 -0.12601003 -1.1143477 0.986814 1.0086743 0.5333814 -2.0672383 -0.734672 -0.4532284 0.05469227 1.4723018 -1.1867298 -3.1295578 -1.061602 -1.1066998 0.51826185 3.0137668 -0.5289176 -1.4769111 -0.65463775 -1.3572263 1.5356386 -2.4289582 -0.48395258 -0.56470966 -0.35964233 0.3198224 -0.48157406 -2.7733028 -2.1052485
said -1.0841482 -0.7948585 -0.13546066 1.3284407 0.7094287 -0.565598 -0.45158455 -0.91320884 -1.3414251 -2.7501678 -1.9797382 1.6259586 -0.9138438 1.40571 -0.46407858 0.19334437 -2.7557378 1.1268647 1.6246307 -0.36465392 1.7495972 -0.30414006 -0.4005571 -0.8098811 -1.0491678 -0.8656593 2.1919243 -0.34521633 0.91843945 1.3218915 0.109295405 1.5766163 0.15830936 0.058202192 -1.2117279 1.2411575 -1.3548788 -1.0684289 -1.3921651 1.1515049 2.0285356 -0.69612336 -2.52968 2.0593777
perfect 0.065953836 -1.0999188 1.085796 0.44755676 3.5213842 -1.3141221 1.5528971 -0.854671 2.468361 0.11146433 -1.0539324 0.92967206 -0.36690357 -2.033975 -1.0240744 1.4500843 -1.5569277 2.573357 1.0548432 -0.60352343 0.7031304 -0.18836467 0.22931151 3.0723658 -0.41248137 0.52134746 0.62072223 1.0091906 1.0432389 -0.21088623 0.20612653 0.8692423 -1.639381 2.2182984 -0.6556325 -1.3567427 0.099749334 -0.015849482 0.30846146 -0.60586435 1.5643492 0.2190311 -0.9776872 -0.45810392
line 0.4270639 0.34012675 0.21435086 -0.24571255 2.5719488 0.5423517 0.21759385 -0.51708895 0.6220905 -0.55094016 -0.49000537 -0.1393756 1.1433846 2.0482798 -1.6267313 0.60398895 -4.405034 -0.63745135 0.8331357 0.4866124 -1.520309 2.8398266 -1.5860401 -0.7200731 -1.1399475 -0.5394254 0.45248434 -0.36389038 0.29689747 0.8081665 -2.3278341 0.4073588 -2.831421 1.276987 -0.7192423 0.020677622 -2.8261585 -0.4894775 -0.6904615 -0.21419387 -0.8196467 -1.40483 0.4036378 -1.0277238
reception 0.82283986 0.3380359 -0.6662934 1.1655753 -1.3372947 0.64870685 -0.32050058 -0.9735741 -0.5211245 -0.33546844 0.3532347 1.6558342 1.2506433 1.749632 0.025560113 -0.1372881 -3.916856 -0.47496098 0.34414646 -1.1174083 0.30753508 1.5691661 -0.80783796 0.1188033 1.6335646 -1.2790494 -0.52820295 -1.2456518 0.0050242003 -0.18937494 -0.43816394 0.26383305 -1.3821226 0.55886805 -1.1604614 -0.1435152 -1.4713088 -1.2728593 1.3127756 -1.1565081 0.55027914 0.57866687 0.16532959 -0.26345727
fresh 0.9111128 -3.367983 0.16885744 0.19705862 3.7031353 -0.39692864 -1.3838781 -0.423649 -0.7860309 1.7192098 -0.9690205 0.96209913 -0.36507037 -0.2855972 -1.1424655 0.12994902 -1.3308094 0.7433728 1.7305325 2.475403 -2.5042925 1.1206515 -1.0933853 1.2894267 0.6099448 -1.3645763 -2.0349047 0.53133494 2.6200483 -0.44931316 0.019791074 1.5613382 -1.0321043 1.1739303 1.5200913 0.13140328 -0.014891775 -0.80445284 -0.94516736 2.8653708 0.35044008 -0.5676168 -3.6344163 0.8345228
sure -1.6800299 -2.2546496 0.14252622 2.1448588 -1.6246876 2.2833228 -0.8961409 -0.05165402 -0.37515342 0.36378053 -0.27027428 0.62233204 -0.08827584 0.23868947 -1.438992 0.39598134 1.6989827 0.4218721 0.39286157 -0.27336583 1.0396471 2.4469056 0.20450339 0.18859707 0.29814819 -0.70897657 -1.0875406 -1.7639123 1.4615421 -1.4292941 -1.7956223 0.07325821 -2.079836 0.83277184 -0.64119166 0.018618394 1.6251072 1.4108446 0.42503157 1.4527392 0.7154134 -0.27169454 -1.2862821 -0.52381516
try -2.5066826 0.4015975 0.29185763 -0.5056743 0.8625174 -0.3030269 -0.2482433 -2.2791023 -0.77557373 0.7399916 1.0745792 -0.06802025 -1.9332098 3.1987257 0.27956548 1.6948998 1.0236931 0.5934379 -1.4376217 -0.38215837 1.1870492 2.5444937 1.4857993 1.1465497 1.8827841 -0.9240434 0.69387895 1.1715896 0.7833158 -2.4755535 -0.42832753 1.3320701 -1.2338452 3.093465 0.06656274 -0.4285021 0.44836062 2.8066578 0.34708235 1.4036273 0.7327835 -2.1057453 -1.3509154 0.882631
next -1.4754199 -1.9986337 1.044714 -1.0438614 0.81857324 -1.8383098 0.78298503 -0.63814664 0.20440502 0.18608677 -1.3350401 1.6436362 2.2796237 1.9329325 -1.1335251 0.98178613 0.10212236 -0.28494313 0.40474135 0.69012964 -0.5015309 1.141574 0.45508894 1.186997 1.9942962 -1.5320739 0.55994457 0.5394003 3.0246735 -1.7243563 0.45716935 -0.87428683 -1.3227066 -1.0298792 -2.6872535 0.9462181 -0.70245963 -0.5429679 -1.2041893 -0.13444494 1.9669361 1.938409 -2.1328201 1.6260904
done -1.3392856 0.2487298 -0.50204915 0.5771752 -0.94151634 -1.0676792 0.7876988 -3.451655 -2.2320952 -0.5991277 1.0921066 1.0793234 3.6792924e-05 -0.37088692 -2.4726813 -0.5655318 -0.7640002 0.46254337 0.057546582 0.38651258 0.6218143 -0.114342056 0.08756511 1.8886974 1.7328991 -0.9934011 -0.9435468 1.4650551 -1.4482212 -2.7995355 0.062329076 0.70912975 -1.6655432 0.49465287 -1.0661912 0.6852557 -1.1178774 -1.6684221 1.0374589 -1.9116819 1.2041777 -0.21296608 -0.29381377 -0.64027137
avoid -1.3081341 -1.7345494 1.2021736 -0.2944819 1.251861 -0.26776052 0.6459756 2.38059 -0.812748 -0.94208467 1.650871 1.0138972 1.4915352 0.9957146 -3.982749 1.2140322 -0.7397898 -0.6753425 0.4848189 1.031857 0.7832588 2.1345294 -0.24957706 0.20539166 2.3093295 -1.4784269 3.878594 0.8880255 0.7504037 0.13441156 -1.7294776 -0.7772368 -1.5305129 0.25943613 -0.17459449 -0.5666423 0.7545156 -1.2785035 -0.24131556 -0.19147867 2.5008955 1.0987356 -0.8732267 -1.1411254
special -0.086710095 -0.9601218 0.30903384 0.33365354 1.7527128 0.5042139 0.06527527 -3.1297035 0.07839545 0.30264336 0.32837296 1.0350965 0.32835174 -1.1437451 0.961227 -0.19063196 -1.5599097 -2.2983642 -0.26288986 0.63056946 0.8230851 0.9459752 0.6351257 0.054801665 2.7155147 1.5773385 -0.10941771 -0.7222033 -1.3460888 -3.04351 0.52297765 0.8497813 -1.3875475 -0.84650874 1.4020885 1.0463785 1.2802842 1.1658773 -1.0319854 0.09304781 2.3382945 -2.0509574 -1.327958 2.6693285
especially 1.1353066 -0.8681528 -0.79146785 -0.43942845 0.061151862 0.9795793 -0.087513104 -0.82901555 -0.70492667 -0.54827315 0.5573585 -0.841149 0.02477138 1.7071718 -1.2885635 -0.07851395 0.048577115 -1.6610049 0.770329 -0.8884247 0.98540086 0.21901245 -1.7268881 -0.97298425 -0.71768993 -0.055118587 0.3522592 -0.30365315 -0.112874866 -0.8156457 0.021765 -0.026537305 -0.612137 0.19578265 0.27893728 -0.56899494 0.24136494 -0.19029073 0.8618875 0.6597951 0.0019105019 -0.3712936 -1.3581887 0.28577492
actually -1.3769758 -0.9810405 0.97393006 1.2037052 2.0378654 -0.51302063 -0.7095149 -1.2912034 0.9823388 0.34809744 0.13973196 -1.0255545 -1.3497121 1.307033 -1.9166887 0.8264738 -0.5823021 1.7160851 1.3837508 0.3829028 1.0817981 0.90831804 -0.14703907 -0.54309434 -0.16139135 0.8133059 0.6190727 0.15371308 -0.73650837 -0.6695328 1.5542827 0.4947192 -0.45316175 1.5891633 -0.49076712 0.6675546 -1.9682606 1.0860814 1.2819897 0.018905044 -0.8557442 -1.9397665 -0.36458436 0.2468811
low -1.9181087 -2.8026502 1.0232205 1.4429852 0.24649017 -1.344006 -1.0123844 -0.8590565 -1.8804706 0.42638534 -0.69058174 -0.15076697 -0.98373723 1.5212156 0.43364078 1.0804584 -2.8283315 -1.8434764 -0.20603573 -0.84076536 -0.17323446 -1.1478832 -2.803371 -0.17005411 -0.8821299 -1.977068 0.61379695 -1.728699 1.6477262 0.44782305 0.74598753 -1.1391175 -2.1927063 1.4786015 -2.4004252 -1.158592 0.8305751 0.93863434 1.2153027 -0.68627423 -0.5410976 1.0665895 -1.1106836 -1.33144
problem -2.0007384 -1.5625491 -0.18429302 1.4786221 1.2314689 0.6363942 0.20966154 1.0178674 0.4104829 0.33980066 2.6933532 -1.3427843 -0.024554739 1.8037862 0.34058374 -0.0358948 -3.2069342 -1.5634772 -0.5575477 -0.96076274 3.0544248 1.4164532 -0.7810861 0.99670666 1.2814031 -1.2872183 -1.0805292 -1.532217 0.730653 -1.0593383 -2.066512 2.4340482 -1.7671028 3.6699688 1.0237697 -0.11581505 -0.1927752 2.4036684 1.0367433 -0.35413426 -1.4930278 -0.54311144 -0.5201348 2.3515468
performance 0.28409344 0.6119671 -1.7822651 -0.59760016 0.9770735 -1.5670698 0.59226054 -1.760463 0.24606192 -0.7888843 2.3352215 -2.5654972 0.18623435 0.7976423 -1.272927 1.374845 -3.961753 -1.045007 0.8783153 -1.0694655 1.2200357 1.7754025 -1.800275 -0.9933095 0.41964504 -2.1048546 0.38451594 0.3058041 0.45124364 -1.2142619 0.83279824 1.1424642 0.06606019 1.6844789 -0.5272782 0.0105404705 0.77586645 0.23664667 1.8108118 -0.80979383 0.9283895 -2.159523 -0.81227434 -0.9012266
problems -1.2444347 -0.47354186 -0.26933032 2.5884347 1.8231035 -0.009185312 1.4389778 -0.46185318 0.14927611 -1.0057651 -0.49474162 -0.24354684 0.56957555 3.5347602 -2.4117315 0.9048582 -0.65969354 -1.5534931 0.015972158 0.52154875 -0.47720453 1.2623447 -0.94234943 0.19671036 0.08389211 0.11891518 1.4252625 0.42014882 0.40122905 -1.817022 0.84761757 -0.7941357 0.6960539 -0.37040582 -1.6648418 -0.5119263 -0.91072404 0.18014768 -0.002236762 -0.3519366 -0.041102983 -1.397782 -0.549311 0.842146
menu 0.011250637 -2.0063195 -2.1531858 -0.96575594 -1.7328902 0.0039707934 -1.1260247 -1.0615009 -0.22944814 0.048335057 -0.68539196 0.78626734 -0.5878336 1.9517422 -1.780298 -0.9319623 -1.6335462 0.21519607 -1.3437693 -0.85950667 -0.53428805 0.857502 -1.5594614 2.6960907 1.1225588 0.9248009 -1.8722078 -0.62375456 -0.29030988 -2.1031985 0.5616195 -0.3690619 -1.7357837 0.5415204 -0.73550105 -2.013834 1.8781948 1.0143971 0.093273416 -0.50102067 0.8787664 -0.020577027 -0.6003526 0.4592343
tried -0.9438533 -1.4950453 0.6417722 -0.014744463 -2.1880453 1.2586653 -1.656422 -1.1748757 -3.4484558 -0.4575827 -0.41454417 0.6212248 1.895051 2.4480164 -1.0923681 0.4042883 1.4962807 0.32352537 -0.53183675 -0.12873398 -0.22602166 1.2624515 0.059018563 1.4192019 1.2954906 -0.051033985 0.20170426 1.6699057 0.7345213 -0.8655244 -0.82272196 0.5450307 -0.51829475 0.3783361 -1.0072197 -1.1146617 -2.0577488 -0.27937797 0.038275912 -2.2551208 1.979125 -0.89260095 -3.000978 -0.6929655
salad 0.7834965 -0.42889163 0.069793314 -0.5815581 2.0803237 2.0134342 -3.4138618 -0.17443682 0.62859523 -2.4107592 0.19690572 1.0887371 0.83781856 2.8594394 -2.4440246 0.27185678 0.8231922 0.80739343 -0.018342864 -0.65760183 -0.17006432 -0.60110414 -2.7124877 1.7783821 0.8000772 0.7166893 -1.019663 1.2785112 1.3706518 -3.346759 -1.8619114 -0.04110653 -1.6142886 -1.2885705 -0.9695449 -0.655825 -1.4218097 1.1557996 0.9414082 -0.8288225 1.0583527 -0.7444511 -1.2986579 1.7398714
sucks -3.2878506 -0.27475557 -0.9572522 2.7184052 -1.7297001 0.4373619 -0.13735873 -1.0934615 0.51928777 -0.14354938 2.300603 2.993381 -0.51076543 1.3279502 1.4595594 0.94853044 -2.1903148 0.29387698 0.96081465 0.18006222 0.8032737 0.10956426 -1.2228673 1.000742 1.8983939 -0.59135056 -0.65244794 -2.8258476 0.29716972 -1.1734358 1.2146522 0.7856072 -2.3481708 0.7120872 -1.3111496 1.5515977 0.54764944 -0.8900351 -2.1826956 -0.24124698 1.68285 -0.33133718 -1.2979467 1.5464379
hard -1.0679011 -0.24813867 -0.9936457 0.08529856 0.68676215 -0.1954233 -1.2108461 -0.36753154 -1.8264681 -0.20473424 -0.038531072 1.0394871 0.856095 0.76285046 -2.0434375 0.74635255 0.45161986 -0.13510449 3.077882 1.3900251 1.3531632 1.643781 0.40715826 -0.5850967 1.4434491 0.46796566 0.8229333 -1.3220849 -0.45562834 0.30883235 1.7307589 -1.7294134 0.9597692 1.0796559 -1.7104694 1.4412016 -0.9372924 1.5732324 -0.60503685 0.560143 1.7877818 -2.484013 -2.2255003 -0.84282917
least 1.4046412 1.3404306 0.010444148 -0.74602985 -0.2219484 -0.7895406 0.86401135 -1.1346132 1.0936486 1.573226 -0.869781 1.569599 -0.7948396 2.2736073 -1.2890767 1.709071 -1.1367031 -0.8782187 2.548953 0.157832 0.26782748 -0.21995239 -0.9189504 -0.56206024 -0.89460903 -2.2339027 1.8846921 -0.8607794 0.20570786 -0.5605943 0.23925383 0.78676313 -2.6144023 0.8529279 -0.7890484 1.5799718 -1.1969049 1.5798861 -0.6972898 1.3373407 1.8075299 -0.11511154 -1.0628839 -0.49726802
customer 1.0001378 -1.3232055 -1.4828511 0.36943182 0.12033844 0.06390197 2.348092 -2.0141547 -1.2446792 -0.8754573 0.6760019 0.45296267 0.09038213 -0.55450976 1.1130147 2.2424803 -3.147963 -0.30033305 1.7241291 -2.1440227 1.5901883 0.17473711 -1.1240376 -0.5989366 -0.44679987 0.053299673 -0.40238118 -0.2507379 0.9738291 0.42257074 1.6992596 -0.17128694 -2.0092752 -0.6149775 -1.859324 1.1268611 0.023089165 3.123854 0.6208103 0.55445695 0.75690174 0.31505606 -1.6664501 0.4472007
coming -0.15938103 -1.913555 1.3955259 -0.18987647 -0.8583545 -1.5973451 -0.86921084 -1.478332 1.3073763 -0.3620944 -1.2715627 0.05826745 2.7513793 0.66745365 -0.7963758 0.8616448 -1.0238495 -1.0971906 0.9061804 1.3211222 0.35259378 -0.14112186 -1.0262779 0.65577686 1.195593 -0.5059281 0.10052952 1.3530781 0.18989441 -5.383147 0.61827695 1.9322867 -1.4716455 0.43999183 0.44423157 1.5482547 0.57342297 3.2894893 -0.4468228 0.63317466 0.6383257 -1.1004099 -2.378765 -0.7620977
everyone 0.6204148 0.2389687 1.5245906 0.33703187 1.808553 1.4051217 0.69549227 0.81691825 -1.5926627 -1.8751506 0.62148476 -0.70121706 0.92116886 0.51403207 1.7332926 1.1242821 -2.5877626 0.20809734 0.17620859 0.0872811 0.13819602 -0.5999079 -0.39139968 -2.6520853 1.4326196 -0.06557143 0.99061686 -0.8900967 0.44055822 -2.6273005 2.440373 0.3893112 -3.1056707 1.2554469 2.493838 -0.33402628 -1.167974 -0.9206399 1.5537038 -0.97388124 0.7817485 -0.6731303 -0.5908732 0.36193874
year -1.7788575 -0.32736003 0.19907865 -0.1313378 0.4761503 -1.0502806 1.2531704 -0.7153885 -0.73618263 -0.36658138 -0.41802198 1.2406194 -0.749387 0.6097201 1.2518544 -0.11521792 -1.7512282 -1.4562317 2.9845994 -0.029335696 0.74321455 3.2505677 -0.0953785 2.231698 0.44598982 0.5171593 1.8304138 0.65352345 2.544754 -0.2969445 -0.22603668 -1.4648423 -0.41656488 2.341369 0.23852164 1.449694 -0.15365937 0.3885691 1.8236572 -0.1827501 -0.9163822 -0.64613664 -1.3583074 -0.11493895
bit 0.6871544 0.14978124 0.64812773 0.5760261 0.39585665 0.9857624 0.25330397 -1.3682117 1.2673309 1.0909811 -2.3141637 1.639276 -0.6257967 1.8535208 -1.0698346 -0.54451215 -0.3358299 -0.32984436 0.16112728 0.8840195 0.52117234 1.7964569 0.11004872 0.42786297 1.3918443 -0.6529146 0.40540463 -0.18878263 0.78794676 -0.029273076 0.78018624 1.848287 -1.8089802 -1.4795309 -0.70840615 0.91951865 3.1790476 1.1783905 -0.12432002 1.680983 2.5449262 -1.780353 -2.7129169 -1.1583443
order -1.8994932 -0.10722256 1.2707144 0.40233555 -1.8006915 0.87813866 1.5602434 1.126741 -2.253064 -0.5406133 -1.7170093 1.4973783 1.2497989 2.52734 -0.42114976 -1.4037308 -0.27994582 -1.1441126 0.15464538 -0.23340464 -0.40113458 1.7295958 -2.815952 0.8628409 0.3746356 -1.0790133 -2.5772474 -0.48110282 3.0540657 -0.815175 -0.6985919 1.5715084 -1.0188792 0.49823147 0.7985845 -1.0559953 0.5865695 1.4515835 -0.2690152 -0.3183932 1.180945 -1.2462087 -1.7933817 1.6934454
